digraph Tree {
node [shape=box] ;
0 [label="X[7] <= -0.134\ngini = 0.667\nsamples = 2186\nvalue = [1140, 1183, 1181]"] ;
1 [label="X[3] <= -0.414\ngini = 0.61\nsamples = 632\nvalue = [459, 411, 143]"] ;
0 -> 1 [labeldistance=2.5, labelangle=45, headlabel="True"] ;
2 [label="X[5] <= -0.365\ngini = 0.516\nsamples = 97\nvalue = [19, 39, 104]"] ;
1 -> 2 ;
3 [label="X[7] <= -0.135\ngini = 0.637\nsamples = 47\nvalue = [19, 35, 20]"] ;
2 -> 3 ;
4 [label="X[5] <= -0.365\ngini = 0.581\nsamples = 27\nvalue = [17, 20, 4]"] ;
3 -> 4 ;
5 [label="X[3] <= -0.414\ngini = 0.512\nsamples = 20\nvalue = [5, 17, 4]"] ;
4 -> 5 ;
6 [label="X[2] <= -0.507\ngini = 0.661\nsamples = 9\nvalue = [4, 3, 4]"] ;
5 -> 6 ;
7 [label="X[4] <= -0.301\ngini = 0.49\nsamples = 5\nvalue = [4, 3, 0]"] ;
6 -> 7 ;
8 [label="X[3] <= -0.414\ngini = 0.375\nsamples = 3\nvalue = [1, 3, 0]"] ;
7 -> 8 ;
9 [label="gini = 0.0\nsamples = 1\nvalue = [1, 0, 0]"] ;
8 -> 9 ;
10 [label="gini = 0.0\nsamples = 2\nvalue = [0, 3, 0]"] ;
8 -> 10 ;
11 [label="gini = 0.0\nsamples = 2\nvalue = [3, 0, 0]"] ;
7 -> 11 ;
12 [label="gini = 0.0\nsamples = 4\nvalue = [0, 0, 4]"] ;
6 -> 12 ;
13 [label="X[6] <= -0.246\ngini = 0.124\nsamples = 11\nvalue = [1, 14, 0]"] ;
5 -> 13 ;
14 [label="X[0] <= 2.182\ngini = 0.444\nsamples = 2\nvalue = [1, 2, 0]"] ;
13 -> 14 ;
15 [label="gini = 0.0\nsamples = 1\nvalue = [0, 2, 0]"] ;
14 -> 15 ;
16 [label="gini = 0.0\nsamples = 1\nvalue = [1, 0, 0]"] ;
14 -> 16 ;
17 [label="gini = 0.0\nsamples = 9\nvalue = [0, 12, 0]"] ;
13 -> 17 ;
18 [label="X[6] <= -0.245\ngini = 0.32\nsamples = 7\nvalue = [12, 3, 0]"] ;
4 -> 18 ;
19 [label="gini = 0.0\nsamples = 6\nvalue = [12, 0, 0]"] ;
18 -> 19 ;
20 [label="gini = 0.0\nsamples = 1\nvalue = [0, 3, 0]"] ;
18 -> 20 ;
21 [label="X[2] <= -0.506\ngini = 0.555\nsamples = 20\nvalue = [2, 15, 16]"] ;
3 -> 21 ;
22 [label="X[5] <= -0.365\ngini = 0.32\nsamples = 10\nvalue = [2, 13, 1]"] ;
21 -> 22 ;
23 [label="X[7] <= -0.134\ngini = 0.5\nsamples = 2\nvalue = [1, 0, 1]"] ;
22 -> 23 ;
24 [label="gini = 0.0\nsamples = 1\nvalue = [1, 0, 0]"] ;
23 -> 24 ;
25 [label="gini = 0.0\nsamples = 1\nvalue = [0, 0, 1]"] ;
23 -> 25 ;
26 [label="X[3] <= -0.414\ngini = 0.133\nsamples = 8\nvalue = [1, 13, 0]"] ;
22 -> 26 ;
27 [label="gini = 0.0\nsamples = 7\nvalue = [0, 13, 0]"] ;
26 -> 27 ;
28 [label="gini = 0.0\nsamples = 1\nvalue = [1, 0, 0]"] ;
26 -> 28 ;
29 [label="X[4] <= -0.301\ngini = 0.208\nsamples = 10\nvalue = [0, 2, 15]"] ;
21 -> 29 ;
30 [label="X[1] <= -0.508\ngini = 0.48\nsamples = 3\nvalue = [0, 2, 3]"] ;
29 -> 30 ;
31 [label="gini = 0.0\nsamples = 1\nvalue = [0, 2, 0]"] ;
30 -> 31 ;
32 [label="gini = 0.0\nsamples = 2\nvalue = [0, 0, 3]"] ;
30 -> 32 ;
33 [label="gini = 0.0\nsamples = 7\nvalue = [0, 0, 12]"] ;
29 -> 33 ;
34 [label="X[7] <= -0.135\ngini = 0.087\nsamples = 50\nvalue = [0, 4, 84]"] ;
2 -> 34 ;
35 [label="gini = 0.0\nsamples = 2\nvalue = [0, 3, 0]"] ;
34 -> 35 ;
36 [label="X[4] <= -0.3\ngini = 0.023\nsamples = 48\nvalue = [0, 1, 84]"] ;
34 -> 36 ;
37 [label="gini = 0.0\nsamples = 39\nvalue = [0, 0, 66]"] ;
36 -> 37 ;
38 [label="X[6] <= -0.246\ngini = 0.1\nsamples = 9\nvalue = [0, 1, 18]"] ;
36 -> 38 ;
39 [label="gini = 0.0\nsamples = 8\nvalue = [0, 0, 18]"] ;
38 -> 39 ;
40 [label="gini = 0.0\nsamples = 1\nvalue = [0, 1, 0]"] ;
38 -> 40 ;
41 [label="X[0] <= -0.519\ngini = 0.539\nsamples = 535\nvalue = [440, 372, 39]"] ;
1 -> 41 ;
42 [label="X[6] <= -0.246\ngini = 0.262\nsamples = 101\nvalue = [133, 12, 11]"] ;
41 -> 42 ;
43 [label="X[3] <= -0.413\ngini = 0.634\nsamples = 19\nvalue = [11, 5, 11]"] ;
42 -> 43 ;
44 [label="X[5] <= -0.364\ngini = 0.461\nsamples = 10\nvalue = [1, 4, 11]"] ;
43 -> 44 ;
45 [label="X[2] <= -0.507\ngini = 0.5\nsamples = 4\nvalue = [1, 4, 1]"] ;
44 -> 45 ;
46 [label="gini = 0.0\nsamples = 2\nvalue = [0, 4, 0]"] ;
45 -> 46 ;
47 [label="X[0] <= -0.52\ngini = 0.5\nsamples = 2\nvalue = [1, 0, 1]"] ;
45 -> 47 ;
48 [label="gini = 0.0\nsamples = 1\nvalue = [0, 0, 1]"] ;
47 -> 48 ;
49 [label="gini = 0.0\nsamples = 1\nvalue = [1, 0, 0]"] ;
47 -> 49 ;
50 [label="gini = 0.0\nsamples = 6\nvalue = [0, 0, 10]"] ;
44 -> 50 ;
51 [label="X[1] <= -0.503\ngini = 0.165\nsamples = 9\nvalue = [10, 1, 0]"] ;
43 -> 51 ;
52 [label="gini = 0.0\nsamples = 7\nvalue = [9, 0, 0]"] ;
51 -> 52 ;
53 [label="X[7] <= -0.134\ngini = 0.5\nsamples = 2\nvalue = [1, 1, 0]"] ;
51 -> 53 ;
54 [label="gini = 0.0\nsamples = 1\nvalue = [0, 1, 0]"] ;
53 -> 54 ;
55 [label="gini = 0.0\nsamples = 1\nvalue = [1, 0, 0]"] ;
53 -> 55 ;
56 [label="X[7] <= -0.135\ngini = 0.103\nsamples = 82\nvalue = [122, 7, 0]"] ;
42 -> 56 ;
57 [label="gini = 0.0\nsamples = 1\nvalue = [0, 2, 0]"] ;
56 -> 57 ;
58 [label="X[6] <= -0.245\ngini = 0.076\nsamples = 81\nvalue = [122, 5, 0]"] ;
56 -> 58 ;
59 [label="X[5] <= -0.363\ngini = 0.185\nsamples = 17\nvalue = [26, 3, 0]"] ;
58 -> 59 ;
60 [label="X[5] <= -0.364\ngini = 0.074\nsamples = 15\nvalue = [25, 1, 0]"] ;
59 -> 60 ;
61 [label="X[6] <= -0.245\ngini = 0.32\nsamples = 3\nvalue = [4, 1, 0]"] ;
60 -> 61 ;
62 [label="gini = 0.0\nsamples = 2\nvalue = [4, 0, 0]"] ;
61 -> 62 ;
63 [label="gini = 0.0\nsamples = 1\nvalue = [0, 1, 0]"] ;
61 -> 63 ;
64 [label="gini = 0.0\nsamples = 12\nvalue = [21, 0, 0]"] ;
60 -> 64 ;
65 [label="X[3] <= -0.411\ngini = 0.444\nsamples = 2\nvalue = [1, 2, 0]"] ;
59 -> 65 ;
66 [label="gini = 0.0\nsamples = 1\nvalue = [0, 2, 0]"] ;
65 -> 66 ;
67 [label="gini = 0.0\nsamples = 1\nvalue = [1, 0, 0]"] ;
65 -> 67 ;
68 [label="X[0] <= -0.521\ngini = 0.04\nsamples = 64\nvalue = [96, 2, 0]"] ;
58 -> 68 ;
69 [label="X[7] <= -0.134\ngini = 0.023\nsamples = 56\nvalue = [84, 1, 0]"] ;
68 -> 69 ;
70 [label="gini = 0.0\nsamples = 39\nvalue = [62, 0, 0]"] ;
69 -> 70 ;
71 [label="X[2] <= -0.507\ngini = 0.083\nsamples = 17\nvalue = [22, 1, 0]"] ;
69 -> 71 ;
72 [label="X[7] <= -0.134\ngini = 0.32\nsamples = 4\nvalue = [4, 1, 0]"] ;
71 -> 72 ;
73 [label="gini = 0.0\nsamples = 1\nvalue = [0, 1, 0]"] ;
72 -> 73 ;
74 [label="gini = 0.0\nsamples = 3\nvalue = [4, 0, 0]"] ;
72 -> 74 ;
75 [label="gini = 0.0\nsamples = 13\nvalue = [18, 0, 0]"] ;
71 -> 75 ;
76 [label="X[1] <= -0.51\ngini = 0.142\nsamples = 8\nvalue = [12, 1, 0]"] ;
68 -> 76 ;
77 [label="X[0] <= -0.521\ngini = 0.444\nsamples = 2\nvalue = [2, 1, 0]"] ;
76 -> 77 ;
78 [label="gini = 0.0\nsamples = 1\nvalue = [0, 1, 0]"] ;
77 -> 78 ;
79 [label="gini = 0.0\nsamples = 1\nvalue = [2, 0, 0]"] ;
77 -> 79 ;
80 [label="gini = 0.0\nsamples = 6\nvalue = [10, 0, 0]"] ;
76 -> 80 ;
81 [label="X[0] <= -0.13\ngini = 0.535\nsamples = 434\nvalue = [307, 360, 28]"] ;
41 -> 81 ;
82 [label="X[5] <= -0.365\ngini = 0.503\nsamples = 361\nvalue = [241, 325, 8]"] ;
81 -> 82 ;
83 [label="X[3] <= -0.413\ngini = 0.493\nsamples = 81\nvalue = [69, 54, 0]"] ;
82 -> 83 ;
84 [label="X[2] <= 0.742\ngini = 0.466\nsamples = 60\nvalue = [58, 34, 0]"] ;
83 -> 84 ;
85 [label="X[1] <= 2.012\ngini = 0.449\nsamples = 58\nvalue = [58, 30, 0]"] ;
84 -> 85 ;
86 [label="X[0] <= -0.468\ngini = 0.473\nsamples = 55\nvalue = [48, 30, 0]"] ;
85 -> 86 ;
87 [label="X[4] <= -0.302\ngini = 0.444\nsamples = 49\nvalue = [46, 23, 0]"] ;
86 -> 87 ;
88 [label="X[2] <= -0.507\ngini = 0.32\nsamples = 3\nvalue = [1, 4, 0]"] ;
87 -> 88 ;
89 [label="gini = 0.0\nsamples = 2\nvalue = [0, 4, 0]"] ;
88 -> 89 ;
90 [label="gini = 0.0\nsamples = 1\nvalue = [1, 0, 0]"] ;
88 -> 90 ;
91 [label="X[3] <= -0.413\ngini = 0.417\nsamples = 46\nvalue = [45, 19, 0]"] ;
87 -> 91 ;
92 [label="X[0] <= -0.491\ngini = 0.37\nsamples = 37\nvalue = [40, 13, 0]"] ;
91 -> 92 ;
93 [label="X[5] <= -0.365\ngini = 0.469\nsamples = 26\nvalue = [20, 12, 0]"] ;
92 -> 93 ;
94 [label="X[5] <= -0.365\ngini = 0.457\nsamples = 14\nvalue = [6, 11, 0]"] ;
93 -> 94 ;
95 [label="X[5] <= -0.365\ngini = 0.444\nsamples = 8\nvalue = [6, 3, 0]"] ;
94 -> 95 ;
96 [label="gini = 0.0\nsamples = 1\nvalue = [0, 1, 0]"] ;
95 -> 96 ;
97 [label="X[4] <= -0.301\ngini = 0.375\nsamples = 7\nvalue = [6, 2, 0]"] ;
95 -> 97 ;
98 [label="gini = 0.0\nsamples = 6\nvalue = [6, 0, 0]"] ;
97 -> 98 ;
99 [label="gini = 0.0\nsamples = 1\nvalue = [0, 2, 0]"] ;
97 -> 99 ;
100 [label="gini = 0.0\nsamples = 6\nvalue = [0, 8, 0]"] ;
94 -> 100 ;
101 [label="X[3] <= -0.414\ngini = 0.124\nsamples = 12\nvalue = [14, 1, 0]"] ;
93 -> 101 ;
102 [label="gini = 0.0\nsamples = 9\nvalue = [11, 0, 0]"] ;
101 -> 102 ;
103 [label="X[5] <= -0.365\ngini = 0.375\nsamples = 3\nvalue = [3, 1, 0]"] ;
101 -> 103 ;
104 [label="gini = 0.0\nsamples = 2\nvalue = [3, 0, 0]"] ;
103 -> 104 ;
105 [label="gini = 0.0\nsamples = 1\nvalue = [0, 1, 0]"] ;
103 -> 105 ;
106 [label="X[5] <= -0.365\ngini = 0.091\nsamples = 11\nvalue = [20, 1, 0]"] ;
92 -> 106 ;
107 [label="gini = 0.0\nsamples = 10\nvalue = [20, 0, 0]"] ;
106 -> 107 ;
108 [label="gini = 0.0\nsamples = 1\nvalue = [0, 1, 0]"] ;
106 -> 108 ;
109 [label="X[0] <= -0.508\ngini = 0.496\nsamples = 9\nvalue = [5, 6, 0]"] ;
91 -> 109 ;
110 [label="gini = 0.0\nsamples = 4\nvalue = [0, 5, 0]"] ;
109 -> 110 ;
111 [label="X[6] <= -0.246\ngini = 0.278\nsamples = 5\nvalue = [5, 1, 0]"] ;
109 -> 111 ;
112 [label="gini = 0.0\nsamples = 1\nvalue = [0, 1, 0]"] ;
111 -> 112 ;
113 [label="gini = 0.0\nsamples = 4\nvalue = [5, 0, 0]"] ;
111 -> 113 ;
114 [label="X[5] <= -0.365\ngini = 0.346\nsamples = 6\nvalue = [2, 7, 0]"] ;
86 -> 114 ;
115 [label="gini = 0.0\nsamples = 1\nvalue = [1, 0, 0]"] ;
114 -> 115 ;
116 [label="X[4] <= -0.301\ngini = 0.219\nsamples = 5\nvalue = [1, 7, 0]"] ;
114 -> 116 ;
117 [label="gini = 0.0\nsamples = 1\nvalue = [1, 0, 0]"] ;
116 -> 117 ;
118 [label="gini = 0.0\nsamples = 4\nvalue = [0, 7, 0]"] ;
116 -> 118 ;
119 [label="gini = 0.0\nsamples = 3\nvalue = [10, 0, 0]"] ;
85 -> 119 ;
120 [label="gini = 0.0\nsamples = 2\nvalue = [0, 4, 0]"] ;
84 -> 120 ;
121 [label="X[6] <= -0.246\ngini = 0.458\nsamples = 21\nvalue = [11, 20, 0]"] ;
83 -> 121 ;
122 [label="gini = 0.0\nsamples = 3\nvalue = [5, 0, 0]"] ;
121 -> 122 ;
123 [label="X[6] <= -0.245\ngini = 0.355\nsamples = 18\nvalue = [6, 20, 0]"] ;
121 -> 123 ;
124 [label="X[7] <= -0.134\ngini = 0.245\nsamples = 13\nvalue = [3, 18, 0]"] ;
123 -> 124 ;
125 [label="gini = 0.0\nsamples = 8\nvalue = [0, 14, 0]"] ;
124 -> 125 ;
126 [label="X[3] <= -0.412\ngini = 0.49\nsamples = 5\nvalue = [3, 4, 0]"] ;
124 -> 126 ;
127 [label="gini = 0.0\nsamples = 1\nvalue = [0, 2, 0]"] ;
126 -> 127 ;
128 [label="X[3] <= -0.411\ngini = 0.48\nsamples = 4\nvalue = [3, 2, 0]"] ;
126 -> 128 ;
129 [label="gini = 0.0\nsamples = 3\nvalue = [3, 0, 0]"] ;
128 -> 129 ;
130 [label="gini = 0.0\nsamples = 1\nvalue = [0, 2, 0]"] ;
128 -> 130 ;
131 [label="X[7] <= -0.134\ngini = 0.48\nsamples = 5\nvalue = [3, 2, 0]"] ;
123 -> 131 ;
132 [label="gini = 0.0\nsamples = 2\nvalue = [0, 2, 0]"] ;
131 -> 132 ;
133 [label="gini = 0.0\nsamples = 3\nvalue = [3, 0, 0]"] ;
131 -> 133 ;
134 [label="X[3] <= -0.414\ngini = 0.493\nsamples = 280\nvalue = [172, 271, 8]"] ;
82 -> 134 ;
135 [label="X[5] <= -0.363\ngini = 0.517\nsamples = 14\nvalue = [15, 2, 7]"] ;
134 -> 135 ;
136 [label="X[2] <= -0.506\ngini = 0.29\nsamples = 11\nvalue = [15, 2, 1]"] ;
135 -> 136 ;
137 [label="X[2] <= -0.508\ngini = 0.208\nsamples = 10\nvalue = [15, 2, 0]"] ;
136 -> 137 ;
138 [label="gini = 0.0\nsamples = 1\nvalue = [0, 1, 0]"] ;
137 -> 138 ;
139 [label="X[7] <= -0.135\ngini = 0.117\nsamples = 9\nvalue = [15, 1, 0]"] ;
137 -> 139 ;
140 [label="X[2] <= -0.507\ngini = 0.444\nsamples = 3\nvalue = [2, 1, 0]"] ;
139 -> 140 ;
141 [label="gini = 0.0\nsamples = 1\nvalue = [0, 1, 0]"] ;
140 -> 141 ;
142 [label="gini = 0.0\nsamples = 2\nvalue = [2, 0, 0]"] ;
140 -> 142 ;
143 [label="gini = 0.0\nsamples = 6\nvalue = [13, 0, 0]"] ;
139 -> 143 ;
144 [label="gini = 0.0\nsamples = 1\nvalue = [0, 0, 1]"] ;
136 -> 144 ;
145 [label="gini = 0.0\nsamples = 3\nvalue = [0, 0, 6]"] ;
135 -> 145 ;
146 [label="X[3] <= 2.43\ngini = 0.468\nsamples = 266\nvalue = [157, 269, 1]"] ;
134 -> 146 ;
147 [label="X[2] <= -0.503\ngini = 0.463\nsamples = 264\nvalue = [151, 269, 1]"] ;
146 -> 147 ;
148 [label="X[7] <= -0.135\ngini = 0.442\nsamples = 227\nvalue = [113, 235, 1]"] ;
147 -> 148 ;
149 [label="X[2] <= -0.506\ngini = 0.278\nsamples = 4\nvalue = [5, 1, 0]"] ;
148 -> 149 ;
150 [label="gini = 0.0\nsamples = 3\nvalue = [5, 0, 0]"] ;
149 -> 150 ;
151 [label="gini = 0.0\nsamples = 1\nvalue = [0, 1, 0]"] ;
149 -> 151 ;
152 [label="X[7] <= -0.134\ngini = 0.435\nsamples = 223\nvalue = [108, 234, 1]"] ;
148 -> 152 ;
153 [label="X[2] <= -0.507\ngini = 0.34\nsamples = 82\nvalue = [28, 101, 0]"] ;
152 -> 153 ;
154 [label="X[1] <= -0.51\ngini = 0.43\nsamples = 52\nvalue = [25, 55, 0]"] ;
153 -> 154 ;
155 [label="X[7] <= -0.135\ngini = 0.346\nsamples = 5\nvalue = [7, 2, 0]"] ;
154 -> 155 ;
156 [label="X[4] <= -0.301\ngini = 0.444\nsamples = 2\nvalue = [1, 2, 0]"] ;
155 -> 156 ;
157 [label="gini = 0.0\nsamples = 1\nvalue = [0, 2, 0]"] ;
156 -> 157 ;
158 [label="gini = 0.0\nsamples = 1\nvalue = [1, 0, 0]"] ;
156 -> 158 ;
159 [label="gini = 0.0\nsamples = 3\nvalue = [6, 0, 0]"] ;
155 -> 159 ;
160 [label="X[7] <= -0.135\ngini = 0.378\nsamples = 47\nvalue = [18, 53, 0]"] ;
154 -> 160 ;
161 [label="X[6] <= -0.246\ngini = 0.444\nsamples = 7\nvalue = [6, 3, 0]"] ;
160 -> 161 ;
162 [label="gini = 0.0\nsamples = 3\nvalue = [5, 0, 0]"] ;
161 -> 162 ;
163 [label="X[1] <= -0.505\ngini = 0.375\nsamples = 4\nvalue = [1, 3, 0]"] ;
161 -> 163 ;
164 [label="gini = 0.0\nsamples = 1\nvalue = [1, 0, 0]"] ;
163 -> 164 ;
165 [label="gini = 0.0\nsamples = 3\nvalue = [0, 3, 0]"] ;
163 -> 165 ;
166 [label="X[5] <= -0.364\ngini = 0.312\nsamples = 40\nvalue = [12, 50, 0]"] ;
160 -> 166 ;
167 [label="X[5] <= -0.365\ngini = 0.191\nsamples = 36\nvalue = [6, 50, 0]"] ;
166 -> 167 ;
168 [label="X[0] <= -0.488\ngini = 0.463\nsamples = 9\nvalue = [4, 7, 0]"] ;
167 -> 168 ;
169 [label="X[3] <= -0.414\ngini = 0.32\nsamples = 4\nvalue = [4, 1, 0]"] ;
168 -> 169 ;
170 [label="gini = 0.0\nsamples = 1\nvalue = [0, 1, 0]"] ;
169 -> 170 ;
171 [label="gini = 0.0\nsamples = 3\nvalue = [4, 0, 0]"] ;
169 -> 171 ;
172 [label="gini = 0.0\nsamples = 5\nvalue = [0, 6, 0]"] ;
168 -> 172 ;
173 [label="X[4] <= -0.301\ngini = 0.085\nsamples = 27\nvalue = [2, 43, 0]"] ;
167 -> 173 ;
174 [label="X[0] <= -0.48\ngini = 0.5\nsamples = 2\nvalue = [1, 1, 0]"] ;
173 -> 174 ;
175 [label="gini = 0.0\nsamples = 1\nvalue = [1, 0, 0]"] ;
174 -> 175 ;
176 [label="gini = 0.0\nsamples = 1\nvalue = [0, 1, 0]"] ;
174 -> 176 ;
177 [label="X[1] <= -0.508\ngini = 0.045\nsamples = 25\nvalue = [1, 42, 0]"] ;
173 -> 177 ;
178 [label="X[2] <= -0.507\ngini = 0.278\nsamples = 4\nvalue = [1, 5, 0]"] ;
177 -> 178 ;
179 [label="gini = 0.0\nsamples = 3\nvalue = [0, 5, 0]"] ;
178 -> 179 ;
180 [label="gini = 0.0\nsamples = 1\nvalue = [1, 0, 0]"] ;
178 -> 180 ;
181 [label="gini = 0.0\nsamples = 21\nvalue = [0, 37, 0]"] ;
177 -> 181 ;
182 [label="gini = 0.0\nsamples = 4\nvalue = [6, 0, 0]"] ;
166 -> 182 ;
183 [label="X[3] <= -0.412\ngini = 0.115\nsamples = 30\nvalue = [3, 46, 0]"] ;
153 -> 183 ;
184 [label="gini = 0.0\nsamples = 18\nvalue = [0, 34, 0]"] ;
183 -> 184 ;
185 [label="X[3] <= -0.412\ngini = 0.32\nsamples = 12\nvalue = [3, 12, 0]"] ;
183 -> 185 ;
186 [label="gini = 0.0\nsamples = 1\nvalue = [1, 0, 0]"] ;
185 -> 186 ;
187 [label="X[5] <= -0.364\ngini = 0.245\nsamples = 11\nvalue = [2, 12, 0]"] ;
185 -> 187 ;
188 [label="gini = 0.0\nsamples = 5\nvalue = [0, 7, 0]"] ;
187 -> 188 ;
189 [label="X[0] <= -0.444\ngini = 0.408\nsamples = 6\nvalue = [2, 5, 0]"] ;
187 -> 189 ;
190 [label="gini = 0.0\nsamples = 2\nvalue = [2, 0, 0]"] ;
189 -> 190 ;
191 [label="gini = 0.0\nsamples = 4\nvalue = [0, 5, 0]"] ;
189 -> 191 ;
192 [label="X[7] <= -0.134\ngini = 0.474\nsamples = 141\nvalue = [80, 133, 1]"] ;
152 -> 192 ;
193 [label="X[1] <= -0.51\ngini = 0.5\nsamples = 63\nvalue = [48, 50, 0]"] ;
192 -> 193 ;
194 [label="X[3] <= -0.413\ngini = 0.219\nsamples = 5\nvalue = [7, 1, 0]"] ;
193 -> 194 ;
195 [label="gini = 0.0\nsamples = 3\nvalue = [5, 0, 0]"] ;
194 -> 195 ;
196 [label="X[1] <= -0.511\ngini = 0.444\nsamples = 2\nvalue = [2, 1, 0]"] ;
194 -> 196 ;
197 [label="gini = 0.0\nsamples = 1\nvalue = [0, 1, 0]"] ;
196 -> 197 ;
198 [label="gini = 0.0\nsamples = 1\nvalue = [2, 0, 0]"] ;
196 -> 198 ;
199 [label="X[7] <= -0.134\ngini = 0.496\nsamples = 58\nvalue = [41, 49, 0]"] ;
193 -> 199 ;
200 [label="X[2] <= -0.506\ngini = 0.463\nsamples = 43\nvalue = [24, 42, 0]"] ;
199 -> 200 ;
201 [label="X[3] <= -0.414\ngini = 0.312\nsamples = 23\nvalue = [6, 25, 0]"] ;
200 -> 201 ;
202 [label="gini = 0.0\nsamples = 2\nvalue = [3, 0, 0]"] ;
201 -> 202 ;
203 [label="X[5] <= -0.362\ngini = 0.191\nsamples = 21\nvalue = [3, 25, 0]"] ;
201 -> 203 ;
204 [label="X[7] <= -0.134\ngini = 0.137\nsamples = 20\nvalue = [2, 25, 0]"] ;
203 -> 204 ;
205 [label="gini = 0.0\nsamples = 1\nvalue = [1, 0, 0]"] ;
204 -> 205 ;
206 [label="X[5] <= -0.364\ngini = 0.074\nsamples = 19\nvalue = [1, 25, 0]"] ;
204 -> 206 ;
207 [label="X[4] <= -0.301\ngini = 0.245\nsamples = 6\nvalue = [1, 6, 0]"] ;
206 -> 207 ;
208 [label="X[1] <= 0.751\ngini = 0.5\nsamples = 2\nvalue = [1, 1, 0]"] ;
207 -> 208 ;
209 [label="gini = 0.0\nsamples = 1\nvalue = [0, 1, 0]"] ;
208 -> 209 ;
210 [label="gini = 0.0\nsamples = 1\nvalue = [1, 0, 0]"] ;
208 -> 210 ;
211 [label="gini = 0.0\nsamples = 4\nvalue = [0, 5, 0]"] ;
207 -> 211 ;
212 [label="gini = 0.0\nsamples = 13\nvalue = [0, 19, 0]"] ;
206 -> 212 ;
213 [label="gini = 0.0\nsamples = 1\nvalue = [1, 0, 0]"] ;
203 -> 213 ;
214 [label="X[7] <= -0.134\ngini = 0.5\nsamples = 20\nvalue = [18, 17, 0]"] ;
200 -> 214 ;
215 [label="X[6] <= -0.244\ngini = 0.444\nsamples = 12\nvalue = [14, 7, 0]"] ;
214 -> 215 ;
216 [label="gini = 0.0\nsamples = 4\nvalue = [7, 0, 0]"] ;
215 -> 216 ;
217 [label="X[6] <= -0.243\ngini = 0.5\nsamples = 8\nvalue = [7, 7, 0]"] ;
215 -> 217 ;
218 [label="X[0] <= -0.5\ngini = 0.408\nsamples = 5\nvalue = [2, 5, 0]"] ;
217 -> 218 ;
219 [label="gini = 0.0\nsamples = 2\nvalue = [0, 4, 0]"] ;
218 -> 219 ;
220 [label="X[5] <= -0.364\ngini = 0.444\nsamples = 3\nvalue = [2, 1, 0]"] ;
218 -> 220 ;
221 [label="gini = 0.0\nsamples = 1\nvalue = [0, 1, 0]"] ;
220 -> 221 ;
222 [label="gini = 0.0\nsamples = 2\nvalue = [2, 0, 0]"] ;
220 -> 222 ;
223 [label="X[5] <= 1.198\ngini = 0.408\nsamples = 3\nvalue = [5, 2, 0]"] ;
217 -> 223 ;
224 [label="gini = 0.0\nsamples = 2\nvalue = [5, 0, 0]"] ;
223 -> 224 ;
225 [label="gini = 0.0\nsamples = 1\nvalue = [0, 2, 0]"] ;
223 -> 225 ;
226 [label="X[1] <= -0.476\ngini = 0.408\nsamples = 8\nvalue = [4, 10, 0]"] ;
214 -> 226 ;
227 [label="gini = 0.0\nsamples = 4\nvalue = [0, 8, 0]"] ;
226 -> 227 ;
228 [label="X[1] <= 2.012\ngini = 0.444\nsamples = 4\nvalue = [4, 2, 0]"] ;
226 -> 228 ;
229 [label="gini = 0.0\nsamples = 2\nvalue = [4, 0, 0]"] ;
228 -> 229 ;
230 [label="gini = 0.0\nsamples = 2\nvalue = [0, 2, 0]"] ;
228 -> 230 ;
231 [label="X[4] <= -0.298\ngini = 0.413\nsamples = 15\nvalue = [17, 7, 0]"] ;
199 -> 231 ;
232 [label="X[7] <= -0.134\ngini = 0.308\nsamples = 14\nvalue = [17, 4, 0]"] ;
231 -> 232 ;
233 [label="X[4] <= -0.3\ngini = 0.133\nsamples = 9\nvalue = [13, 1, 0]"] ;
232 -> 233 ;
234 [label="gini = 0.0\nsamples = 7\nvalue = [11, 0, 0]"] ;
233 -> 234 ;
235 [label="X[1] <= 0.77\ngini = 0.444\nsamples = 2\nvalue = [2, 1, 0]"] ;
233 -> 235 ;
236 [label="gini = 0.0\nsamples = 1\nvalue = [2, 0, 0]"] ;
235 -> 236 ;
237 [label="gini = 0.0\nsamples = 1\nvalue = [0, 1, 0]"] ;
235 -> 237 ;
238 [label="X[2] <= -0.507\ngini = 0.49\nsamples = 5\nvalue = [4, 3, 0]"] ;
232 -> 238 ;
239 [label="gini = 0.0\nsamples = 1\nvalue = [3, 0, 0]"] ;
238 -> 239 ;
240 [label="X[7] <= -0.134\ngini = 0.375\nsamples = 4\nvalue = [1, 3, 0]"] ;
238 -> 240 ;
241 [label="gini = 0.0\nsamples = 3\nvalue = [0, 3, 0]"] ;
240 -> 241 ;
242 [label="gini = 0.0\nsamples = 1\nvalue = [1, 0, 0]"] ;
240 -> 242 ;
243 [label="gini = 0.0\nsamples = 1\nvalue = [0, 3, 0]"] ;
231 -> 243 ;
244 [label="X[5] <= -0.36\ngini = 0.412\nsamples = 78\nvalue = [32, 83, 1]"] ;
192 -> 244 ;
245 [label="X[7] <= -0.134\ngini = 0.382\nsamples = 73\nvalue = [26, 80, 1]"] ;
244 -> 245 ;
246 [label="X[5] <= -0.364\ngini = 0.343\nsamples = 67\nvalue = [22, 78, 0]"] ;
245 -> 246 ;
247 [label="X[3] <= -0.413\ngini = 0.487\nsamples = 22\nvalue = [13, 18, 0]"] ;
246 -> 247 ;
248 [label="X[5] <= -0.365\ngini = 0.198\nsamples = 6\nvalue = [1, 8, 0]"] ;
247 -> 248 ;
249 [label="X[0] <= -0.513\ngini = 0.444\nsamples = 2\nvalue = [1, 2, 0]"] ;
248 -> 249 ;
250 [label="gini = 0.0\nsamples = 1\nvalue = [0, 2, 0]"] ;
249 -> 250 ;
251 [label="gini = 0.0\nsamples = 1\nvalue = [1, 0, 0]"] ;
249 -> 251 ;
252 [label="gini = 0.0\nsamples = 4\nvalue = [0, 6, 0]"] ;
248 -> 252 ;
253 [label="X[4] <= -0.301\ngini = 0.496\nsamples = 16\nvalue = [12, 10, 0]"] ;
247 -> 253 ;
254 [label="gini = 0.0\nsamples = 1\nvalue = [0, 2, 0]"] ;
253 -> 254 ;
255 [label="X[5] <= -0.364\ngini = 0.48\nsamples = 15\nvalue = [12, 8, 0]"] ;
253 -> 255 ;
256 [label="X[6] <= -0.244\ngini = 0.498\nsamples = 13\nvalue = [9, 8, 0]"] ;
255 -> 256 ;
257 [label="X[0] <= -0.379\ngini = 0.48\nsamples = 11\nvalue = [9, 6, 0]"] ;
256 -> 257 ;
258 [label="X[3] <= -0.413\ngini = 0.426\nsamples = 9\nvalue = [9, 4, 0]"] ;
257 -> 258 ;
259 [label="gini = 0.0\nsamples = 2\nvalue = [4, 0, 0]"] ;
258 -> 259 ;
260 [label="X[0] <= -0.393\ngini = 0.494\nsamples = 7\nvalue = [5, 4, 0]"] ;
258 -> 260 ;
261 [label="X[6] <= -0.245\ngini = 0.49\nsamples = 6\nvalue = [3, 4, 0]"] ;
260 -> 261 ;
262 [label="gini = 0.0\nsamples = 1\nvalue = [2, 0, 0]"] ;
261 -> 262 ;
263 [label="X[2] <= -0.506\ngini = 0.32\nsamples = 5\nvalue = [1, 4, 0]"] ;
261 -> 263 ;
264 [label="gini = 0.0\nsamples = 4\nvalue = [0, 4, 0]"] ;
263 -> 264 ;
265 [label="gini = 0.0\nsamples = 1\nvalue = [1, 0, 0]"] ;
263 -> 265 ;
266 [label="gini = 0.0\nsamples = 1\nvalue = [2, 0, 0]"] ;
260 -> 266 ;
267 [label="gini = 0.0\nsamples = 2\nvalue = [0, 2, 0]"] ;
257 -> 267 ;
268 [label="gini = 0.0\nsamples = 2\nvalue = [0, 2, 0]"] ;
256 -> 268 ;
269 [label="gini = 0.0\nsamples = 2\nvalue = [3, 0, 0]"] ;
255 -> 269 ;
270 [label="X[6] <= -0.24\ngini = 0.227\nsamples = 45\nvalue = [9, 60, 0]"] ;
246 -> 270 ;
271 [label="X[4] <= -0.296\ngini = 0.208\nsamples = 44\nvalue = [8, 60, 0]"] ;
270 -> 271 ;
272 [label="X[3] <= -0.411\ngini = 0.119\nsamples = 40\nvalue = [4, 59, 0]"] ;
271 -> 272 ;
273 [label="X[5] <= -0.362\ngini = 0.05\nsamples = 25\nvalue = [1, 38, 0]"] ;
272 -> 273 ;
274 [label="gini = 0.0\nsamples = 22\nvalue = [0, 34, 0]"] ;
273 -> 274 ;
275 [label="X[5] <= -0.362\ngini = 0.32\nsamples = 3\nvalue = [1, 4, 0]"] ;
273 -> 275 ;
276 [label="gini = 0.0\nsamples = 1\nvalue = [1, 0, 0]"] ;
275 -> 276 ;
277 [label="gini = 0.0\nsamples = 2\nvalue = [0, 4, 0]"] ;
275 -> 277 ;
278 [label="X[6] <= -0.245\ngini = 0.219\nsamples = 15\nvalue = [3, 21, 0]"] ;
272 -> 278 ;
279 [label="X[0] <= -0.477\ngini = 0.444\nsamples = 3\nvalue = [2, 1, 0]"] ;
278 -> 279 ;
280 [label="gini = 0.0\nsamples = 2\nvalue = [2, 0, 0]"] ;
279 -> 280 ;
281 [label="gini = 0.0\nsamples = 1\nvalue = [0, 1, 0]"] ;
279 -> 281 ;
282 [label="X[3] <= -0.411\ngini = 0.091\nsamples = 12\nvalue = [1, 20, 0]"] ;
278 -> 282 ;
283 [label="gini = 0.0\nsamples = 1\nvalue = [1, 0, 0]"] ;
282 -> 283 ;
284 [label="gini = 0.0\nsamples = 11\nvalue = [0, 20, 0]"] ;
282 -> 284 ;
285 [label="X[2] <= -0.508\ngini = 0.32\nsamples = 4\nvalue = [4, 1, 0]"] ;
271 -> 285 ;
286 [label="gini = 0.0\nsamples = 1\nvalue = [0, 1, 0]"] ;
285 -> 286 ;
287 [label="gini = 0.0\nsamples = 3\nvalue = [4, 0, 0]"] ;
285 -> 287 ;
288 [label="gini = 0.0\nsamples = 1\nvalue = [1, 0, 0]"] ;
270 -> 288 ;
289 [label="X[2] <= -0.506\ngini = 0.571\nsamples = 6\nvalue = [4, 2, 1]"] ;
245 -> 289 ;
290 [label="X[5] <= -0.364\ngini = 0.625\nsamples = 4\nvalue = [1, 2, 1]"] ;
289 -> 290 ;
291 [label="gini = 0.0\nsamples = 1\nvalue = [1, 0, 0]"] ;
290 -> 291 ;
292 [label="X[7] <= -0.134\ngini = 0.444\nsamples = 3\nvalue = [0, 2, 1]"] ;
290 -> 292 ;
293 [label="gini = 0.0\nsamples = 1\nvalue = [0, 0, 1]"] ;
292 -> 293 ;
294 [label="gini = 0.0\nsamples = 2\nvalue = [0, 2, 0]"] ;
292 -> 294 ;
295 [label="gini = 0.0\nsamples = 2\nvalue = [3, 0, 0]"] ;
289 -> 295 ;
296 [label="X[5] <= 2.757\ngini = 0.444\nsamples = 5\nvalue = [6, 3, 0]"] ;
244 -> 296 ;
297 [label="gini = 0.0\nsamples = 2\nvalue = [5, 0, 0]"] ;
296 -> 297 ;
298 [label="X[4] <= 3.351\ngini = 0.375\nsamples = 3\nvalue = [1, 3, 0]"] ;
296 -> 298 ;
299 [label="gini = 0.0\nsamples = 2\nvalue = [0, 3, 0]"] ;
298 -> 299 ;
300 [label="gini = 0.0\nsamples = 1\nvalue = [1, 0, 0]"] ;
298 -> 300 ;
301 [label="X[2] <= 1.986\ngini = 0.498\nsamples = 37\nvalue = [38, 34, 0]"] ;
147 -> 301 ;
302 [label="X[3] <= -0.41\ngini = 0.459\nsamples = 27\nvalue = [36, 20, 0]"] ;
301 -> 302 ;
303 [label="X[4] <= -0.291\ngini = 0.313\nsamples = 14\nvalue = [29, 7, 0]"] ;
302 -> 303 ;
304 [label="X[2] <= 1.985\ngini = 0.17\nsamples = 12\nvalue = [29, 3, 0]"] ;
303 -> 304 ;
305 [label="gini = 0.0\nsamples = 9\nvalue = [23, 0, 0]"] ;
304 -> 305 ;
306 [label="X[0] <= -0.51\ngini = 0.444\nsamples = 3\nvalue = [6, 3, 0]"] ;
304 -> 306 ;
307 [label="gini = 0.0\nsamples = 1\nvalue = [0, 3, 0]"] ;
306 -> 307 ;
308 [label="gini = 0.0\nsamples = 2\nvalue = [6, 0, 0]"] ;
306 -> 308 ;
309 [label="gini = 0.0\nsamples = 2\nvalue = [0, 4, 0]"] ;
303 -> 309 ;
310 [label="X[7] <= -0.134\ngini = 0.455\nsamples = 13\nvalue = [7, 13, 0]"] ;
302 -> 310 ;
311 [label="gini = 0.0\nsamples = 2\nvalue = [2, 0, 0]"] ;
310 -> 311 ;
312 [label="X[3] <= -0.405\ngini = 0.401\nsamples = 11\nvalue = [5, 13, 0]"] ;
310 -> 312 ;
313 [label="gini = 0.0\nsamples = 4\nvalue = [0, 8, 0]"] ;
312 -> 313 ;
314 [label="X[5] <= -0.361\ngini = 0.5\nsamples = 7\nvalue = [5, 5, 0]"] ;
312 -> 314 ;
315 [label="gini = 0.0\nsamples = 4\nvalue = [0, 5, 0]"] ;
314 -> 315 ;
316 [label="gini = 0.0\nsamples = 3\nvalue = [5, 0, 0]"] ;
314 -> 316 ;
317 [label="X[3] <= 1.009\ngini = 0.219\nsamples = 10\nvalue = [2, 14, 0]"] ;
301 -> 317 ;
318 [label="gini = 0.0\nsamples = 7\nvalue = [0, 13, 0]"] ;
317 -> 318 ;
319 [label="X[3] <= 2.427\ngini = 0.444\nsamples = 3\nvalue = [2, 1, 0]"] ;
317 -> 319 ;
320 [label="gini = 0.0\nsamples = 1\nvalue = [1, 0, 0]"] ;
319 -> 320 ;
321 [label="X[4] <= -0.297\ngini = 0.5\nsamples = 2\nvalue = [1, 1, 0]"] ;
319 -> 321 ;
322 [label="gini = 0.0\nsamples = 1\nvalue = [1, 0, 0]"] ;
321 -> 322 ;
323 [label="gini = 0.0\nsamples = 1\nvalue = [0, 1, 0]"] ;
321 -> 323 ;
324 [label="gini = 0.0\nsamples = 2\nvalue = [6, 0, 0]"] ;
146 -> 324 ;
325 [label="X[1] <= -0.504\ngini = 0.591\nsamples = 73\nvalue = [66, 35, 20]"] ;
81 -> 325 ;
326 [label="X[1] <= -0.511\ngini = 0.485\nsamples = 50\nvalue = [51, 7, 18]"] ;
325 -> 326 ;
327 [label="X[0] <= 2.184\ngini = 0.512\nsamples = 7\nvalue = [3, 1, 7]"] ;
326 -> 327 ;
328 [label="X[6] <= -0.246\ngini = 0.37\nsamples = 6\nvalue = [1, 1, 7]"] ;
327 -> 328 ;
329 [label="gini = 0.0\nsamples = 4\nvalue = [0, 0, 7]"] ;
328 -> 329 ;
330 [label="X[4] <= -0.299\ngini = 0.5\nsamples = 2\nvalue = [1, 1, 0]"] ;
328 -> 330 ;
331 [label="gini = 0.0\nsamples = 1\nvalue = [0, 1, 0]"] ;
330 -> 331 ;
332 [label="gini = 0.0\nsamples = 1\nvalue = [1, 0, 0]"] ;
330 -> 332 ;
333 [label="gini = 0.0\nsamples = 1\nvalue = [2, 0, 0]"] ;
327 -> 333 ;
334 [label="X[3] <= -0.413\ngini = 0.418\nsamples = 43\nvalue = [48, 6, 11]"] ;
326 -> 334 ;
335 [label="X[1] <= -0.509\ngini = 0.594\nsamples = 15\nvalue = [7, 3, 11]"] ;
334 -> 335 ;
336 [label="X[5] <= -0.365\ngini = 0.427\nsamples = 11\nvalue = [2, 2, 11]"] ;
335 -> 336 ;
337 [label="X[2] <= -0.508\ngini = 0.5\nsamples = 3\nvalue = [2, 2, 0]"] ;
336 -> 337 ;
338 [label="gini = 0.0\nsamples = 1\nvalue = [2, 0, 0]"] ;
337 -> 338 ;
339 [label="gini = 0.0\nsamples = 2\nvalue = [0, 2, 0]"] ;
337 -> 339 ;
340 [label="gini = 0.0\nsamples = 8\nvalue = [0, 0, 11]"] ;
336 -> 340 ;
341 [label="X[7] <= -0.135\ngini = 0.278\nsamples = 4\nvalue = [5, 1, 0]"] ;
335 -> 341 ;
342 [label="gini = 0.0\nsamples = 1\nvalue = [0, 1, 0]"] ;
341 -> 342 ;
343 [label="gini = 0.0\nsamples = 3\nvalue = [5, 0, 0]"] ;
341 -> 343 ;
344 [label="X[7] <= -0.134\ngini = 0.127\nsamples = 28\nvalue = [41, 3, 0]"] ;
334 -> 344 ;
345 [label="gini = 0.0\nsamples = 17\nvalue = [27, 0, 0]"] ;
344 -> 345 ;
346 [label="X[6] <= -0.245\ngini = 0.291\nsamples = 11\nvalue = [14, 3, 0]"] ;
344 -> 346 ;
347 [label="X[1] <= -0.51\ngini = 0.375\nsamples = 3\nvalue = [1, 3, 0]"] ;
346 -> 347 ;
348 [label="gini = 0.0\nsamples = 1\nvalue = [1, 0, 0]"] ;
347 -> 348 ;
349 [label="gini = 0.0\nsamples = 2\nvalue = [0, 3, 0]"] ;
347 -> 349 ;
350 [label="gini = 0.0\nsamples = 8\nvalue = [13, 0, 0]"] ;
346 -> 350 ;
351 [label="X[2] <= -0.504\ngini = 0.5\nsamples = 23\nvalue = [15, 28, 2]"] ;
325 -> 351 ;
352 [label="X[7] <= -0.134\ngini = 0.444\nsamples = 20\nvalue = [14, 28, 0]"] ;
351 -> 352 ;
353 [label="X[6] <= -0.246\ngini = 0.219\nsamples = 8\nvalue = [2, 14, 0]"] ;
352 -> 353 ;
354 [label="X[0] <= 2.182\ngini = 0.444\nsamples = 2\nvalue = [2, 1, 0]"] ;
353 -> 354 ;
355 [label="gini = 0.0\nsamples = 1\nvalue = [2, 0, 0]"] ;
354 -> 355 ;
356 [label="gini = 0.0\nsamples = 1\nvalue = [0, 1, 0]"] ;
354 -> 356 ;
357 [label="gini = 0.0\nsamples = 6\nvalue = [0, 13, 0]"] ;
353 -> 357 ;
358 [label="X[3] <= 1.009\ngini = 0.497\nsamples = 12\nvalue = [12, 14, 0]"] ;
352 -> 358 ;
359 [label="X[5] <= -0.362\ngini = 0.48\nsamples = 10\nvalue = [12, 8, 0]"] ;
358 -> 359 ;
360 [label="gini = 0.0\nsamples = 6\nvalue = [12, 0, 0]"] ;
359 -> 360 ;
361 [label="gini = 0.0\nsamples = 4\nvalue = [0, 8, 0]"] ;
359 -> 361 ;
362 [label="gini = 0.0\nsamples = 2\nvalue = [0, 6, 0]"] ;
358 -> 362 ;
363 [label="X[0] <= 2.179\ngini = 0.444\nsamples = 3\nvalue = [1, 0, 2]"] ;
351 -> 363 ;
364 [label="gini = 0.0\nsamples = 1\nvalue = [1, 0, 0]"] ;
363 -> 364 ;
365 [label="gini = 0.0\nsamples = 2\nvalue = [0, 0, 2]"] ;
363 -> 365 ;
366 [label="X[6] <= -0.245\ngini = 0.656\nsamples = 1554\nvalue = [681, 772, 1038]"] ;
0 -> 366 [labeldistance=2.5, labelangle=-45, headlabel="False"] ;
367 [label="X[7] <= 7.583\ngini = 0.06\nsamples = 627\nvalue = [14, 17, 984]"] ;
366 -> 367 ;
368 [label="X[5] <= -0.364\ngini = 0.047\nsamples = 623\nvalue = [12, 12, 984]"] ;
367 -> 368 ;
369 [label="X[4] <= -0.298\ngini = 0.176\nsamples = 80\nvalue = [3, 10, 123]"] ;
368 -> 369 ;
370 [label="X[1] <= -0.509\ngini = 0.11\nsamples = 73\nvalue = [3, 4, 115]"] ;
369 -> 370 ;
371 [label="X[2] <= -0.507\ngini = 0.022\nsamples = 50\nvalue = [0, 1, 88]"] ;
370 -> 371 ;
372 [label="gini = 0.0\nsamples = 1\nvalue = [0, 1, 0]"] ;
371 -> 372 ;
373 [label="gini = 0.0\nsamples = 49\nvalue = [0, 0, 88]"] ;
371 -> 373 ;
374 [label="X[3] <= -0.413\ngini = 0.314\nsamples = 23\nvalue = [3, 3, 27]"] ;
370 -> 374 ;
375 [label="X[7] <= -0.133\ngini = 0.184\nsamples = 21\nvalue = [1, 2, 27]"] ;
374 -> 375 ;
376 [label="gini = 0.0\nsamples = 1\nvalue = [1, 0, 0]"] ;
375 -> 376 ;
377 [label="X[4] <= -0.301\ngini = 0.128\nsamples = 20\nvalue = [0, 2, 27]"] ;
375 -> 377 ;
378 [label="gini = 0.0\nsamples = 2\nvalue = [0, 2, 0]"] ;
377 -> 378 ;
379 [label="gini = 0.0\nsamples = 18\nvalue = [0, 0, 27]"] ;
377 -> 379 ;
380 [label="X[1] <= -0.509\ngini = 0.444\nsamples = 2\nvalue = [2, 1, 0]"] ;
374 -> 380 ;
381 [label="gini = 0.0\nsamples = 1\nvalue = [2, 0, 0]"] ;
380 -> 381 ;
382 [label="gini = 0.0\nsamples = 1\nvalue = [0, 1, 0]"] ;
380 -> 382 ;
383 [label="X[3] <= -0.413\ngini = 0.49\nsamples = 7\nvalue = [0, 6, 8]"] ;
369 -> 383 ;
384 [label="gini = 0.0\nsamples = 4\nvalue = [0, 0, 8]"] ;
383 -> 384 ;
385 [label="gini = 0.0\nsamples = 3\nvalue = [0, 6, 0]"] ;
383 -> 385 ;
386 [label="X[3] <= -0.412\ngini = 0.025\nsamples = 543\nvalue = [9, 2, 861]"] ;
368 -> 386 ;
387 [label="X[4] <= -0.299\ngini = 0.005\nsamples = 536\nvalue = [2, 0, 859]"] ;
386 -> 387 ;
388 [label="gini = 0.0\nsamples = 445\nvalue = [0, 0, 708]"] ;
387 -> 388 ;
389 [label="X[1] <= 0.765\ngini = 0.026\nsamples = 91\nvalue = [2, 0, 151]"] ;
387 -> 389 ;
390 [label="gini = 0.0\nsamples = 70\nvalue = [0, 0, 114]"] ;
389 -> 390 ;
391 [label="X[1] <= 2.009\ngini = 0.097\nsamples = 21\nvalue = [2, 0, 37]"] ;
389 -> 391 ;
392 [label="gini = 0.0\nsamples = 1\nvalue = [2, 0, 0]"] ;
391 -> 392 ;
393 [label="gini = 0.0\nsamples = 20\nvalue = [0, 0, 37]"] ;
391 -> 393 ;
394 [label="X[4] <= -0.298\ngini = 0.529\nsamples = 7\nvalue = [7, 2, 2]"] ;
386 -> 394 ;
395 [label="X[7] <= -0.133\ngini = 0.219\nsamples = 5\nvalue = [7, 1, 0]"] ;
394 -> 395 ;
396 [label="gini = 0.0\nsamples = 1\nvalue = [0, 1, 0]"] ;
395 -> 396 ;
397 [label="gini = 0.0\nsamples = 4\nvalue = [7, 0, 0]"] ;
395 -> 397 ;
398 [label="X[3] <= 1.007\ngini = 0.444\nsamples = 2\nvalue = [0, 1, 2]"] ;
394 -> 398 ;
399 [label="gini = 0.0\nsamples = 1\nvalue = [0, 1, 0]"] ;
398 -> 399 ;
400 [label="gini = 0.0\nsamples = 1\nvalue = [0, 0, 2]"] ;
398 -> 400 ;
401 [label="X[0] <= -0.512\ngini = 0.408\nsamples = 4\nvalue = [2, 5, 0]"] ;
367 -> 401 ;
402 [label="gini = 0.0\nsamples = 2\nvalue = [0, 4, 0]"] ;
401 -> 402 ;
403 [label="X[2] <= -0.507\ngini = 0.444\nsamples = 2\nvalue = [2, 1, 0]"] ;
401 -> 403 ;
404 [label="gini = 0.0\nsamples = 1\nvalue = [2, 0, 0]"] ;
403 -> 404 ;
405 [label="gini = 0.0\nsamples = 1\nvalue = [0, 1, 0]"] ;
403 -> 405 ;
406 [label="X[0] <= -0.497\ngini = 0.533\nsamples = 927\nvalue = [667, 755, 54]"] ;
366 -> 406 ;
407 [label="X[3] <= -0.414\ngini = 0.422\nsamples = 253\nvalue = [288, 88, 21]"] ;
406 -> 407 ;
408 [label="X[7] <= -0.133\ngini = 0.492\nsamples = 12\nvalue = [7, 1, 14]"] ;
407 -> 408 ;
409 [label="X[0] <= -0.51\ngini = 0.375\nsamples = 2\nvalue = [3, 1, 0]"] ;
408 -> 409 ;
410 [label="gini = 0.0\nsamples = 1\nvalue = [3, 0, 0]"] ;
409 -> 410 ;
411 [label="gini = 0.0\nsamples = 1\nvalue = [0, 1, 0]"] ;
409 -> 411 ;
412 [label="X[0] <= -0.501\ngini = 0.346\nsamples = 10\nvalue = [4, 0, 14]"] ;
408 -> 412 ;
413 [label="X[6] <= -0.245\ngini = 0.219\nsamples = 9\nvalue = [2, 0, 14]"] ;
412 -> 413 ;
414 [label="gini = 0.0\nsamples = 8\nvalue = [0, 0, 14]"] ;
413 -> 414 ;
415 [label="gini = 0.0\nsamples = 1\nvalue = [2, 0, 0]"] ;
413 -> 415 ;
416 [label="gini = 0.0\nsamples = 1\nvalue = [2, 0, 0]"] ;
412 -> 416 ;
417 [label="X[1] <= -0.509\ngini = 0.384\nsamples = 241\nvalue = [281, 87, 7]"] ;
407 -> 417 ;
418 [label="X[5] <= -0.365\ngini = 0.165\nsamples = 98\nvalue = [133, 10, 3]"] ;
417 -> 418 ;
419 [label="gini = 0.0\nsamples = 1\nvalue = [0, 1, 0]"] ;
418 -> 419 ;
420 [label="X[4] <= 3.35\ngini = 0.154\nsamples = 97\nvalue = [133, 9, 3]"] ;
418 -> 420 ;
421 [label="X[4] <= -0.299\ngini = 0.143\nsamples = 96\nvalue = [133, 8, 3]"] ;
420 -> 421 ;
422 [label="X[2] <= -0.507\ngini = 0.052\nsamples = 51\nvalue = [74, 1, 1]"] ;
421 -> 422 ;
423 [label="gini = 0.0\nsamples = 28\nvalue = [40, 0, 0]"] ;
422 -> 423 ;
424 [label="X[2] <= -0.507\ngini = 0.106\nsamples = 23\nvalue = [34, 1, 1]"] ;
422 -> 424 ;
425 [label="gini = 0.0\nsamples = 1\nvalue = [0, 1, 0]"] ;
424 -> 425 ;
426 [label="X[2] <= -0.506\ngini = 0.056\nsamples = 22\nvalue = [34, 0, 1]"] ;
424 -> 426 ;
427 [label="X[6] <= -0.245\ngini = 0.32\nsamples = 3\nvalue = [4, 0, 1]"] ;
426 -> 427 ;
428 [label="gini = 0.0\nsamples = 1\nvalue = [0, 0, 1]"] ;
427 -> 428 ;
429 [label="gini = 0.0\nsamples = 2\nvalue = [4, 0, 0]"] ;
427 -> 429 ;
430 [label="gini = 0.0\nsamples = 19\nvalue = [30, 0, 0]"] ;
426 -> 430 ;
431 [label="X[3] <= 2.427\ngini = 0.236\nsamples = 45\nvalue = [59, 7, 2]"] ;
421 -> 431 ;
432 [label="X[3] <= 2.427\ngini = 0.301\nsamples = 34\nvalue = [42, 7, 2]"] ;
431 -> 432 ;
433 [label="X[7] <= -0.126\ngini = 0.253\nsamples = 33\nvalue = [42, 5, 2]"] ;
432 -> 433 ;
434 [label="X[4] <= -0.299\ngini = 0.19\nsamples = 32\nvalue = [42, 5, 0]"] ;
433 -> 434 ;
435 [label="gini = 0.0\nsamples = 1\nvalue = [0, 1, 0]"] ;
434 -> 435 ;
436 [label="X[1] <= -0.509\ngini = 0.159\nsamples = 31\nvalue = [42, 4, 0]"] ;
434 -> 436 ;
437 [label="X[6] <= -0.243\ngini = 0.053\nsamples = 25\nvalue = [36, 1, 0]"] ;
436 -> 437 ;
438 [label="gini = 0.0\nsamples = 16\nvalue = [24, 0, 0]"] ;
437 -> 438 ;
439 [label="X[4] <= -0.297\ngini = 0.142\nsamples = 9\nvalue = [12, 1, 0]"] ;
437 -> 439 ;
440 [label="X[1] <= -0.51\ngini = 0.375\nsamples = 3\nvalue = [3, 1, 0]"] ;
439 -> 440 ;
441 [label="gini = 0.0\nsamples = 2\nvalue = [3, 0, 0]"] ;
440 -> 441 ;
442 [label="gini = 0.0\nsamples = 1\nvalue = [0, 1, 0]"] ;
440 -> 442 ;
443 [label="gini = 0.0\nsamples = 6\nvalue = [9, 0, 0]"] ;
439 -> 443 ;
444 [label="X[7] <= -0.132\ngini = 0.444\nsamples = 6\nvalue = [6, 3, 0]"] ;
436 -> 444 ;
445 [label="X[7] <= -0.133\ngini = 0.48\nsamples = 4\nvalue = [2, 3, 0]"] ;
444 -> 445 ;
446 [label="gini = 0.0\nsamples = 2\nvalue = [2, 0, 0]"] ;
445 -> 446 ;
447 [label="gini = 0.0\nsamples = 2\nvalue = [0, 3, 0]"] ;
445 -> 447 ;
448 [label="gini = 0.0\nsamples = 2\nvalue = [4, 0, 0]"] ;
444 -> 448 ;
449 [label="gini = 0.0\nsamples = 1\nvalue = [0, 0, 2]"] ;
433 -> 449 ;
450 [label="gini = 0.0\nsamples = 1\nvalue = [0, 2, 0]"] ;
432 -> 450 ;
451 [label="gini = 0.0\nsamples = 11\nvalue = [17, 0, 0]"] ;
431 -> 451 ;
452 [label="gini = 0.0\nsamples = 1\nvalue = [0, 1, 0]"] ;
420 -> 452 ;
453 [label="X[5] <= -0.361\ngini = 0.469\nsamples = 143\nvalue = [148, 77, 4]"] ;
417 -> 453 ;
454 [label="X[4] <= -0.297\ngini = 0.487\nsamples = 119\nvalue = [111, 75, 1]"] ;
453 -> 454 ;
455 [label="X[5] <= -0.362\ngini = 0.454\nsamples = 88\nvalue = [91, 46, 1]"] ;
454 -> 455 ;
456 [label="X[6] <= -0.242\ngini = 0.367\nsamples = 70\nvalue = [83, 25, 1]"] ;
455 -> 456 ;
457 [label="X[6] <= -0.245\ngini = 0.429\nsamples = 57\nvalue = [60, 25, 1]"] ;
456 -> 457 ;
458 [label="X[4] <= -0.298\ngini = 0.149\nsamples = 23\nvalue = [34, 3, 0]"] ;
457 -> 458 ;
459 [label="gini = 0.0\nsamples = 17\nvalue = [30, 0, 0]"] ;
458 -> 459 ;
460 [label="X[1] <= -0.505\ngini = 0.49\nsamples = 6\nvalue = [4, 3, 0]"] ;
458 -> 460 ;
461 [label="gini = 0.0\nsamples = 2\nvalue = [3, 0, 0]"] ;
460 -> 461 ;
462 [label="X[5] <= -0.363\ngini = 0.375\nsamples = 4\nvalue = [1, 3, 0]"] ;
460 -> 462 ;
463 [label="X[5] <= -0.364\ngini = 0.5\nsamples = 2\nvalue = [1, 1, 0]"] ;
462 -> 463 ;
464 [label="gini = 0.0\nsamples = 1\nvalue = [0, 1, 0]"] ;
463 -> 464 ;
465 [label="gini = 0.0\nsamples = 1\nvalue = [1, 0, 0]"] ;
463 -> 465 ;
466 [label="gini = 0.0\nsamples = 2\nvalue = [0, 2, 0]"] ;
462 -> 466 ;
467 [label="X[0] <= -0.505\ngini = 0.516\nsamples = 34\nvalue = [26, 22, 1]"] ;
457 -> 467 ;
468 [label="X[0] <= -0.507\ngini = 0.458\nsamples = 20\nvalue = [20, 11, 0]"] ;
467 -> 468 ;
469 [label="X[5] <= -0.362\ngini = 0.483\nsamples = 18\nvalue = [16, 11, 0]"] ;
468 -> 469 ;
470 [label="X[6] <= -0.244\ngini = 0.423\nsamples = 16\nvalue = [16, 7, 0]"] ;
469 -> 470 ;
471 [label="X[1] <= -0.507\ngini = 0.198\nsamples = 5\nvalue = [8, 1, 0]"] ;
470 -> 471 ;
472 [label="gini = 0.0\nsamples = 1\nvalue = [0, 1, 0]"] ;
471 -> 472 ;
473 [label="gini = 0.0\nsamples = 4\nvalue = [8, 0, 0]"] ;
471 -> 473 ;
474 [label="X[4] <= -0.299\ngini = 0.49\nsamples = 11\nvalue = [8, 6, 0]"] ;
470 -> 474 ;
475 [label="X[7] <= -0.133\ngini = 0.375\nsamples = 7\nvalue = [6, 2, 0]"] ;
474 -> 475 ;
476 [label="gini = 0.0\nsamples = 2\nvalue = [3, 0, 0]"] ;
475 -> 476 ;
477 [label="X[2] <= -0.506\ngini = 0.48\nsamples = 5\nvalue = [3, 2, 0]"] ;
475 -> 477 ;
478 [label="X[1] <= -0.505\ngini = 0.444\nsamples = 3\nvalue = [1, 2, 0]"] ;
477 -> 478 ;
479 [label="gini = 0.0\nsamples = 1\nvalue = [1, 0, 0]"] ;
478 -> 479 ;
480 [label="gini = 0.0\nsamples = 2\nvalue = [0, 2, 0]"] ;
478 -> 480 ;
481 [label="gini = 0.0\nsamples = 2\nvalue = [2, 0, 0]"] ;
477 -> 481 ;
482 [label="X[5] <= -0.364\ngini = 0.444\nsamples = 4\nvalue = [2, 4, 0]"] ;
474 -> 482 ;
483 [label="X[4] <= -0.298\ngini = 0.444\nsamples = 2\nvalue = [2, 1, 0]"] ;
482 -> 483 ;
484 [label="gini = 0.0\nsamples = 1\nvalue = [2, 0, 0]"] ;
483 -> 484 ;
485 [label="gini = 0.0\nsamples = 1\nvalue = [0, 1, 0]"] ;
483 -> 485 ;
486 [label="gini = 0.0\nsamples = 2\nvalue = [0, 3, 0]"] ;
482 -> 486 ;
487 [label="gini = 0.0\nsamples = 2\nvalue = [0, 4, 0]"] ;
469 -> 487 ;
488 [label="gini = 0.0\nsamples = 2\nvalue = [4, 0, 0]"] ;
468 -> 488 ;
489 [label="X[2] <= -0.507\ngini = 0.512\nsamples = 14\nvalue = [6, 11, 1]"] ;
467 -> 489 ;
490 [label="gini = 0.0\nsamples = 4\nvalue = [4, 0, 0]"] ;
489 -> 490 ;
491 [label="X[0] <= -0.5\ngini = 0.357\nsamples = 10\nvalue = [2, 11, 1]"] ;
489 -> 491 ;
492 [label="X[5] <= -0.364\ngini = 0.165\nsamples = 8\nvalue = [0, 10, 1]"] ;
491 -> 492 ;
493 [label="gini = 0.0\nsamples = 1\nvalue = [0, 0, 1]"] ;
492 -> 493 ;
494 [label="gini = 0.0\nsamples = 7\nvalue = [0, 10, 0]"] ;
492 -> 494 ;
495 [label="X[2] <= -0.505\ngini = 0.444\nsamples = 2\nvalue = [2, 1, 0]"] ;
491 -> 495 ;
496 [label="gini = 0.0\nsamples = 1\nvalue = [0, 1, 0]"] ;
495 -> 496 ;
497 [label="gini = 0.0\nsamples = 1\nvalue = [2, 0, 0]"] ;
495 -> 497 ;
498 [label="gini = 0.0\nsamples = 13\nvalue = [23, 0, 0]"] ;
456 -> 498 ;
499 [label="X[3] <= -0.41\ngini = 0.4\nsamples = 18\nvalue = [8, 21, 0]"] ;
455 -> 499 ;
500 [label="X[4] <= -0.299\ngini = 0.492\nsamples = 9\nvalue = [7, 9, 0]"] ;
499 -> 500 ;
501 [label="gini = 0.0\nsamples = 3\nvalue = [5, 0, 0]"] ;
500 -> 501 ;
502 [label="X[6] <= -0.244\ngini = 0.298\nsamples = 6\nvalue = [2, 9, 0]"] ;
500 -> 502 ;
503 [label="X[7] <= -0.133\ngini = 0.48\nsamples = 3\nvalue = [2, 3, 0]"] ;
502 -> 503 ;
504 [label="gini = 0.0\nsamples = 2\nvalue = [0, 3, 0]"] ;
503 -> 504 ;
505 [label="gini = 0.0\nsamples = 1\nvalue = [2, 0, 0]"] ;
503 -> 505 ;
506 [label="gini = 0.0\nsamples = 3\nvalue = [0, 6, 0]"] ;
502 -> 506 ;
507 [label="X[0] <= -0.52\ngini = 0.142\nsamples = 9\nvalue = [1, 12, 0]"] ;
499 -> 507 ;
508 [label="gini = 0.0\nsamples = 1\nvalue = [1, 0, 0]"] ;
507 -> 508 ;
509 [label="gini = 0.0\nsamples = 8\nvalue = [0, 12, 0]"] ;
507 -> 509 ;
510 [label="X[2] <= -0.506\ngini = 0.483\nsamples = 31\nvalue = [20, 29, 0]"] ;
454 -> 510 ;
511 [label="X[6] <= -0.244\ngini = 0.298\nsamples = 11\nvalue = [4, 18, 0]"] ;
510 -> 511 ;
512 [label="X[2] <= -0.507\ngini = 0.5\nsamples = 5\nvalue = [4, 4, 0]"] ;
511 -> 512 ;
513 [label="gini = 0.0\nsamples = 1\nvalue = [2, 0, 0]"] ;
512 -> 513 ;
514 [label="X[5] <= -0.363\ngini = 0.444\nsamples = 4\nvalue = [2, 4, 0]"] ;
512 -> 514 ;
515 [label="gini = 0.0\nsamples = 1\nvalue = [1, 0, 0]"] ;
514 -> 515 ;
516 [label="X[6] <= -0.244\ngini = 0.32\nsamples = 3\nvalue = [1, 4, 0]"] ;
514 -> 516 ;
517 [label="gini = 0.0\nsamples = 2\nvalue = [0, 4, 0]"] ;
516 -> 517 ;
518 [label="gini = 0.0\nsamples = 1\nvalue = [1, 0, 0]"] ;
516 -> 518 ;
519 [label="gini = 0.0\nsamples = 6\nvalue = [0, 14, 0]"] ;
511 -> 519 ;
520 [label="X[3] <= -0.412\ngini = 0.483\nsamples = 20\nvalue = [16, 11, 0]"] ;
510 -> 520 ;
521 [label="gini = 0.0\nsamples = 2\nvalue = [0, 3, 0]"] ;
520 -> 521 ;
522 [label="X[6] <= -0.24\ngini = 0.444\nsamples = 18\nvalue = [16, 8, 0]"] ;
520 -> 522 ;
523 [label="X[1] <= -0.504\ngini = 0.266\nsamples = 15\nvalue = [16, 3, 0]"] ;
522 -> 523 ;
524 [label="gini = 0.0\nsamples = 5\nvalue = [6, 0, 0]"] ;
523 -> 524 ;
525 [label="X[4] <= -0.295\ngini = 0.355\nsamples = 10\nvalue = [10, 3, 0]"] ;
523 -> 525 ;
526 [label="X[7] <= -0.13\ngini = 0.198\nsamples = 6\nvalue = [8, 1, 0]"] ;
525 -> 526 ;
527 [label="gini = 0.0\nsamples = 5\nvalue = [8, 0, 0]"] ;
526 -> 527 ;
528 [label="gini = 0.0\nsamples = 1\nvalue = [0, 1, 0]"] ;
526 -> 528 ;
529 [label="X[4] <= 1.526\ngini = 0.5\nsamples = 4\nvalue = [2, 2, 0]"] ;
525 -> 529 ;
530 [label="gini = 0.0\nsamples = 2\nvalue = [0, 2, 0]"] ;
529 -> 530 ;
531 [label="gini = 0.0\nsamples = 2\nvalue = [2, 0, 0]"] ;
529 -> 531 ;
532 [label="gini = 0.0\nsamples = 3\nvalue = [0, 5, 0]"] ;
522 -> 532 ;
533 [label="X[3] <= -0.413\ngini = 0.217\nsamples = 24\nvalue = [37, 2, 3]"] ;
453 -> 533 ;
534 [label="gini = 0.0\nsamples = 1\nvalue = [0, 0, 3]"] ;
533 -> 534 ;
535 [label="X[4] <= -0.296\ngini = 0.097\nsamples = 23\nvalue = [37, 2, 0]"] ;
533 -> 535 ;
536 [label="gini = 0.0\nsamples = 14\nvalue = [25, 0, 0]"] ;
535 -> 536 ;
537 [label="X[2] <= -0.506\ngini = 0.245\nsamples = 9\nvalue = [12, 2, 0]"] ;
535 -> 537 ;
538 [label="gini = 0.0\nsamples = 1\nvalue = [0, 1, 0]"] ;
537 -> 538 ;
539 [label="X[0] <= -0.516\ngini = 0.142\nsamples = 8\nvalue = [12, 1, 0]"] ;
537 -> 539 ;
540 [label="X[6] <= -0.24\ngini = 0.5\nsamples = 2\nvalue = [1, 1, 0]"] ;
539 -> 540 ;
541 [label="gini = 0.0\nsamples = 1\nvalue = [1, 0, 0]"] ;
540 -> 541 ;
542 [label="gini = 0.0\nsamples = 1\nvalue = [0, 1, 0]"] ;
540 -> 542 ;
543 [label="gini = 0.0\nsamples = 6\nvalue = [11, 0, 0]"] ;
539 -> 543 ;
544 [label="X[3] <= -0.414\ngini = 0.494\nsamples = 674\nvalue = [379, 667, 33]"] ;
406 -> 544 ;
545 [label="X[7] <= -0.133\ngini = 0.59\nsamples = 14\nvalue = [5, 7, 15]"] ;
544 -> 545 ;
546 [label="X[6] <= -0.245\ngini = 0.54\nsamples = 6\nvalue = [3, 6, 1]"] ;
545 -> 546 ;
547 [label="X[7] <= -0.134\ngini = 0.245\nsamples = 4\nvalue = [0, 6, 1]"] ;
546 -> 547 ;
548 [label="gini = 0.0\nsamples = 1\nvalue = [0, 0, 1]"] ;
547 -> 548 ;
549 [label="gini = 0.0\nsamples = 3\nvalue = [0, 6, 0]"] ;
547 -> 549 ;
550 [label="gini = 0.0\nsamples = 2\nvalue = [3, 0, 0]"] ;
546 -> 550 ;
551 [label="X[2] <= -0.505\ngini = 0.304\nsamples = 8\nvalue = [2, 1, 14]"] ;
545 -> 551 ;
552 [label="gini = 0.0\nsamples = 1\nvalue = [0, 1, 0]"] ;
551 -> 552 ;
553 [label="X[4] <= -0.298\ngini = 0.219\nsamples = 7\nvalue = [2, 0, 14]"] ;
551 -> 553 ;
554 [label="gini = 0.0\nsamples = 5\nvalue = [0, 0, 10]"] ;
553 -> 554 ;
555 [label="X[0] <= -0.449\ngini = 0.444\nsamples = 2\nvalue = [2, 0, 4]"] ;
553 -> 555 ;
556 [label="gini = 0.0\nsamples = 1\nvalue = [0, 0, 4]"] ;
555 -> 556 ;
557 [label="gini = 0.0\nsamples = 1\nvalue = [2, 0, 0]"] ;
555 -> 557 ;
558 [label="X[3] <= -0.41\ngini = 0.48\nsamples = 660\nvalue = [374, 660, 18]"] ;
544 -> 558 ;
559 [label="X[7] <= -0.129\ngini = 0.524\nsamples = 307\nvalue = [203, 274, 18]"] ;
558 -> 559 ;
560 [label="X[1] <= -0.506\ngini = 0.486\nsamples = 261\nvalue = [165, 252, 3]"] ;
559 -> 560 ;
561 [label="X[4] <= -0.301\ngini = 0.469\nsamples = 45\nvalue = [50, 27, 1]"] ;
560 -> 561 ;
562 [label="gini = 0.0\nsamples = 3\nvalue = [0, 5, 0]"] ;
561 -> 562 ;
563 [label="X[5] <= -0.361\ngini = 0.44\nsamples = 42\nvalue = [50, 22, 1]"] ;
561 -> 563 ;
564 [label="X[0] <= -0.429\ngini = 0.487\nsamples = 30\nvalue = [29, 21, 0]"] ;
563 -> 564 ;
565 [label="X[7] <= -0.132\ngini = 0.355\nsamples = 8\nvalue = [3, 10, 0]"] ;
564 -> 565 ;
566 [label="gini = 0.0\nsamples = 6\nvalue = [0, 10, 0]"] ;
565 -> 566 ;
567 [label="gini = 0.0\nsamples = 2\nvalue = [3, 0, 0]"] ;
565 -> 567 ;
568 [label="X[5] <= -0.363\ngini = 0.418\nsamples = 22\nvalue = [26, 11, 0]"] ;
564 -> 568 ;
569 [label="X[1] <= -0.508\ngini = 0.204\nsamples = 15\nvalue = [23, 3, 0]"] ;
568 -> 569 ;
570 [label="gini = 0.0\nsamples = 9\nvalue = [18, 0, 0]"] ;
569 -> 570 ;
571 [label="X[1] <= -0.508\ngini = 0.469\nsamples = 6\nvalue = [5, 3, 0]"] ;
569 -> 571 ;
572 [label="gini = 0.0\nsamples = 1\nvalue = [0, 2, 0]"] ;
571 -> 572 ;
573 [label="X[1] <= -0.507\ngini = 0.278\nsamples = 5\nvalue = [5, 1, 0]"] ;
571 -> 573 ;
574 [label="gini = 0.0\nsamples = 3\nvalue = [4, 0, 0]"] ;
573 -> 574 ;
575 [label="X[0] <= -0.355\ngini = 0.5\nsamples = 2\nvalue = [1, 1, 0]"] ;
573 -> 575 ;
576 [label="gini = 0.0\nsamples = 1\nvalue = [1, 0, 0]"] ;
575 -> 576 ;
577 [label="gini = 0.0\nsamples = 1\nvalue = [0, 1, 0]"] ;
575 -> 577 ;
578 [label="X[1] <= -0.509\ngini = 0.397\nsamples = 7\nvalue = [3, 8, 0]"] ;
568 -> 578 ;
579 [label="X[3] <= -0.411\ngini = 0.444\nsamples = 3\nvalue = [2, 1, 0]"] ;
578 -> 579 ;
580 [label="gini = 0.0\nsamples = 2\nvalue = [2, 0, 0]"] ;
579 -> 580 ;
581 [label="gini = 0.0\nsamples = 1\nvalue = [0, 1, 0]"] ;
579 -> 581 ;
582 [label="X[3] <= -0.413\ngini = 0.219\nsamples = 4\nvalue = [1, 7, 0]"] ;
578 -> 582 ;
583 [label="gini = 0.0\nsamples = 1\nvalue = [1, 0, 0]"] ;
582 -> 583 ;
584 [label="gini = 0.0\nsamples = 3\nvalue = [0, 7, 0]"] ;
582 -> 584 ;
585 [label="X[7] <= -0.131\ngini = 0.163\nsamples = 12\nvalue = [21, 1, 1]"] ;
563 -> 585 ;
586 [label="gini = 0.0\nsamples = 7\nvalue = [16, 0, 0]"] ;
585 -> 586 ;
587 [label="X[2] <= 0.745\ngini = 0.449\nsamples = 5\nvalue = [5, 1, 1]"] ;
585 -> 587 ;
588 [label="X[5] <= -0.36\ngini = 0.278\nsamples = 4\nvalue = [5, 1, 0]"] ;
587 -> 588 ;
589 [label="gini = 0.0\nsamples = 3\nvalue = [5, 0, 0]"] ;
588 -> 589 ;
590 [label="gini = 0.0\nsamples = 1\nvalue = [0, 1, 0]"] ;
588 -> 590 ;
591 [label="gini = 0.0\nsamples = 1\nvalue = [0, 0, 1]"] ;
587 -> 591 ;
592 [label="X[3] <= -0.41\ngini = 0.454\nsamples = 216\nvalue = [115, 225, 2]"] ;
560 -> 592 ;
593 [label="X[0] <= 1.067\ngini = 0.441\nsamples = 205\nvalue = [103, 220, 2]"] ;
592 -> 593 ;
594 [label="X[2] <= -0.507\ngini = 0.421\nsamples = 190\nvalue = [88, 214, 2]"] ;
593 -> 594 ;
595 [label="gini = 0.0\nsamples = 9\nvalue = [0, 18, 0]"] ;
594 -> 595 ;
596 [label="X[0] <= -0.494\ngini = 0.436\nsamples = 181\nvalue = [88, 196, 2]"] ;
594 -> 596 ;
597 [label="X[5] <= -0.361\ngini = 0.245\nsamples = 4\nvalue = [6, 1, 0]"] ;
596 -> 597 ;
598 [label="gini = 0.0\nsamples = 3\nvalue = [6, 0, 0]"] ;
597 -> 598 ;
599 [label="gini = 0.0\nsamples = 1\nvalue = [0, 1, 0]"] ;
597 -> 599 ;
600 [label="X[2] <= -0.503\ngini = 0.425\nsamples = 177\nvalue = [82, 195, 2]"] ;
596 -> 600 ;
601 [label="X[7] <= -0.133\ngini = 0.464\nsamples = 107\nvalue = [59, 112, 2]"] ;
600 -> 601 ;
602 [label="X[6] <= -0.245\ngini = 0.117\nsamples = 9\nvalue = [1, 15, 0]"] ;
601 -> 602 ;
603 [label="X[0] <= -0.461\ngini = 0.375\nsamples = 2\nvalue = [1, 3, 0]"] ;
602 -> 603 ;
604 [label="gini = 0.0\nsamples = 1\nvalue = [0, 3, 0]"] ;
603 -> 604 ;
605 [label="gini = 0.0\nsamples = 1\nvalue = [1, 0, 0]"] ;
603 -> 605 ;
606 [label="gini = 0.0\nsamples = 7\nvalue = [0, 12, 0]"] ;
602 -> 606 ;
607 [label="X[2] <= -0.505\ngini = 0.482\nsamples = 98\nvalue = [58, 97, 2]"] ;
601 -> 607 ;
608 [label="X[0] <= -0.373\ngini = 0.404\nsamples = 56\nvalue = [23, 59, 0]"] ;
607 -> 608 ;
609 [label="X[6] <= -0.245\ngini = 0.464\nsamples = 44\nvalue = [23, 40, 0]"] ;
608 -> 609 ;
610 [label="X[2] <= -0.506\ngini = 0.32\nsamples = 7\nvalue = [8, 2, 0]"] ;
609 -> 610 ;
611 [label="X[5] <= -0.365\ngini = 0.198\nsamples = 6\nvalue = [8, 1, 0]"] ;
610 -> 611 ;
612 [label="gini = 0.0\nsamples = 1\nvalue = [0, 1, 0]"] ;
611 -> 612 ;
613 [label="gini = 0.0\nsamples = 5\nvalue = [8, 0, 0]"] ;
611 -> 613 ;
614 [label="gini = 0.0\nsamples = 1\nvalue = [0, 1, 0]"] ;
610 -> 614 ;
615 [label="X[4] <= -0.298\ngini = 0.406\nsamples = 37\nvalue = [15, 38, 0]"] ;
609 -> 615 ;
616 [label="X[1] <= 2.014\ngini = 0.137\nsamples = 19\nvalue = [2, 25, 0]"] ;
615 -> 616 ;
617 [label="X[2] <= -0.507\ngini = 0.077\nsamples = 17\nvalue = [1, 24, 0]"] ;
616 -> 617 ;
618 [label="X[5] <= -0.364\ngini = 0.245\nsamples = 5\nvalue = [1, 6, 0]"] ;
617 -> 618 ;
619 [label="gini = 0.0\nsamples = 3\nvalue = [0, 5, 0]"] ;
618 -> 619 ;
620 [label="X[5] <= -0.362\ngini = 0.5\nsamples = 2\nvalue = [1, 1, 0]"] ;
618 -> 620 ;
621 [label="gini = 0.0\nsamples = 1\nvalue = [1, 0, 0]"] ;
620 -> 621 ;
622 [label="gini = 0.0\nsamples = 1\nvalue = [0, 1, 0]"] ;
620 -> 622 ;
623 [label="gini = 0.0\nsamples = 12\nvalue = [0, 18, 0]"] ;
617 -> 623 ;
624 [label="X[4] <= -0.3\ngini = 0.5\nsamples = 2\nvalue = [1, 1, 0]"] ;
616 -> 624 ;
625 [label="gini = 0.0\nsamples = 1\nvalue = [0, 1, 0]"] ;
624 -> 625 ;
626 [label="gini = 0.0\nsamples = 1\nvalue = [1, 0, 0]"] ;
624 -> 626 ;
627 [label="X[3] <= -0.412\ngini = 0.5\nsamples = 18\nvalue = [13, 13, 0]"] ;
615 -> 627 ;
628 [label="X[7] <= -0.132\ngini = 0.32\nsamples = 12\nvalue = [12, 3, 0]"] ;
627 -> 628 ;
629 [label="X[2] <= -0.506\ngini = 0.375\nsamples = 4\nvalue = [1, 3, 0]"] ;
628 -> 629 ;
630 [label="gini = 0.0\nsamples = 3\nvalue = [0, 3, 0]"] ;
629 -> 630 ;
631 [label="gini = 0.0\nsamples = 1\nvalue = [1, 0, 0]"] ;
629 -> 631 ;
632 [label="gini = 0.0\nsamples = 8\nvalue = [11, 0, 0]"] ;
628 -> 632 ;
633 [label="X[6] <= 4.098\ngini = 0.165\nsamples = 6\nvalue = [1, 10, 0]"] ;
627 -> 633 ;
634 [label="gini = 0.0\nsamples = 5\nvalue = [0, 10, 0]"] ;
633 -> 634 ;
635 [label="gini = 0.0\nsamples = 1\nvalue = [1, 0, 0]"] ;
633 -> 635 ;
636 [label="gini = 0.0\nsamples = 12\nvalue = [0, 19, 0]"] ;
608 -> 636 ;
637 [label="X[5] <= -0.362\ngini = 0.525\nsamples = 42\nvalue = [35, 38, 2]"] ;
607 -> 637 ;
638 [label="X[1] <= -0.485\ngini = 0.488\nsamples = 18\nvalue = [22, 16, 0]"] ;
637 -> 638 ;
639 [label="X[6] <= -0.241\ngini = 0.384\nsamples = 13\nvalue = [20, 7, 0]"] ;
638 -> 639 ;
640 [label="X[0] <= -0.283\ngini = 0.227\nsamples = 12\nvalue = [20, 3, 0]"] ;
639 -> 640 ;
641 [label="X[6] <= -0.244\ngini = 0.091\nsamples = 11\nvalue = [20, 1, 0]"] ;
640 -> 641 ;
642 [label="X[2] <= -0.504\ngini = 0.375\nsamples = 3\nvalue = [3, 1, 0]"] ;
641 -> 642 ;
643 [label="gini = 0.0\nsamples = 1\nvalue = [0, 1, 0]"] ;
642 -> 643 ;
644 [label="gini = 0.0\nsamples = 2\nvalue = [3, 0, 0]"] ;
642 -> 644 ;
645 [label="gini = 0.0\nsamples = 8\nvalue = [17, 0, 0]"] ;
641 -> 645 ;
646 [label="gini = 0.0\nsamples = 1\nvalue = [0, 2, 0]"] ;
640 -> 646 ;
647 [label="gini = 0.0\nsamples = 1\nvalue = [0, 4, 0]"] ;
639 -> 647 ;
648 [label="X[4] <= -0.297\ngini = 0.298\nsamples = 5\nvalue = [2, 9, 0]"] ;
638 -> 648 ;
649 [label="gini = 0.0\nsamples = 4\nvalue = [0, 9, 0]"] ;
648 -> 649 ;
650 [label="gini = 0.0\nsamples = 1\nvalue = [2, 0, 0]"] ;
648 -> 650 ;
651 [label="X[1] <= -0.45\ngini = 0.52\nsamples = 24\nvalue = [13, 22, 2]"] ;
637 -> 651 ;
652 [label="X[0] <= -0.479\ngini = 0.451\nsamples = 20\nvalue = [7, 21, 2]"] ;
651 -> 652 ;
653 [label="X[5] <= -0.36\ngini = 0.48\nsamples = 2\nvalue = [3, 0, 2]"] ;
652 -> 653 ;
654 [label="gini = 0.0\nsamples = 1\nvalue = [3, 0, 0]"] ;
653 -> 654 ;
655 [label="gini = 0.0\nsamples = 1\nvalue = [0, 0, 2]"] ;
653 -> 655 ;
656 [label="X[0] <= -0.197\ngini = 0.269\nsamples = 18\nvalue = [4, 21, 0]"] ;
652 -> 656 ;
657 [label="X[0] <= -0.385\ngini = 0.219\nsamples = 17\nvalue = [3, 21, 0]"] ;
656 -> 657 ;
658 [label="gini = 0.0\nsamples = 7\nvalue = [0, 11, 0]"] ;
657 -> 658 ;
659 [label="X[1] <= -0.464\ngini = 0.355\nsamples = 10\nvalue = [3, 10, 0]"] ;
657 -> 659 ;
660 [label="X[5] <= -0.36\ngini = 0.278\nsamples = 9\nvalue = [2, 10, 0]"] ;
659 -> 660 ;
661 [label="gini = 0.0\nsamples = 8\nvalue = [0, 10, 0]"] ;
660 -> 661 ;
662 [label="gini = 0.0\nsamples = 1\nvalue = [2, 0, 0]"] ;
660 -> 662 ;
663 [label="gini = 0.0\nsamples = 1\nvalue = [1, 0, 0]"] ;
659 -> 663 ;
664 [label="gini = 0.0\nsamples = 1\nvalue = [1, 0, 0]"] ;
656 -> 664 ;
665 [label="X[1] <= 2.013\ngini = 0.245\nsamples = 4\nvalue = [6, 1, 0]"] ;
651 -> 665 ;
666 [label="gini = 0.0\nsamples = 3\nvalue = [6, 0, 0]"] ;
665 -> 666 ;
667 [label="gini = 0.0\nsamples = 1\nvalue = [0, 1, 0]"] ;
665 -> 667 ;
668 [label="X[5] <= -0.364\ngini = 0.34\nsamples = 70\nvalue = [23, 83, 0]"] ;
600 -> 668 ;
669 [label="gini = 0.0\nsamples = 2\nvalue = [4, 0, 0]"] ;
668 -> 669 ;
670 [label="X[0] <= -0.089\ngini = 0.303\nsamples = 68\nvalue = [19, 83, 0]"] ;
668 -> 670 ;
671 [label="X[7] <= -0.131\ngini = 0.293\nsamples = 67\nvalue = [18, 83, 0]"] ;
670 -> 671 ;
672 [label="X[3] <= -0.413\ngini = 0.355\nsamples = 50\nvalue = [18, 60, 0]"] ;
671 -> 672 ;
673 [label="X[6] <= -0.245\ngini = 0.083\nsamples = 13\nvalue = [1, 22, 0]"] ;
672 -> 673 ;
674 [label="gini = 0.0\nsamples = 1\nvalue = [1, 0, 0]"] ;
673 -> 674 ;
675 [label="gini = 0.0\nsamples = 12\nvalue = [0, 22, 0]"] ;
673 -> 675 ;
676 [label="X[4] <= -0.299\ngini = 0.427\nsamples = 37\nvalue = [17, 38, 0]"] ;
672 -> 676 ;
677 [label="gini = 0.0\nsamples = 10\nvalue = [0, 16, 0]"] ;
676 -> 677 ;
678 [label="X[2] <= 1.985\ngini = 0.492\nsamples = 27\nvalue = [17, 22, 0]"] ;
676 -> 678 ;
679 [label="X[5] <= -0.363\ngini = 0.437\nsamples = 21\nvalue = [10, 21, 0]"] ;
678 -> 679 ;
680 [label="X[4] <= -0.299\ngini = 0.278\nsamples = 4\nvalue = [5, 1, 0]"] ;
679 -> 680 ;
681 [label="gini = 0.0\nsamples = 1\nvalue = [0, 1, 0]"] ;
680 -> 681 ;
682 [label="gini = 0.0\nsamples = 3\nvalue = [5, 0, 0]"] ;
680 -> 682 ;
683 [label="X[5] <= -0.356\ngini = 0.32\nsamples = 17\nvalue = [5, 20, 0]"] ;
679 -> 683 ;
684 [label="X[4] <= -0.299\ngini = 0.172\nsamples = 14\nvalue = [2, 19, 0]"] ;
683 -> 684 ;
685 [label="gini = 0.0\nsamples = 1\nvalue = [1, 0, 0]"] ;
684 -> 685 ;
686 [label="X[3] <= -0.412\ngini = 0.095\nsamples = 13\nvalue = [1, 19, 0]"] ;
684 -> 686 ;
687 [label="X[0] <= -0.466\ngini = 0.444\nsamples = 3\nvalue = [1, 2, 0]"] ;
686 -> 687 ;
688 [label="gini = 0.0\nsamples = 1\nvalue = [1, 0, 0]"] ;
687 -> 688 ;
689 [label="gini = 0.0\nsamples = 2\nvalue = [0, 2, 0]"] ;
687 -> 689 ;
690 [label="gini = 0.0\nsamples = 10\nvalue = [0, 17, 0]"] ;
686 -> 690 ;
691 [label="X[6] <= 1.926\ngini = 0.375\nsamples = 3\nvalue = [3, 1, 0]"] ;
683 -> 691 ;
692 [label="gini = 0.0\nsamples = 2\nvalue = [3, 0, 0]"] ;
691 -> 692 ;
693 [label="gini = 0.0\nsamples = 1\nvalue = [0, 1, 0]"] ;
691 -> 693 ;
694 [label="X[4] <= -0.297\ngini = 0.219\nsamples = 6\nvalue = [7, 1, 0]"] ;
678 -> 694 ;
695 [label="gini = 0.0\nsamples = 4\nvalue = [6, 0, 0]"] ;
694 -> 695 ;
696 [label="X[3] <= -0.412\ngini = 0.5\nsamples = 2\nvalue = [1, 1, 0]"] ;
694 -> 696 ;
697 [label="gini = 0.0\nsamples = 1\nvalue = [1, 0, 0]"] ;
696 -> 697 ;
698 [label="gini = 0.0\nsamples = 1\nvalue = [0, 1, 0]"] ;
696 -> 698 ;
699 [label="gini = 0.0\nsamples = 17\nvalue = [0, 23, 0]"] ;
671 -> 699 ;
700 [label="gini = 0.0\nsamples = 1\nvalue = [1, 0, 0]"] ;
670 -> 700 ;
701 [label="X[2] <= -0.506\ngini = 0.408\nsamples = 15\nvalue = [15, 6, 0]"] ;
593 -> 701 ;
702 [label="X[4] <= -0.299\ngini = 0.375\nsamples = 7\nvalue = [2, 6, 0]"] ;
701 -> 702 ;
703 [label="X[2] <= -0.507\ngini = 0.5\nsamples = 3\nvalue = [2, 2, 0]"] ;
702 -> 703 ;
704 [label="gini = 0.0\nsamples = 1\nvalue = [2, 0, 0]"] ;
703 -> 704 ;
705 [label="gini = 0.0\nsamples = 2\nvalue = [0, 2, 0]"] ;
703 -> 705 ;
706 [label="gini = 0.0\nsamples = 4\nvalue = [0, 4, 0]"] ;
702 -> 706 ;
707 [label="gini = 0.0\nsamples = 8\nvalue = [13, 0, 0]"] ;
701 -> 707 ;
708 [label="X[3] <= -0.41\ngini = 0.415\nsamples = 11\nvalue = [12, 5, 0]"] ;
592 -> 708 ;
709 [label="gini = 0.0\nsamples = 4\nvalue = [8, 0, 0]"] ;
708 -> 709 ;
710 [label="X[3] <= -0.41\ngini = 0.494\nsamples = 7\nvalue = [4, 5, 0]"] ;
708 -> 710 ;
711 [label="X[2] <= 0.744\ngini = 0.32\nsamples = 4\nvalue = [1, 4, 0]"] ;
710 -> 711 ;
712 [label="gini = 0.0\nsamples = 3\nvalue = [0, 4, 0]"] ;
711 -> 712 ;
713 [label="gini = 0.0\nsamples = 1\nvalue = [1, 0, 0]"] ;
711 -> 713 ;
714 [label="X[0] <= -0.4\ngini = 0.375\nsamples = 3\nvalue = [3, 1, 0]"] ;
710 -> 714 ;
715 [label="X[5] <= -0.363\ngini = 0.5\nsamples = 2\nvalue = [1, 1, 0]"] ;
714 -> 715 ;
716 [label="gini = 0.0\nsamples = 1\nvalue = [0, 1, 0]"] ;
715 -> 716 ;
717 [label="gini = 0.0\nsamples = 1\nvalue = [1, 0, 0]"] ;
715 -> 717 ;
718 [label="gini = 0.0\nsamples = 1\nvalue = [2, 0, 0]"] ;
714 -> 718 ;
719 [label="X[7] <= -0.128\ngini = 0.617\nsamples = 46\nvalue = [38, 22, 15]"] ;
559 -> 719 ;
720 [label="gini = 0.0\nsamples = 4\nvalue = [11, 0, 0]"] ;
719 -> 720 ;
721 [label="X[0] <= -0.261\ngini = 0.649\nsamples = 42\nvalue = [27, 22, 15]"] ;
719 -> 721 ;
722 [label="X[3] <= -0.411\ngini = 0.664\nsamples = 32\nvalue = [15, 18, 15]"] ;
721 -> 722 ;
723 [label="X[5] <= -0.363\ngini = 0.63\nsamples = 19\nvalue = [12, 5, 9]"] ;
722 -> 723 ;
724 [label="gini = 0.0\nsamples = 2\nvalue = [0, 0, 3]"] ;
723 -> 724 ;
725 [label="X[1] <= -0.479\ngini = 0.612\nsamples = 17\nvalue = [12, 5, 6]"] ;
723 -> 725 ;
726 [label="X[1] <= -0.498\ngini = 0.26\nsamples = 9\nvalue = [11, 0, 2]"] ;
725 -> 726 ;
727 [label="X[7] <= -0.123\ngini = 0.444\nsamples = 2\nvalue = [1, 0, 2]"] ;
726 -> 727 ;
728 [label="gini = 0.0\nsamples = 1\nvalue = [1, 0, 0]"] ;
727 -> 728 ;
729 [label="gini = 0.0\nsamples = 1\nvalue = [0, 0, 2]"] ;
727 -> 729 ;
730 [label="gini = 0.0\nsamples = 7\nvalue = [10, 0, 0]"] ;
726 -> 730 ;
731 [label="X[3] <= -0.411\ngini = 0.58\nsamples = 8\nvalue = [1, 5, 4]"] ;
725 -> 731 ;
732 [label="X[1] <= -0.475\ngini = 0.444\nsamples = 5\nvalue = [0, 2, 4]"] ;
731 -> 732 ;
733 [label="gini = 0.0\nsamples = 2\nvalue = [0, 2, 0]"] ;
732 -> 733 ;
734 [label="gini = 0.0\nsamples = 3\nvalue = [0, 0, 4]"] ;
732 -> 734 ;
735 [label="X[6] <= -0.24\ngini = 0.375\nsamples = 3\nvalue = [1, 3, 0]"] ;
731 -> 735 ;
736 [label="gini = 0.0\nsamples = 2\nvalue = [0, 3, 0]"] ;
735 -> 736 ;
737 [label="gini = 0.0\nsamples = 1\nvalue = [1, 0, 0]"] ;
735 -> 737 ;
738 [label="X[1] <= -0.489\ngini = 0.558\nsamples = 13\nvalue = [3, 13, 6]"] ;
722 -> 738 ;
739 [label="X[4] <= -0.296\ngini = 0.444\nsamples = 4\nvalue = [0, 3, 6]"] ;
738 -> 739 ;
740 [label="gini = 0.0\nsamples = 2\nvalue = [0, 3, 0]"] ;
739 -> 740 ;
741 [label="gini = 0.0\nsamples = 2\nvalue = [0, 0, 6]"] ;
739 -> 741 ;
742 [label="X[5] <= 2.759\ngini = 0.355\nsamples = 9\nvalue = [3, 10, 0]"] ;
738 -> 742 ;
743 [label="X[5] <= -0.361\ngini = 0.278\nsamples = 8\nvalue = [2, 10, 0]"] ;
742 -> 743 ;
744 [label="X[4] <= 1.525\ngini = 0.48\nsamples = 4\nvalue = [2, 3, 0]"] ;
743 -> 744 ;
745 [label="gini = 0.0\nsamples = 2\nvalue = [0, 3, 0]"] ;
744 -> 745 ;
746 [label="gini = 0.0\nsamples = 2\nvalue = [2, 0, 0]"] ;
744 -> 746 ;
747 [label="gini = 0.0\nsamples = 4\nvalue = [0, 7, 0]"] ;
743 -> 747 ;
748 [label="gini = 0.0\nsamples = 1\nvalue = [1, 0, 0]"] ;
742 -> 748 ;
749 [label="X[5] <= 1.203\ngini = 0.375\nsamples = 10\nvalue = [12, 4, 0]"] ;
721 -> 749 ;
750 [label="X[5] <= -0.36\ngini = 0.153\nsamples = 7\nvalue = [11, 1, 0]"] ;
749 -> 750 ;
751 [label="X[2] <= -0.506\ngini = 0.32\nsamples = 3\nvalue = [4, 1, 0]"] ;
750 -> 751 ;
752 [label="gini = 0.0\nsamples = 1\nvalue = [0, 1, 0]"] ;
751 -> 752 ;
753 [label="gini = 0.0\nsamples = 2\nvalue = [4, 0, 0]"] ;
751 -> 753 ;
754 [label="gini = 0.0\nsamples = 4\nvalue = [7, 0, 0]"] ;
750 -> 754 ;
755 [label="X[4] <= 1.525\ngini = 0.375\nsamples = 3\nvalue = [1, 3, 0]"] ;
749 -> 755 ;
756 [label="gini = 0.0\nsamples = 2\nvalue = [0, 3, 0]"] ;
755 -> 756 ;
757 [label="gini = 0.0\nsamples = 1\nvalue = [1, 0, 0]"] ;
755 -> 757 ;
758 [label="X[1] <= -0.508\ngini = 0.426\nsamples = 353\nvalue = [171, 386, 0]"] ;
558 -> 758 ;
759 [label="X[0] <= 0.869\ngini = 0.386\nsamples = 14\nvalue = [17, 6, 0]"] ;
758 -> 759 ;
760 [label="X[0] <= -0.463\ngini = 0.49\nsamples = 4\nvalue = [3, 4, 0]"] ;
759 -> 760 ;
761 [label="gini = 0.0\nsamples = 2\nvalue = [3, 0, 0]"] ;
760 -> 761 ;
762 [label="gini = 0.0\nsamples = 2\nvalue = [0, 4, 0]"] ;
760 -> 762 ;
763 [label="X[3] <= 2.426\ngini = 0.219\nsamples = 10\nvalue = [14, 2, 0]"] ;
759 -> 763 ;
764 [label="gini = 0.0\nsamples = 7\nvalue = [12, 0, 0]"] ;
763 -> 764 ;
765 [label="X[7] <= -0.133\ngini = 0.5\nsamples = 3\nvalue = [2, 2, 0]"] ;
763 -> 765 ;
766 [label="gini = 0.0\nsamples = 1\nvalue = [0, 2, 0]"] ;
765 -> 766 ;
767 [label="gini = 0.0\nsamples = 2\nvalue = [2, 0, 0]"] ;
765 -> 767 ;
768 [label="X[0] <= -0.489\ngini = 0.41\nsamples = 339\nvalue = [154, 380, 0]"] ;
758 -> 768 ;
769 [label="gini = 0.0\nsamples = 14\nvalue = [0, 21, 0]"] ;
768 -> 769 ;
770 [label="X[0] <= -0.433\ngini = 0.42\nsamples = 325\nvalue = [154, 359, 0]"] ;
768 -> 770 ;
771 [label="X[4] <= 3.346\ngini = 0.492\nsamples = 87\nvalue = [54, 70, 0]"] ;
770 -> 771 ;
772 [label="X[5] <= -0.362\ngini = 0.444\nsamples = 63\nvalue = [31, 62, 0]"] ;
771 -> 772 ;
773 [label="X[2] <= -0.504\ngini = 0.351\nsamples = 29\nvalue = [10, 34, 0]"] ;
772 -> 773 ;
774 [label="X[1] <= -0.5\ngini = 0.208\nsamples = 22\nvalue = [4, 30, 0]"] ;
773 -> 774 ;
775 [label="gini = 0.0\nsamples = 8\nvalue = [0, 12, 0]"] ;
774 -> 775 ;
776 [label="X[1] <= -0.499\ngini = 0.298\nsamples = 14\nvalue = [4, 18, 0]"] ;
774 -> 776 ;
777 [label="gini = 0.0\nsamples = 1\nvalue = [1, 0, 0]"] ;
776 -> 777 ;
778 [label="X[2] <= -0.507\ngini = 0.245\nsamples = 13\nvalue = [3, 18, 0]"] ;
776 -> 778 ;
779 [label="gini = 0.0\nsamples = 1\nvalue = [1, 0, 0]"] ;
778 -> 779 ;
780 [label="X[6] <= -0.243\ngini = 0.18\nsamples = 12\nvalue = [2, 18, 0]"] ;
778 -> 780 ;
781 [label="X[1] <= -0.499\ngini = 0.346\nsamples = 6\nvalue = [2, 7, 0]"] ;
780 -> 781 ;
782 [label="gini = 0.0\nsamples = 3\nvalue = [0, 4, 0]"] ;
781 -> 782 ;
783 [label="X[2] <= -0.506\ngini = 0.48\nsamples = 3\nvalue = [2, 3, 0]"] ;
781 -> 783 ;
784 [label="gini = 0.0\nsamples = 1\nvalue = [0, 3, 0]"] ;
783 -> 784 ;
785 [label="gini = 0.0\nsamples = 2\nvalue = [2, 0, 0]"] ;
783 -> 785 ;
786 [label="gini = 0.0\nsamples = 6\nvalue = [0, 11, 0]"] ;
780 -> 786 ;
787 [label="X[6] <= -0.24\ngini = 0.48\nsamples = 7\nvalue = [6, 4, 0]"] ;
773 -> 787 ;
788 [label="X[5] <= -0.363\ngini = 0.375\nsamples = 5\nvalue = [6, 2, 0]"] ;
787 -> 788 ;
789 [label="gini = 0.0\nsamples = 3\nvalue = [5, 0, 0]"] ;
788 -> 789 ;
790 [label="X[2] <= 0.742\ngini = 0.444\nsamples = 2\nvalue = [1, 2, 0]"] ;
788 -> 790 ;
791 [label="gini = 0.0\nsamples = 1\nvalue = [1, 0, 0]"] ;
790 -> 791 ;
792 [label="gini = 0.0\nsamples = 1\nvalue = [0, 2, 0]"] ;
790 -> 792 ;
793 [label="gini = 0.0\nsamples = 2\nvalue = [0, 2, 0]"] ;
787 -> 793 ;
794 [label="X[1] <= -0.459\ngini = 0.49\nsamples = 34\nvalue = [21, 28, 0]"] ;
772 -> 794 ;
795 [label="X[2] <= -0.505\ngini = 0.464\nsamples = 19\nvalue = [19, 11, 0]"] ;
794 -> 795 ;
796 [label="X[3] <= 2.43\ngini = 0.408\nsamples = 3\nvalue = [2, 5, 0]"] ;
795 -> 796 ;
797 [label="gini = 0.0\nsamples = 2\nvalue = [0, 5, 0]"] ;
796 -> 797 ;
798 [label="gini = 0.0\nsamples = 1\nvalue = [2, 0, 0]"] ;
796 -> 798 ;
799 [label="X[2] <= 1.985\ngini = 0.386\nsamples = 16\nvalue = [17, 6, 0]"] ;
795 -> 799 ;
800 [label="X[5] <= 2.758\ngini = 0.231\nsamples = 11\nvalue = [13, 2, 0]"] ;
799 -> 800 ;
801 [label="X[6] <= -0.245\ngini = 0.133\nsamples = 10\nvalue = [13, 1, 0]"] ;
800 -> 801 ;
802 [label="gini = 0.0\nsamples = 1\nvalue = [0, 1, 0]"] ;
801 -> 802 ;
803 [label="gini = 0.0\nsamples = 9\nvalue = [13, 0, 0]"] ;
801 -> 803 ;
804 [label="gini = 0.0\nsamples = 1\nvalue = [0, 1, 0]"] ;
800 -> 804 ;
805 [label="X[5] <= -0.361\ngini = 0.5\nsamples = 5\nvalue = [4, 4, 0]"] ;
799 -> 805 ;
806 [label="gini = 0.0\nsamples = 1\nvalue = [3, 0, 0]"] ;
805 -> 806 ;
807 [label="X[5] <= 1.202\ngini = 0.32\nsamples = 4\nvalue = [1, 4, 0]"] ;
805 -> 807 ;
808 [label="gini = 0.0\nsamples = 3\nvalue = [0, 4, 0]"] ;
807 -> 808 ;
809 [label="gini = 0.0\nsamples = 1\nvalue = [1, 0, 0]"] ;
807 -> 809 ;
810 [label="X[0] <= -0.485\ngini = 0.188\nsamples = 15\nvalue = [2, 17, 0]"] ;
794 -> 810 ;
811 [label="gini = 0.0\nsamples = 1\nvalue = [1, 0, 0]"] ;
810 -> 811 ;
812 [label="X[2] <= -0.489\ngini = 0.105\nsamples = 14\nvalue = [1, 17, 0]"] ;
810 -> 812 ;
813 [label="gini = 0.0\nsamples = 12\nvalue = [0, 16, 0]"] ;
812 -> 813 ;
814 [label="X[6] <= 4.095\ngini = 0.5\nsamples = 2\nvalue = [1, 1, 0]"] ;
812 -> 814 ;
815 [label="gini = 0.0\nsamples = 1\nvalue = [1, 0, 0]"] ;
814 -> 815 ;
816 [label="gini = 0.0\nsamples = 1\nvalue = [0, 1, 0]"] ;
814 -> 816 ;
817 [label="X[1] <= -0.479\ngini = 0.383\nsamples = 24\nvalue = [23, 8, 0]"] ;
771 -> 817 ;
818 [label="X[2] <= 1.986\ngini = 0.153\nsamples = 9\nvalue = [11, 1, 0]"] ;
817 -> 818 ;
819 [label="gini = 0.0\nsamples = 7\nvalue = [10, 0, 0]"] ;
818 -> 819 ;
820 [label="X[4] <= 3.347\ngini = 0.5\nsamples = 2\nvalue = [1, 1, 0]"] ;
818 -> 820 ;
821 [label="gini = 0.0\nsamples = 1\nvalue = [1, 0, 0]"] ;
820 -> 821 ;
822 [label="gini = 0.0\nsamples = 1\nvalue = [0, 1, 0]"] ;
820 -> 822 ;
823 [label="X[0] <= -0.484\ngini = 0.465\nsamples = 15\nvalue = [12, 7, 0]"] ;
817 -> 823 ;
824 [label="gini = 0.0\nsamples = 1\nvalue = [0, 2, 0]"] ;
823 -> 824 ;
825 [label="X[6] <= 4.094\ngini = 0.415\nsamples = 14\nvalue = [12, 5, 0]"] ;
823 -> 825 ;
826 [label="X[4] <= 3.347\ngini = 0.444\nsamples = 6\nvalue = [2, 4, 0]"] ;
825 -> 826 ;
827 [label="gini = 0.0\nsamples = 2\nvalue = [2, 0, 0]"] ;
826 -> 827 ;
828 [label="gini = 0.0\nsamples = 4\nvalue = [0, 4, 0]"] ;
826 -> 828 ;
829 [label="X[0] <= -0.448\ngini = 0.165\nsamples = 8\nvalue = [10, 1, 0]"] ;
825 -> 829 ;
830 [label="gini = 0.0\nsamples = 5\nvalue = [8, 0, 0]"] ;
829 -> 830 ;
831 [label="X[7] <= -0.13\ngini = 0.444\nsamples = 3\nvalue = [2, 1, 0]"] ;
829 -> 831 ;
832 [label="gini = 0.0\nsamples = 1\nvalue = [0, 1, 0]"] ;
831 -> 832 ;
833 [label="gini = 0.0\nsamples = 2\nvalue = [2, 0, 0]"] ;
831 -> 833 ;
834 [label="X[2] <= -0.508\ngini = 0.382\nsamples = 238\nvalue = [100, 289, 0]"] ;
770 -> 834 ;
835 [label="gini = 0.0\nsamples = 1\nvalue = [2, 0, 0]"] ;
834 -> 835 ;
836 [label="X[7] <= 7.582\ngini = 0.378\nsamples = 237\nvalue = [98, 289, 0]"] ;
834 -> 836 ;
837 [label="X[6] <= -0.245\ngini = 0.37\nsamples = 235\nvalue = [94, 289, 0]"] ;
836 -> 837 ;
838 [label="gini = 0.0\nsamples = 3\nvalue = [4, 0, 0]"] ;
837 -> 838 ;
839 [label="X[6] <= -0.238\ngini = 0.362\nsamples = 232\nvalue = [90, 289, 0]"] ;
837 -> 839 ;
840 [label="X[3] <= 2.431\ngini = 0.283\nsamples = 137\nvalue = [37, 180, 0]"] ;
839 -> 840 ;
841 [label="X[1] <= -0.465\ngini = 0.278\nsamples = 136\nvalue = [36, 180, 0]"] ;
840 -> 841 ;
842 [label="X[7] <= -0.134\ngini = 0.225\nsamples = 92\nvalue = [19, 128, 0]"] ;
841 -> 842 ;
843 [label="gini = 0.0\nsamples = 1\nvalue = [1, 0, 0]"] ;
842 -> 843 ;
844 [label="X[7] <= -0.121\ngini = 0.216\nsamples = 91\nvalue = [18, 128, 0]"] ;
842 -> 844 ;
845 [label="X[5] <= -0.362\ngini = 0.201\nsamples = 87\nvalue = [16, 125, 0]"] ;
844 -> 845 ;
846 [label="X[6] <= -0.244\ngini = 0.339\nsamples = 23\nvalue = [8, 29, 0]"] ;
845 -> 846 ;
847 [label="gini = 0.0\nsamples = 7\nvalue = [0, 11, 0]"] ;
846 -> 847 ;
848 [label="X[5] <= -0.362\ngini = 0.426\nsamples = 16\nvalue = [8, 18, 0]"] ;
846 -> 848 ;
849 [label="X[6] <= -0.244\ngini = 0.375\nsamples = 14\nvalue = [6, 18, 0]"] ;
848 -> 849 ;
850 [label="gini = 0.0\nsamples = 1\nvalue = [2, 0, 0]"] ;
849 -> 850 ;
851 [label="X[0] <= -0.38\ngini = 0.298\nsamples = 13\nvalue = [4, 18, 0]"] ;
849 -> 851 ;
852 [label="gini = 0.0\nsamples = 5\nvalue = [0, 9, 0]"] ;
851 -> 852 ;
853 [label="X[2] <= -0.505\ngini = 0.426\nsamples = 8\nvalue = [4, 9, 0]"] ;
851 -> 853 ;
854 [label="X[7] <= -0.132\ngini = 0.219\nsamples = 3\nvalue = [1, 7, 0]"] ;
853 -> 854 ;
855 [label="gini = 0.0\nsamples = 1\nvalue = [1, 0, 0]"] ;
854 -> 855 ;
856 [label="gini = 0.0\nsamples = 2\nvalue = [0, 7, 0]"] ;
854 -> 856 ;
857 [label="X[4] <= -0.296\ngini = 0.48\nsamples = 5\nvalue = [3, 2, 0]"] ;
853 -> 857 ;
858 [label="gini = 0.0\nsamples = 2\nvalue = [2, 0, 0]"] ;
857 -> 858 ;
859 [label="X[5] <= -0.363\ngini = 0.444\nsamples = 3\nvalue = [1, 2, 0]"] ;
857 -> 859 ;
860 [label="gini = 0.0\nsamples = 2\nvalue = [0, 2, 0]"] ;
859 -> 860 ;
861 [label="gini = 0.0\nsamples = 1\nvalue = [1, 0, 0]"] ;
859 -> 861 ;
862 [label="gini = 0.0\nsamples = 2\nvalue = [2, 0, 0]"] ;
848 -> 862 ;
863 [label="X[1] <= -0.507\ngini = 0.142\nsamples = 64\nvalue = [8, 96, 0]"] ;
845 -> 863 ;
864 [label="gini = 0.0\nsamples = 2\nvalue = [2, 0, 0]"] ;
863 -> 864 ;
865 [label="X[4] <= -0.299\ngini = 0.111\nsamples = 62\nvalue = [6, 96, 0]"] ;
863 -> 865 ;
866 [label="X[0] <= -0.38\ngini = 0.375\nsamples = 14\nvalue = [5, 15, 0]"] ;
865 -> 866 ;
867 [label="X[6] <= -0.24\ngini = 0.408\nsamples = 5\nvalue = [5, 2, 0]"] ;
866 -> 867 ;
868 [label="gini = 0.0\nsamples = 3\nvalue = [4, 0, 0]"] ;
867 -> 868 ;
869 [label="X[6] <= -0.239\ngini = 0.444\nsamples = 2\nvalue = [1, 2, 0]"] ;
867 -> 869 ;
870 [label="gini = 0.0\nsamples = 1\nvalue = [0, 2, 0]"] ;
869 -> 870 ;
871 [label="gini = 0.0\nsamples = 1\nvalue = [1, 0, 0]"] ;
869 -> 871 ;
872 [label="gini = 0.0\nsamples = 9\nvalue = [0, 13, 0]"] ;
866 -> 872 ;
873 [label="X[3] <= -0.41\ngini = 0.024\nsamples = 48\nvalue = [1, 81, 0]"] ;
865 -> 873 ;
874 [label="X[2] <= -0.505\ngini = 0.278\nsamples = 4\nvalue = [1, 5, 0]"] ;
873 -> 874 ;
875 [label="gini = 0.0\nsamples = 1\nvalue = [1, 0, 0]"] ;
874 -> 875 ;
876 [label="gini = 0.0\nsamples = 3\nvalue = [0, 5, 0]"] ;
874 -> 876 ;
877 [label="gini = 0.0\nsamples = 44\nvalue = [0, 76, 0]"] ;
873 -> 877 ;
878 [label="X[4] <= 1.532\ngini = 0.48\nsamples = 4\nvalue = [2, 3, 0]"] ;
844 -> 878 ;
879 [label="gini = 0.0\nsamples = 3\nvalue = [0, 3, 0]"] ;
878 -> 879 ;
880 [label="gini = 0.0\nsamples = 1\nvalue = [2, 0, 0]"] ;
878 -> 880 ;
881 [label="X[0] <= -0.176\ngini = 0.371\nsamples = 44\nvalue = [17, 52, 0]"] ;
841 -> 881 ;
882 [label="X[4] <= 3.351\ngini = 0.285\nsamples = 35\nvalue = [10, 48, 0]"] ;
881 -> 882 ;
883 [label="X[3] <= 2.43\ngini = 0.266\nsamples = 34\nvalue = [9, 48, 0]"] ;
882 -> 883 ;
884 [label="X[2] <= -0.494\ngini = 0.208\nsamples = 31\nvalue = [6, 45, 0]"] ;
883 -> 884 ;
885 [label="X[2] <= -0.505\ngini = 0.057\nsamples = 20\nvalue = [1, 33, 0]"] ;
884 -> 885 ;
886 [label="X[3] <= 2.429\ngini = 0.18\nsamples = 6\nvalue = [1, 9, 0]"] ;
885 -> 886 ;
887 [label="gini = 0.0\nsamples = 5\nvalue = [0, 9, 0]"] ;
886 -> 887 ;
888 [label="gini = 0.0\nsamples = 1\nvalue = [1, 0, 0]"] ;
886 -> 888 ;
889 [label="gini = 0.0\nsamples = 14\nvalue = [0, 24, 0]"] ;
885 -> 889 ;
890 [label="X[2] <= -0.49\ngini = 0.415\nsamples = 11\nvalue = [5, 12, 0]"] ;
884 -> 890 ;
891 [label="gini = 0.0\nsamples = 2\nvalue = [3, 0, 0]"] ;
890 -> 891 ;
892 [label="X[0] <= -0.296\ngini = 0.245\nsamples = 9\nvalue = [2, 12, 0]"] ;
890 -> 892 ;
893 [label="X[7] <= -0.126\ngini = 0.153\nsamples = 7\nvalue = [1, 11, 0]"] ;
892 -> 893 ;
894 [label="gini = 0.0\nsamples = 5\nvalue = [0, 8, 0]"] ;
893 -> 894 ;
895 [label="X[6] <= -0.241\ngini = 0.375\nsamples = 2\nvalue = [1, 3, 0]"] ;
893 -> 895 ;
896 [label="gini = 0.0\nsamples = 1\nvalue = [0, 3, 0]"] ;
895 -> 896 ;
897 [label="gini = 0.0\nsamples = 1\nvalue = [1, 0, 0]"] ;
895 -> 897 ;
898 [label="X[1] <= -0.449\ngini = 0.5\nsamples = 2\nvalue = [1, 1, 0]"] ;
892 -> 898 ;
899 [label="gini = 0.0\nsamples = 1\nvalue = [0, 1, 0]"] ;
898 -> 899 ;
900 [label="gini = 0.0\nsamples = 1\nvalue = [1, 0, 0]"] ;
898 -> 900 ;
901 [label="X[1] <= -0.453\ngini = 0.5\nsamples = 3\nvalue = [3, 3, 0]"] ;
883 -> 901 ;
902 [label="gini = 0.0\nsamples = 1\nvalue = [2, 0, 0]"] ;
901 -> 902 ;
903 [label="X[2] <= 0.741\ngini = 0.375\nsamples = 2\nvalue = [1, 3, 0]"] ;
901 -> 903 ;
904 [label="gini = 0.0\nsamples = 1\nvalue = [0, 3, 0]"] ;
903 -> 904 ;
905 [label="gini = 0.0\nsamples = 1\nvalue = [1, 0, 0]"] ;
903 -> 905 ;
906 [label="gini = 0.0\nsamples = 1\nvalue = [1, 0, 0]"] ;
882 -> 906 ;
907 [label="X[7] <= -0.133\ngini = 0.463\nsamples = 9\nvalue = [7, 4, 0]"] ;
881 -> 907 ;
908 [label="gini = 0.0\nsamples = 1\nvalue = [0, 2, 0]"] ;
907 -> 908 ;
909 [label="X[1] <= 2.014\ngini = 0.346\nsamples = 8\nvalue = [7, 2, 0]"] ;
907 -> 909 ;
910 [label="X[6] <= -0.24\ngini = 0.219\nsamples = 7\nvalue = [7, 1, 0]"] ;
909 -> 910 ;
911 [label="gini = 0.0\nsamples = 5\nvalue = [6, 0, 0]"] ;
910 -> 911 ;
912 [label="X[4] <= 1.525\ngini = 0.5\nsamples = 2\nvalue = [1, 1, 0]"] ;
910 -> 912 ;
913 [label="gini = 0.0\nsamples = 1\nvalue = [0, 1, 0]"] ;
912 -> 913 ;
914 [label="gini = 0.0\nsamples = 1\nvalue = [1, 0, 0]"] ;
912 -> 914 ;
915 [label="gini = 0.0\nsamples = 1\nvalue = [0, 1, 0]"] ;
909 -> 915 ;
916 [label="gini = 0.0\nsamples = 1\nvalue = [1, 0, 0]"] ;
840 -> 916 ;
917 [label="X[4] <= -0.296\ngini = 0.44\nsamples = 95\nvalue = [53, 109, 0]"] ;
839 -> 917 ;
918 [label="X[0] <= -0.411\ngini = 0.494\nsamples = 22\nvalue = [20, 16, 0]"] ;
917 -> 918 ;
919 [label="gini = 0.0\nsamples = 1\nvalue = [0, 3, 0]"] ;
918 -> 919 ;
920 [label="X[1] <= -0.468\ngini = 0.478\nsamples = 21\nvalue = [20, 13, 0]"] ;
918 -> 920 ;
921 [label="X[2] <= -0.501\ngini = 0.444\nsamples = 11\nvalue = [5, 10, 0]"] ;
920 -> 921 ;
922 [label="gini = 0.0\nsamples = 3\nvalue = [0, 4, 0]"] ;
921 -> 922 ;
923 [label="X[5] <= -0.36\ngini = 0.496\nsamples = 8\nvalue = [5, 6, 0]"] ;
921 -> 923 ;
924 [label="gini = 0.0\nsamples = 3\nvalue = [0, 4, 0]"] ;
923 -> 924 ;
925 [label="X[3] <= -0.403\ngini = 0.408\nsamples = 5\nvalue = [5, 2, 0]"] ;
923 -> 925 ;
926 [label="gini = 0.0\nsamples = 1\nvalue = [0, 1, 0]"] ;
925 -> 926 ;
927 [label="X[0] <= -0.382\ngini = 0.278\nsamples = 4\nvalue = [5, 1, 0]"] ;
925 -> 927 ;
928 [label="gini = 0.0\nsamples = 1\nvalue = [0, 1, 0]"] ;
927 -> 928 ;
929 [label="gini = 0.0\nsamples = 3\nvalue = [5, 0, 0]"] ;
927 -> 929 ;
930 [label="X[6] <= 4.096\ngini = 0.278\nsamples = 10\nvalue = [15, 3, 0]"] ;
920 -> 930 ;
931 [label="gini = 0.0\nsamples = 5\nvalue = [10, 0, 0]"] ;
930 -> 931 ;
932 [label="X[5] <= 2.759\ngini = 0.469\nsamples = 5\nvalue = [5, 3, 0]"] ;
930 -> 932 ;
933 [label="X[0] <= -0.204\ngini = 0.278\nsamples = 4\nvalue = [5, 1, 0]"] ;
932 -> 933 ;
934 [label="gini = 0.0\nsamples = 3\nvalue = [5, 0, 0]"] ;
933 -> 934 ;
935 [label="gini = 0.0\nsamples = 1\nvalue = [0, 1, 0]"] ;
933 -> 935 ;
936 [label="gini = 0.0\nsamples = 1\nvalue = [0, 2, 0]"] ;
932 -> 936 ;
937 [label="X[1] <= -0.496\ngini = 0.387\nsamples = 73\nvalue = [33, 93, 0]"] ;
917 -> 937 ;
938 [label="X[0] <= -0.395\ngini = 0.48\nsamples = 10\nvalue = [9, 6, 0]"] ;
937 -> 938 ;
939 [label="gini = 0.0\nsamples = 3\nvalue = [0, 4, 0]"] ;
938 -> 939 ;
940 [label="X[4] <= -0.296\ngini = 0.298\nsamples = 7\nvalue = [9, 2, 0]"] ;
938 -> 940 ;
941 [label="gini = 0.0\nsamples = 1\nvalue = [0, 1, 0]"] ;
940 -> 941 ;
942 [label="X[7] <= 7.574\ngini = 0.18\nsamples = 6\nvalue = [9, 1, 0]"] ;
940 -> 942 ;
943 [label="gini = 0.0\nsamples = 5\nvalue = [9, 0, 0]"] ;
942 -> 943 ;
944 [label="gini = 0.0\nsamples = 1\nvalue = [0, 1, 0]"] ;
942 -> 944 ;
945 [label="X[3] <= 2.431\ngini = 0.339\nsamples = 63\nvalue = [24, 87, 0]"] ;
937 -> 945 ;
946 [label="X[7] <= -0.13\ngini = 0.322\nsamples = 62\nvalue = [22, 87, 0]"] ;
945 -> 946 ;
947 [label="X[5] <= 2.759\ngini = 0.087\nsamples = 14\nvalue = [1, 21, 0]"] ;
946 -> 947 ;
948 [label="gini = 0.0\nsamples = 12\nvalue = [0, 20, 0]"] ;
947 -> 948 ;
949 [label="X[6] <= 1.936\ngini = 0.5\nsamples = 2\nvalue = [1, 1, 0]"] ;
947 -> 949 ;
950 [label="gini = 0.0\nsamples = 1\nvalue = [0, 1, 0]"] ;
949 -> 950 ;
951 [label="gini = 0.0\nsamples = 1\nvalue = [1, 0, 0]"] ;
949 -> 951 ;
952 [label="X[6] <= 4.102\ngini = 0.366\nsamples = 48\nvalue = [21, 66, 0]"] ;
946 -> 952 ;
953 [label="X[4] <= -0.274\ngini = 0.335\nsamples = 44\nvalue = [17, 63, 0]"] ;
952 -> 953 ;
954 [label="X[6] <= -0.228\ngini = 0.128\nsamples = 15\nvalue = [2, 27, 0]"] ;
953 -> 954 ;
955 [label="X[3] <= -0.393\ngini = 0.444\nsamples = 3\nvalue = [2, 4, 0]"] ;
954 -> 955 ;
956 [label="gini = 0.0\nsamples = 1\nvalue = [2, 0, 0]"] ;
955 -> 956 ;
957 [label="gini = 0.0\nsamples = 2\nvalue = [0, 4, 0]"] ;
955 -> 957 ;
958 [label="gini = 0.0\nsamples = 12\nvalue = [0, 23, 0]"] ;
954 -> 958 ;
959 [label="X[2] <= -0.489\ngini = 0.415\nsamples = 29\nvalue = [15, 36, 0]"] ;
953 -> 959 ;
960 [label="X[2] <= -0.495\ngini = 0.497\nsamples = 16\nvalue = [13, 15, 0]"] ;
959 -> 960 ;
961 [label="X[0] <= -0.193\ngini = 0.434\nsamples = 12\nvalue = [7, 15, 0]"] ;
960 -> 961 ;
962 [label="X[3] <= 2.427\ngini = 0.332\nsamples = 10\nvalue = [4, 15, 0]"] ;
961 -> 962 ;
963 [label="X[3] <= -0.404\ngini = 0.117\nsamples = 9\nvalue = [1, 15, 0]"] ;
962 -> 963 ;
964 [label="X[5] <= -0.359\ngini = 0.5\nsamples = 2\nvalue = [1, 1, 0]"] ;
963 -> 964 ;
965 [label="gini = 0.0\nsamples = 1\nvalue = [1, 0, 0]"] ;
964 -> 965 ;
966 [label="gini = 0.0\nsamples = 1\nvalue = [0, 1, 0]"] ;
964 -> 966 ;
967 [label="gini = 0.0\nsamples = 7\nvalue = [0, 14, 0]"] ;
963 -> 967 ;
968 [label="gini = 0.0\nsamples = 1\nvalue = [3, 0, 0]"] ;
962 -> 968 ;
969 [label="gini = 0.0\nsamples = 2\nvalue = [3, 0, 0]"] ;
961 -> 969 ;
970 [label="gini = 0.0\nsamples = 4\nvalue = [6, 0, 0]"] ;
960 -> 970 ;
971 [label="X[7] <= 7.577\ngini = 0.159\nsamples = 13\nvalue = [2, 21, 0]"] ;
959 -> 971 ;
972 [label="X[6] <= 4.097\ngini = 0.087\nsamples = 12\nvalue = [1, 21, 0]"] ;
971 -> 972 ;
973 [label="gini = 0.0\nsamples = 9\nvalue = [0, 17, 0]"] ;
972 -> 973 ;
974 [label="X[3] <= 1.01\ngini = 0.32\nsamples = 3\nvalue = [1, 4, 0]"] ;
972 -> 974 ;
975 [label="gini = 0.0\nsamples = 1\nvalue = [1, 0, 0]"] ;
974 -> 975 ;
976 [label="gini = 0.0\nsamples = 2\nvalue = [0, 4, 0]"] ;
974 -> 976 ;
977 [label="gini = 0.0\nsamples = 1\nvalue = [1, 0, 0]"] ;
971 -> 977 ;
978 [label="X[2] <= -0.493\ngini = 0.49\nsamples = 4\nvalue = [4, 3, 0]"] ;
952 -> 978 ;
979 [label="gini = 0.0\nsamples = 1\nvalue = [4, 0, 0]"] ;
978 -> 979 ;
980 [label="gini = 0.0\nsamples = 3\nvalue = [0, 3, 0]"] ;
978 -> 980 ;
981 [label="gini = 0.0\nsamples = 1\nvalue = [2, 0, 0]"] ;
945 -> 981 ;
982 [label="gini = 0.0\nsamples = 2\nvalue = [4, 0, 0]"] ;
836 -> 982 ;
}