digraph Tree {
node [shape=box] ;
0 [label="X[3] <= -0.414\ngini = 0.666\nsamples = 2216\nvalue = [1129, 1198, 1177]"] ;
1 [label="X[2] <= -0.506\ngini = 0.36\nsamples = 888\nvalue = [140, 165, 1118]"] ;
0 -> 1 [labeldistance=2.5, labelangle=45, headlabel="True"] ;
2 [label="X[4] <= -0.301\ngini = 0.665\nsamples = 187\nvalue = [105, 99, 87]"] ;
1 -> 2 ;
3 [label="X[6] <= 1.93\ngini = 0.604\nsamples = 97\nvalue = [58, 70, 20]"] ;
2 -> 3 ;
4 [label="X[5] <= -0.363\ngini = 0.585\nsamples = 95\nvalue = [58, 70, 15]"] ;
3 -> 4 ;
5 [label="X[6] <= -0.246\ngini = 0.55\nsamples = 89\nvalue = [58, 70, 8]"] ;
4 -> 5 ;
6 [label="X[4] <= -0.302\ngini = 0.544\nsamples = 66\nvalue = [36, 59, 8]"] ;
5 -> 6 ;
7 [label="X[2] <= -0.507\ngini = 0.124\nsamples = 11\nvalue = [1, 14, 0]"] ;
6 -> 7 ;
8 [label="gini = 0.0\nsamples = 9\nvalue = [0, 13, 0]"] ;
7 -> 8 ;
9 [label="X[4] <= -0.302\ngini = 0.5\nsamples = 2\nvalue = [1, 1, 0]"] ;
7 -> 9 ;
10 [label="gini = 0.0\nsamples = 1\nvalue = [1, 0, 0]"] ;
9 -> 10 ;
11 [label="gini = 0.0\nsamples = 1\nvalue = [0, 1, 0]"] ;
9 -> 11 ;
12 [label="X[6] <= -0.246\ngini = 0.572\nsamples = 55\nvalue = [35, 45, 8]"] ;
6 -> 12 ;
13 [label="X[2] <= -0.508\ngini = 0.617\nsamples = 34\nvalue = [23, 17, 8]"] ;
12 -> 13 ;
14 [label="X[3] <= -0.414\ngini = 0.231\nsamples = 9\nvalue = [13, 2, 0]"] ;
13 -> 14 ;
15 [label="gini = 0.0\nsamples = 7\nvalue = [13, 0, 0]"] ;
14 -> 15 ;
16 [label="gini = 0.0\nsamples = 2\nvalue = [0, 2, 0]"] ;
14 -> 16 ;
17 [label="X[1] <= -0.51\ngini = 0.643\nsamples = 25\nvalue = [10, 15, 8]"] ;
13 -> 17 ;
18 [label="X[5] <= -0.365\ngini = 0.562\nsamples = 17\nvalue = [2, 12, 8]"] ;
17 -> 18 ;
19 [label="gini = 0.0\nsamples = 5\nvalue = [0, 9, 0]"] ;
18 -> 19 ;
20 [label="X[5] <= -0.365\ngini = 0.544\nsamples = 12\nvalue = [2, 3, 8]"] ;
18 -> 20 ;
21 [label="gini = 0.0\nsamples = 2\nvalue = [2, 0, 0]"] ;
20 -> 21 ;
22 [label="X[5] <= -0.365\ngini = 0.397\nsamples = 10\nvalue = [0, 3, 8]"] ;
20 -> 22 ;
23 [label="gini = 0.0\nsamples = 3\nvalue = [0, 0, 4]"] ;
22 -> 23 ;
24 [label="X[7] <= -0.134\ngini = 0.49\nsamples = 7\nvalue = [0, 3, 4]"] ;
22 -> 24 ;
25 [label="X[3] <= -0.414\ngini = 0.375\nsamples = 4\nvalue = [0, 3, 1]"] ;
24 -> 25 ;
26 [label="gini = 0.0\nsamples = 1\nvalue = [0, 0, 1]"] ;
25 -> 26 ;
27 [label="gini = 0.0\nsamples = 3\nvalue = [0, 3, 0]"] ;
25 -> 27 ;
28 [label="gini = 0.0\nsamples = 3\nvalue = [0, 0, 3]"] ;
24 -> 28 ;
29 [label="X[5] <= -0.365\ngini = 0.397\nsamples = 8\nvalue = [8, 3, 0]"] ;
17 -> 29 ;
30 [label="gini = 0.0\nsamples = 4\nvalue = [6, 0, 0]"] ;
29 -> 30 ;
31 [label="X[6] <= -0.246\ngini = 0.48\nsamples = 4\nvalue = [2, 3, 0]"] ;
29 -> 31 ;
32 [label="gini = 0.0\nsamples = 1\nvalue = [0, 2, 0]"] ;
31 -> 32 ;
33 [label="X[0] <= -0.496\ngini = 0.444\nsamples = 3\nvalue = [2, 1, 0]"] ;
31 -> 33 ;
34 [label="gini = 0.0\nsamples = 2\nvalue = [2, 0, 0]"] ;
33 -> 34 ;
35 [label="gini = 0.0\nsamples = 1\nvalue = [0, 1, 0]"] ;
33 -> 35 ;
36 [label="X[4] <= -0.302\ngini = 0.42\nsamples = 21\nvalue = [12, 28, 0]"] ;
12 -> 36 ;
37 [label="gini = 0.0\nsamples = 1\nvalue = [3, 0, 0]"] ;
36 -> 37 ;
38 [label="X[2] <= -0.508\ngini = 0.368\nsamples = 20\nvalue = [9, 28, 0]"] ;
36 -> 38 ;
39 [label="X[5] <= -0.365\ngini = 0.5\nsamples = 7\nvalue = [6, 6, 0]"] ;
38 -> 39 ;
40 [label="gini = 0.0\nsamples = 3\nvalue = [6, 0, 0]"] ;
39 -> 40 ;
41 [label="gini = 0.0\nsamples = 4\nvalue = [0, 6, 0]"] ;
39 -> 41 ;
42 [label="X[5] <= -0.364\ngini = 0.211\nsamples = 13\nvalue = [3, 22, 0]"] ;
38 -> 42 ;
43 [label="X[6] <= -0.246\ngini = 0.153\nsamples = 12\nvalue = [2, 22, 0]"] ;
42 -> 43 ;
44 [label="X[2] <= -0.507\ngini = 0.5\nsamples = 2\nvalue = [1, 1, 0]"] ;
43 -> 44 ;
45 [label="gini = 0.0\nsamples = 1\nvalue = [0, 1, 0]"] ;
44 -> 45 ;
46 [label="gini = 0.0\nsamples = 1\nvalue = [1, 0, 0]"] ;
44 -> 46 ;
47 [label="X[6] <= -0.246\ngini = 0.087\nsamples = 10\nvalue = [1, 21, 0]"] ;
43 -> 47 ;
48 [label="gini = 0.0\nsamples = 7\nvalue = [0, 17, 0]"] ;
47 -> 48 ;
49 [label="X[6] <= -0.246\ngini = 0.32\nsamples = 3\nvalue = [1, 4, 0]"] ;
47 -> 49 ;
50 [label="gini = 0.0\nsamples = 1\nvalue = [1, 0, 0]"] ;
49 -> 50 ;
51 [label="gini = 0.0\nsamples = 2\nvalue = [0, 4, 0]"] ;
49 -> 51 ;
52 [label="gini = 0.0\nsamples = 1\nvalue = [1, 0, 0]"] ;
42 -> 52 ;
53 [label="X[2] <= -0.507\ngini = 0.444\nsamples = 23\nvalue = [22, 11, 0]"] ;
5 -> 53 ;
54 [label="X[4] <= -0.301\ngini = 0.473\nsamples = 12\nvalue = [5, 8, 0]"] ;
53 -> 54 ;
55 [label="X[5] <= -0.365\ngini = 0.5\nsamples = 9\nvalue = [5, 5, 0]"] ;
54 -> 55 ;
56 [label="X[1] <= -0.51\ngini = 0.408\nsamples = 6\nvalue = [2, 5, 0]"] ;
55 -> 56 ;
57 [label="gini = 0.0\nsamples = 1\nvalue = [1, 0, 0]"] ;
56 -> 57 ;
58 [label="X[2] <= -0.507\ngini = 0.278\nsamples = 5\nvalue = [1, 5, 0]"] ;
56 -> 58 ;
59 [label="gini = 0.0\nsamples = 3\nvalue = [0, 4, 0]"] ;
58 -> 59 ;
60 [label="X[1] <= 2.013\ngini = 0.5\nsamples = 2\nvalue = [1, 1, 0]"] ;
58 -> 60 ;
61 [label="gini = 0.0\nsamples = 1\nvalue = [0, 1, 0]"] ;
60 -> 61 ;
62 [label="gini = 0.0\nsamples = 1\nvalue = [1, 0, 0]"] ;
60 -> 62 ;
63 [label="gini = 0.0\nsamples = 3\nvalue = [3, 0, 0]"] ;
55 -> 63 ;
64 [label="gini = 0.0\nsamples = 3\nvalue = [0, 3, 0]"] ;
54 -> 64 ;
65 [label="X[0] <= -0.493\ngini = 0.255\nsamples = 11\nvalue = [17, 3, 0]"] ;
53 -> 65 ;
66 [label="X[1] <= -0.509\ngini = 0.444\nsamples = 4\nvalue = [4, 2, 0]"] ;
65 -> 66 ;
67 [label="gini = 0.0\nsamples = 1\nvalue = [3, 0, 0]"] ;
66 -> 67 ;
68 [label="X[6] <= -0.245\ngini = 0.444\nsamples = 3\nvalue = [1, 2, 0]"] ;
66 -> 68 ;
69 [label="gini = 0.0\nsamples = 1\nvalue = [0, 1, 0]"] ;
68 -> 69 ;
70 [label="X[0] <= -0.499\ngini = 0.5\nsamples = 2\nvalue = [1, 1, 0]"] ;
68 -> 70 ;
71 [label="gini = 0.0\nsamples = 1\nvalue = [1, 0, 0]"] ;
70 -> 71 ;
72 [label="gini = 0.0\nsamples = 1\nvalue = [0, 1, 0]"] ;
70 -> 72 ;
73 [label="X[7] <= -0.133\ngini = 0.133\nsamples = 7\nvalue = [13, 1, 0]"] ;
65 -> 73 ;
74 [label="gini = 0.0\nsamples = 6\nvalue = [13, 0, 0]"] ;
73 -> 74 ;
75 [label="gini = 0.0\nsamples = 1\nvalue = [0, 1, 0]"] ;
73 -> 75 ;
76 [label="gini = 0.0\nsamples = 6\nvalue = [0, 0, 7]"] ;
4 -> 76 ;
77 [label="gini = 0.0\nsamples = 2\nvalue = [0, 0, 5]"] ;
3 -> 77 ;
78 [label="X[4] <= -0.301\ngini = 0.631\nsamples = 90\nvalue = [47, 29, 67]"] ;
2 -> 78 ;
79 [label="X[2] <= -0.507\ngini = 0.26\nsamples = 7\nvalue = [0, 2, 11]"] ;
78 -> 79 ;
80 [label="gini = 0.0\nsamples = 2\nvalue = [0, 2, 0]"] ;
79 -> 80 ;
81 [label="gini = 0.0\nsamples = 5\nvalue = [0, 0, 11]"] ;
79 -> 81 ;
82 [label="X[6] <= -0.246\ngini = 0.641\nsamples = 83\nvalue = [47, 27, 56]"] ;
78 -> 82 ;
83 [label="X[7] <= -0.135\ngini = 0.259\nsamples = 31\nvalue = [6, 1, 40]"] ;
82 -> 83 ;
84 [label="X[5] <= -0.365\ngini = 0.245\nsamples = 4\nvalue = [6, 1, 0]"] ;
83 -> 84 ;
85 [label="gini = 0.0\nsamples = 1\nvalue = [0, 1, 0]"] ;
84 -> 85 ;
86 [label="gini = 0.0\nsamples = 3\nvalue = [6, 0, 0]"] ;
84 -> 86 ;
87 [label="gini = 0.0\nsamples = 27\nvalue = [0, 0, 40]"] ;
83 -> 87 ;
88 [label="X[6] <= -0.245\ngini = 0.621\nsamples = 52\nvalue = [41, 26, 16]"] ;
82 -> 88 ;
89 [label="X[2] <= -0.507\ngini = 0.64\nsamples = 23\nvalue = [16, 8, 16]"] ;
88 -> 89 ;
90 [label="X[7] <= -0.134\ngini = 0.595\nsamples = 15\nvalue = [16, 7, 6]"] ;
89 -> 90 ;
91 [label="X[6] <= -0.246\ngini = 0.423\nsamples = 12\nvalue = [16, 7, 0]"] ;
90 -> 91 ;
92 [label="X[2] <= -0.507\ngini = 0.153\nsamples = 5\nvalue = [11, 1, 0]"] ;
91 -> 92 ;
93 [label="gini = 0.0\nsamples = 1\nvalue = [0, 1, 0]"] ;
92 -> 93 ;
94 [label="gini = 0.0\nsamples = 4\nvalue = [11, 0, 0]"] ;
92 -> 94 ;
95 [label="X[6] <= -0.246\ngini = 0.496\nsamples = 7\nvalue = [5, 6, 0]"] ;
91 -> 95 ;
96 [label="gini = 0.0\nsamples = 4\nvalue = [0, 5, 0]"] ;
95 -> 96 ;
97 [label="X[6] <= -0.246\ngini = 0.278\nsamples = 3\nvalue = [5, 1, 0]"] ;
95 -> 97 ;
98 [label="gini = 0.0\nsamples = 2\nvalue = [5, 0, 0]"] ;
97 -> 98 ;
99 [label="gini = 0.0\nsamples = 1\nvalue = [0, 1, 0]"] ;
97 -> 99 ;
100 [label="gini = 0.0\nsamples = 3\nvalue = [0, 0, 6]"] ;
90 -> 100 ;
101 [label="X[5] <= -0.365\ngini = 0.165\nsamples = 8\nvalue = [0, 1, 10]"] ;
89 -> 101 ;
102 [label="gini = 0.0\nsamples = 1\nvalue = [0, 1, 0]"] ;
101 -> 102 ;
103 [label="gini = 0.0\nsamples = 7\nvalue = [0, 0, 10]"] ;
101 -> 103 ;
104 [label="X[6] <= -0.244\ngini = 0.487\nsamples = 29\nvalue = [25, 18, 0]"] ;
88 -> 104 ;
105 [label="X[4] <= -0.299\ngini = 0.444\nsamples = 24\nvalue = [24, 12, 0]"] ;
104 -> 105 ;
106 [label="X[7] <= -0.134\ngini = 0.358\nsamples = 19\nvalue = [23, 7, 0]"] ;
105 -> 106 ;
107 [label="X[7] <= -0.134\ngini = 0.455\nsamples = 13\nvalue = [13, 7, 0]"] ;
106 -> 107 ;
108 [label="X[7] <= -0.135\ngini = 0.142\nsamples = 8\nvalue = [12, 1, 0]"] ;
107 -> 108 ;
109 [label="X[0] <= 0.84\ngini = 0.32\nsamples = 3\nvalue = [4, 1, 0]"] ;
108 -> 109 ;
110 [label="gini = 0.0\nsamples = 2\nvalue = [4, 0, 0]"] ;
109 -> 110 ;
111 [label="gini = 0.0\nsamples = 1\nvalue = [0, 1, 0]"] ;
109 -> 111 ;
112 [label="gini = 0.0\nsamples = 5\nvalue = [8, 0, 0]"] ;
108 -> 112 ;
113 [label="X[4] <= -0.299\ngini = 0.245\nsamples = 5\nvalue = [1, 6, 0]"] ;
107 -> 113 ;
114 [label="gini = 0.0\nsamples = 4\nvalue = [0, 6, 0]"] ;
113 -> 114 ;
115 [label="gini = 0.0\nsamples = 1\nvalue = [1, 0, 0]"] ;
113 -> 115 ;
116 [label="gini = 0.0\nsamples = 6\nvalue = [10, 0, 0]"] ;
106 -> 116 ;
117 [label="X[0] <= -0.518\ngini = 0.278\nsamples = 5\nvalue = [1, 5, 0]"] ;
105 -> 117 ;
118 [label="gini = 0.0\nsamples = 1\nvalue = [1, 0, 0]"] ;
117 -> 118 ;
119 [label="gini = 0.0\nsamples = 4\nvalue = [0, 5, 0]"] ;
117 -> 119 ;
120 [label="X[6] <= -0.241\ngini = 0.245\nsamples = 5\nvalue = [1, 6, 0]"] ;
104 -> 120 ;
121 [label="gini = 0.0\nsamples = 4\nvalue = [0, 6, 0]"] ;
120 -> 121 ;
122 [label="gini = 0.0\nsamples = 1\nvalue = [1, 0, 0]"] ;
120 -> 122 ;
123 [label="X[3] <= -0.414\ngini = 0.166\nsamples = 701\nvalue = [35, 66, 1031]"] ;
1 -> 123 ;
124 [label="X[6] <= -0.245\ngini = 0.101\nsamples = 620\nvalue = [21, 31, 939]"] ;
123 -> 124 ;
125 [label="X[6] <= -0.246\ngini = 0.035\nsamples = 601\nvalue = [7, 10, 937]"] ;
124 -> 125 ;
126 [label="X[2] <= -0.506\ngini = 0.011\nsamples = 553\nvalue = [4, 1, 872]"] ;
125 -> 126 ;
127 [label="X[0] <= 2.183\ngini = 0.06\nsamples = 57\nvalue = [2, 1, 94]"] ;
126 -> 127 ;
128 [label="X[4] <= -0.301\ngini = 0.041\nsamples = 55\nvalue = [1, 1, 93]"] ;
127 -> 128 ;
129 [label="gini = 0.0\nsamples = 1\nvalue = [0, 1, 0]"] ;
128 -> 129 ;
130 [label="X[5] <= -0.365\ngini = 0.021\nsamples = 54\nvalue = [1, 0, 93]"] ;
128 -> 130 ;
131 [label="X[1] <= 2.01\ngini = 0.133\nsamples = 8\nvalue = [1, 0, 13]"] ;
130 -> 131 ;
132 [label="gini = 0.0\nsamples = 7\nvalue = [0, 0, 13]"] ;
131 -> 132 ;
133 [label="gini = 0.0\nsamples = 1\nvalue = [1, 0, 0]"] ;
131 -> 133 ;
134 [label="gini = 0.0\nsamples = 46\nvalue = [0, 0, 80]"] ;
130 -> 134 ;
135 [label="X[2] <= -0.506\ngini = 0.5\nsamples = 2\nvalue = [1, 0, 1]"] ;
127 -> 135 ;
136 [label="gini = 0.0\nsamples = 1\nvalue = [1, 0, 0]"] ;
135 -> 136 ;
137 [label="gini = 0.0\nsamples = 1\nvalue = [0, 0, 1]"] ;
135 -> 137 ;
138 [label="X[3] <= -0.414\ngini = 0.005\nsamples = 496\nvalue = [2, 0, 778]"] ;
126 -> 138 ;
139 [label="gini = 0.0\nsamples = 393\nvalue = [0, 0, 630]"] ;
138 -> 139 ;
140 [label="X[3] <= -0.414\ngini = 0.026\nsamples = 103\nvalue = [2, 0, 148]"] ;
138 -> 140 ;
141 [label="X[6] <= -0.246\ngini = 0.5\nsamples = 2\nvalue = [1, 0, 1]"] ;
140 -> 141 ;
142 [label="gini = 0.0\nsamples = 1\nvalue = [1, 0, 0]"] ;
141 -> 142 ;
143 [label="gini = 0.0\nsamples = 1\nvalue = [0, 0, 1]"] ;
141 -> 143 ;
144 [label="X[7] <= -0.134\ngini = 0.013\nsamples = 101\nvalue = [1, 0, 147]"] ;
140 -> 144 ;
145 [label="gini = 0.0\nsamples = 1\nvalue = [1, 0, 0]"] ;
144 -> 145 ;
146 [label="gini = 0.0\nsamples = 100\nvalue = [0, 0, 147]"] ;
144 -> 146 ;
147 [label="X[5] <= -0.365\ngini = 0.272\nsamples = 48\nvalue = [3, 9, 65]"] ;
125 -> 147 ;
148 [label="X[5] <= -0.365\ngini = 0.245\nsamples = 5\nvalue = [1, 6, 0]"] ;
147 -> 148 ;
149 [label="gini = 0.0\nsamples = 3\nvalue = [0, 5, 0]"] ;
148 -> 149 ;
150 [label="X[1] <= 2.012\ngini = 0.5\nsamples = 2\nvalue = [1, 1, 0]"] ;
148 -> 150 ;
151 [label="gini = 0.0\nsamples = 1\nvalue = [1, 0, 0]"] ;
150 -> 151 ;
152 [label="gini = 0.0\nsamples = 1\nvalue = [0, 1, 0]"] ;
150 -> 152 ;
153 [label="X[3] <= -0.414\ngini = 0.135\nsamples = 43\nvalue = [2, 3, 65]"] ;
147 -> 153 ;
154 [label="X[1] <= 0.754\ngini = 0.063\nsamples = 38\nvalue = [2, 0, 59]"] ;
153 -> 154 ;
155 [label="gini = 0.0\nsamples = 30\nvalue = [0, 0, 49]"] ;
154 -> 155 ;
156 [label="X[3] <= -0.414\ngini = 0.278\nsamples = 8\nvalue = [2, 0, 10]"] ;
154 -> 156 ;
157 [label="gini = 0.0\nsamples = 7\nvalue = [0, 0, 10]"] ;
156 -> 157 ;
158 [label="gini = 0.0\nsamples = 1\nvalue = [2, 0, 0]"] ;
156 -> 158 ;
159 [label="X[7] <= -0.134\ngini = 0.444\nsamples = 5\nvalue = [0, 3, 6]"] ;
153 -> 159 ;
160 [label="gini = 0.0\nsamples = 2\nvalue = [0, 0, 4]"] ;
159 -> 160 ;
161 [label="X[3] <= -0.414\ngini = 0.48\nsamples = 3\nvalue = [0, 3, 2]"] ;
159 -> 161 ;
162 [label="gini = 0.0\nsamples = 2\nvalue = [0, 3, 0]"] ;
161 -> 162 ;
163 [label="gini = 0.0\nsamples = 1\nvalue = [0, 0, 2]"] ;
161 -> 163 ;
164 [label="X[3] <= -0.414\ngini = 0.532\nsamples = 19\nvalue = [14, 21, 2]"] ;
124 -> 164 ;
165 [label="X[2] <= 0.74\ngini = 0.55\nsamples = 12\nvalue = [14, 9, 2]"] ;
164 -> 165 ;
166 [label="X[1] <= 2.012\ngini = 0.46\nsamples = 9\nvalue = [14, 4, 2]"] ;
165 -> 166 ;
167 [label="X[6] <= 1.93\ngini = 0.219\nsamples = 7\nvalue = [14, 0, 2]"] ;
166 -> 167 ;
168 [label="gini = 0.0\nsamples = 6\nvalue = [14, 0, 0]"] ;
167 -> 168 ;
169 [label="gini = 0.0\nsamples = 1\nvalue = [0, 0, 2]"] ;
167 -> 169 ;
170 [label="gini = 0.0\nsamples = 2\nvalue = [0, 4, 0]"] ;
166 -> 170 ;
171 [label="gini = 0.0\nsamples = 3\nvalue = [0, 5, 0]"] ;
165 -> 171 ;
172 [label="gini = 0.0\nsamples = 7\nvalue = [0, 12, 0]"] ;
164 -> 172 ;
173 [label="X[5] <= -0.364\ngini = 0.503\nsamples = 81\nvalue = [14, 35, 92]"] ;
123 -> 173 ;
174 [label="X[6] <= -0.245\ngini = 0.607\nsamples = 32\nvalue = [9, 29, 20]"] ;
173 -> 174 ;
175 [label="X[6] <= -0.246\ngini = 0.382\nsamples = 14\nvalue = [3, 3, 20]"] ;
174 -> 175 ;
176 [label="X[1] <= -0.509\ngini = 0.236\nsamples = 11\nvalue = [0, 3, 19]"] ;
175 -> 176 ;
177 [label="X[5] <= -0.365\ngini = 0.375\nsamples = 6\nvalue = [0, 3, 9]"] ;
176 -> 177 ;
178 [label="gini = 0.0\nsamples = 1\nvalue = [0, 3, 0]"] ;
177 -> 178 ;
179 [label="gini = 0.0\nsamples = 5\nvalue = [0, 0, 9]"] ;
177 -> 179 ;
180 [label="gini = 0.0\nsamples = 5\nvalue = [0, 0, 10]"] ;
176 -> 180 ;
181 [label="X[1] <= -0.51\ngini = 0.375\nsamples = 3\nvalue = [3, 0, 1]"] ;
175 -> 181 ;
182 [label="gini = 0.0\nsamples = 1\nvalue = [2, 0, 0]"] ;
181 -> 182 ;
183 [label="X[5] <= -0.364\ngini = 0.5\nsamples = 2\nvalue = [1, 0, 1]"] ;
181 -> 183 ;
184 [label="gini = 0.0\nsamples = 1\nvalue = [0, 0, 1]"] ;
183 -> 184 ;
185 [label="gini = 0.0\nsamples = 1\nvalue = [1, 0, 0]"] ;
183 -> 185 ;
186 [label="X[4] <= -0.301\ngini = 0.305\nsamples = 18\nvalue = [6, 26, 0]"] ;
174 -> 186 ;
187 [label="X[2] <= -0.506\ngini = 0.444\nsamples = 5\nvalue = [4, 2, 0]"] ;
186 -> 187 ;
188 [label="X[7] <= -0.134\ngini = 0.444\nsamples = 3\nvalue = [1, 2, 0]"] ;
187 -> 188 ;
189 [label="gini = 0.0\nsamples = 1\nvalue = [1, 0, 0]"] ;
188 -> 189 ;
190 [label="gini = 0.0\nsamples = 2\nvalue = [0, 2, 0]"] ;
188 -> 190 ;
191 [label="gini = 0.0\nsamples = 2\nvalue = [3, 0, 0]"] ;
187 -> 191 ;
192 [label="X[5] <= -0.364\ngini = 0.142\nsamples = 13\nvalue = [2, 24, 0]"] ;
186 -> 192 ;
193 [label="gini = 0.0\nsamples = 9\nvalue = [0, 20, 0]"] ;
192 -> 193 ;
194 [label="X[4] <= -0.299\ngini = 0.444\nsamples = 4\nvalue = [2, 4, 0]"] ;
192 -> 194 ;
195 [label="X[7] <= -0.133\ngini = 0.444\nsamples = 2\nvalue = [2, 1, 0]"] ;
194 -> 195 ;
196 [label="gini = 0.0\nsamples = 1\nvalue = [2, 0, 0]"] ;
195 -> 196 ;
197 [label="gini = 0.0\nsamples = 1\nvalue = [0, 1, 0]"] ;
195 -> 197 ;
198 [label="gini = 0.0\nsamples = 2\nvalue = [0, 3, 0]"] ;
194 -> 198 ;
199 [label="X[7] <= -0.133\ngini = 0.239\nsamples = 49\nvalue = [5, 6, 72]"] ;
173 -> 199 ;
200 [label="X[4] <= -0.3\ngini = 0.628\nsamples = 6\nvalue = [2, 5, 4]"] ;
199 -> 200 ;
201 [label="X[0] <= -0.52\ngini = 0.48\nsamples = 2\nvalue = [2, 0, 3]"] ;
200 -> 201 ;
202 [label="gini = 0.0\nsamples = 1\nvalue = [2, 0, 0]"] ;
201 -> 202 ;
203 [label="gini = 0.0\nsamples = 1\nvalue = [0, 0, 3]"] ;
201 -> 203 ;
204 [label="X[2] <= -0.504\ngini = 0.278\nsamples = 4\nvalue = [0, 5, 1]"] ;
200 -> 204 ;
205 [label="gini = 0.0\nsamples = 3\nvalue = [0, 5, 0]"] ;
204 -> 205 ;
206 [label="gini = 0.0\nsamples = 1\nvalue = [0, 0, 1]"] ;
204 -> 206 ;
207 [label="X[7] <= -0.133\ngini = 0.106\nsamples = 43\nvalue = [3, 1, 68]"] ;
199 -> 207 ;
208 [label="X[7] <= -0.133\ngini = 0.397\nsamples = 6\nvalue = [3, 0, 8]"] ;
207 -> 208 ;
209 [label="gini = 0.0\nsamples = 3\nvalue = [0, 0, 7]"] ;
208 -> 209 ;
210 [label="X[0] <= -0.519\ngini = 0.375\nsamples = 3\nvalue = [3, 0, 1]"] ;
208 -> 210 ;
211 [label="gini = 0.0\nsamples = 1\nvalue = [0, 0, 1]"] ;
210 -> 211 ;
212 [label="gini = 0.0\nsamples = 2\nvalue = [3, 0, 0]"] ;
210 -> 212 ;
213 [label="X[3] <= -0.414\ngini = 0.032\nsamples = 37\nvalue = [0, 1, 60]"] ;
207 -> 213 ;
214 [label="gini = 0.0\nsamples = 31\nvalue = [0, 0, 54]"] ;
213 -> 214 ;
215 [label="X[7] <= -0.127\ngini = 0.245\nsamples = 6\nvalue = [0, 1, 6]"] ;
213 -> 215 ;
216 [label="gini = 0.0\nsamples = 5\nvalue = [0, 0, 6]"] ;
215 -> 216 ;
217 [label="gini = 0.0\nsamples = 1\nvalue = [0, 1, 0]"] ;
215 -> 217 ;
218 [label="X[7] <= -0.127\ngini = 0.527\nsamples = 1328\nvalue = [989, 1033, 59]"] ;
0 -> 218 [labeldistance=2.5, labelangle=-45, headlabel="False"] ;
219 [label="X[0] <= -0.519\ngini = 0.527\nsamples = 1195\nvalue = [931, 899, 53]"] ;
218 -> 219 ;
220 [label="X[2] <= -0.503\ngini = 0.166\nsamples = 201\nvalue = [305, 23, 7]"] ;
219 -> 220 ;
221 [label="X[0] <= -0.521\ngini = 0.13\nsamples = 186\nvalue = [293, 21, 1]"] ;
220 -> 221 ;
222 [label="X[4] <= -0.301\ngini = 0.078\nsamples = 157\nvalue = [259, 10, 1]"] ;
221 -> 222 ;
223 [label="gini = 0.0\nsamples = 1\nvalue = [0, 1, 0]"] ;
222 -> 223 ;
224 [label="X[7] <= -0.132\ngini = 0.072\nsamples = 156\nvalue = [259, 9, 1]"] ;
222 -> 224 ;
225 [label="X[2] <= -0.506\ngini = 0.035\nsamples = 128\nvalue = [221, 4, 0]"] ;
224 -> 225 ;
226 [label="gini = 0.0\nsamples = 70\nvalue = [128, 0, 0]"] ;
225 -> 226 ;
227 [label="X[6] <= -0.245\ngini = 0.079\nsamples = 58\nvalue = [93, 4, 0]"] ;
225 -> 227 ;
228 [label="gini = 0.0\nsamples = 26\nvalue = [45, 0, 0]"] ;
227 -> 228 ;
229 [label="X[4] <= 1.525\ngini = 0.142\nsamples = 32\nvalue = [48, 4, 0]"] ;
227 -> 229 ;
230 [label="X[7] <= -0.134\ngini = 0.077\nsamples = 31\nvalue = [48, 2, 0]"] ;
229 -> 230 ;
231 [label="X[5] <= -0.364\ngini = 0.408\nsamples = 4\nvalue = [5, 2, 0]"] ;
230 -> 231 ;
232 [label="gini = 0.0\nsamples = 3\nvalue = [5, 0, 0]"] ;
231 -> 232 ;
233 [label="gini = 0.0\nsamples = 1\nvalue = [0, 2, 0]"] ;
231 -> 233 ;
234 [label="gini = 0.0\nsamples = 27\nvalue = [43, 0, 0]"] ;
230 -> 234 ;
235 [label="gini = 0.0\nsamples = 1\nvalue = [0, 2, 0]"] ;
229 -> 235 ;
236 [label="X[2] <= -0.504\ngini = 0.241\nsamples = 28\nvalue = [38, 5, 1]"] ;
224 -> 236 ;
237 [label="X[1] <= -0.511\ngini = 0.206\nsamples = 27\nvalue = [38, 5, 0]"] ;
236 -> 237 ;
238 [label="X[3] <= -0.413\ngini = 0.444\nsamples = 6\nvalue = [6, 3, 0]"] ;
237 -> 238 ;
239 [label="gini = 0.0\nsamples = 1\nvalue = [0, 2, 0]"] ;
238 -> 239 ;
240 [label="X[2] <= -0.508\ngini = 0.245\nsamples = 5\nvalue = [6, 1, 0]"] ;
238 -> 240 ;
241 [label="X[0] <= -0.523\ngini = 0.5\nsamples = 2\nvalue = [1, 1, 0]"] ;
240 -> 241 ;
242 [label="gini = 0.0\nsamples = 1\nvalue = [1, 0, 0]"] ;
241 -> 242 ;
243 [label="gini = 0.0\nsamples = 1\nvalue = [0, 1, 0]"] ;
241 -> 243 ;
244 [label="gini = 0.0\nsamples = 3\nvalue = [5, 0, 0]"] ;
240 -> 244 ;
245 [label="X[7] <= -0.131\ngini = 0.111\nsamples = 21\nvalue = [32, 2, 0]"] ;
237 -> 245 ;
246 [label="gini = 0.0\nsamples = 15\nvalue = [23, 0, 0]"] ;
245 -> 246 ;
247 [label="X[2] <= -0.507\ngini = 0.298\nsamples = 6\nvalue = [9, 2, 0]"] ;
245 -> 247 ;
248 [label="gini = 0.0\nsamples = 1\nvalue = [0, 2, 0]"] ;
247 -> 248 ;
249 [label="gini = 0.0\nsamples = 5\nvalue = [9, 0, 0]"] ;
247 -> 249 ;
250 [label="gini = 0.0\nsamples = 1\nvalue = [0, 0, 1]"] ;
236 -> 250 ;
251 [label="X[7] <= -0.133\ngini = 0.369\nsamples = 29\nvalue = [34, 11, 0]"] ;
221 -> 251 ;
252 [label="X[1] <= -0.511\ngini = 0.133\nsamples = 18\nvalue = [26, 2, 0]"] ;
251 -> 252 ;
253 [label="gini = 0.0\nsamples = 1\nvalue = [0, 1, 0]"] ;
252 -> 253 ;
254 [label="X[1] <= -0.51\ngini = 0.071\nsamples = 17\nvalue = [26, 1, 0]"] ;
252 -> 254 ;
255 [label="X[2] <= -0.504\ngini = 0.444\nsamples = 3\nvalue = [2, 1, 0]"] ;
254 -> 255 ;
256 [label="gini = 0.0\nsamples = 2\nvalue = [2, 0, 0]"] ;
255 -> 256 ;
257 [label="gini = 0.0\nsamples = 1\nvalue = [0, 1, 0]"] ;
255 -> 257 ;
258 [label="gini = 0.0\nsamples = 14\nvalue = [24, 0, 0]"] ;
254 -> 258 ;
259 [label="X[4] <= -0.297\ngini = 0.498\nsamples = 11\nvalue = [8, 9, 0]"] ;
251 -> 259 ;
260 [label="X[2] <= -0.507\ngini = 0.49\nsamples = 9\nvalue = [8, 6, 0]"] ;
259 -> 260 ;
261 [label="gini = 0.0\nsamples = 3\nvalue = [5, 0, 0]"] ;
260 -> 261 ;
262 [label="X[1] <= -0.509\ngini = 0.444\nsamples = 6\nvalue = [3, 6, 0]"] ;
260 -> 262 ;
263 [label="gini = 0.0\nsamples = 2\nvalue = [2, 0, 0]"] ;
262 -> 263 ;
264 [label="X[1] <= 0.755\ngini = 0.245\nsamples = 4\nvalue = [1, 6, 0]"] ;
262 -> 264 ;
265 [label="gini = 0.0\nsamples = 3\nvalue = [0, 6, 0]"] ;
264 -> 265 ;
266 [label="gini = 0.0\nsamples = 1\nvalue = [1, 0, 0]"] ;
264 -> 266 ;
267 [label="gini = 0.0\nsamples = 2\nvalue = [0, 3, 0]"] ;
259 -> 267 ;
268 [label="X[0] <= -0.522\ngini = 0.54\nsamples = 15\nvalue = [12, 2, 6]"] ;
220 -> 268 ;
269 [label="X[2] <= 1.985\ngini = 0.165\nsamples = 8\nvalue = [10, 0, 1]"] ;
268 -> 269 ;
270 [label="gini = 0.0\nsamples = 4\nvalue = [7, 0, 0]"] ;
269 -> 270 ;
271 [label="X[5] <= -0.362\ngini = 0.375\nsamples = 4\nvalue = [3, 0, 1]"] ;
269 -> 271 ;
272 [label="gini = 0.0\nsamples = 3\nvalue = [3, 0, 0]"] ;
271 -> 272 ;
273 [label="gini = 0.0\nsamples = 1\nvalue = [0, 0, 1]"] ;
271 -> 273 ;
274 [label="X[2] <= 1.984\ngini = 0.593\nsamples = 7\nvalue = [2, 2, 5]"] ;
268 -> 274 ;
275 [label="X[6] <= -0.245\ngini = 0.408\nsamples = 5\nvalue = [0, 2, 5]"] ;
274 -> 275 ;
276 [label="gini = 0.0\nsamples = 3\nvalue = [0, 0, 5]"] ;
275 -> 276 ;
277 [label="gini = 0.0\nsamples = 2\nvalue = [0, 2, 0]"] ;
275 -> 277 ;
278 [label="gini = 0.0\nsamples = 2\nvalue = [2, 0, 0]"] ;
274 -> 278 ;
279 [label="X[0] <= -0.175\ngini = 0.515\nsamples = 994\nvalue = [626, 876, 46]"] ;
219 -> 279 ;
280 [label="X[0] <= -0.486\ngini = 0.491\nsamples = 874\nvalue = [500, 833, 30]"] ;
279 -> 280 ;
281 [label="X[6] <= -0.245\ngini = 0.535\nsamples = 293\nvalue = [212, 222, 17]"] ;
280 -> 281 ;
282 [label="X[2] <= -0.506\ngini = 0.566\nsamples = 82\nvalue = [38, 72, 16]"] ;
281 -> 282 ;
283 [label="X[6] <= -0.246\ngini = 0.424\nsamples = 60\nvalue = [26, 68, 2]"] ;
282 -> 283 ;
284 [label="X[2] <= -0.506\ngini = 0.245\nsamples = 5\nvalue = [6, 0, 1]"] ;
283 -> 284 ;
285 [label="gini = 0.0\nsamples = 4\nvalue = [6, 0, 0]"] ;
284 -> 285 ;
286 [label="gini = 0.0\nsamples = 1\nvalue = [0, 0, 1]"] ;
284 -> 286 ;
287 [label="X[0] <= -0.498\ngini = 0.366\nsamples = 55\nvalue = [20, 68, 1]"] ;
283 -> 287 ;
288 [label="X[4] <= -0.301\ngini = 0.294\nsamples = 44\nvalue = [12, 61, 1]"] ;
287 -> 288 ;
289 [label="X[3] <= -0.413\ngini = 0.121\nsamples = 15\nvalue = [2, 29, 0]"] ;
288 -> 289 ;
290 [label="gini = 0.0\nsamples = 1\nvalue = [1, 0, 0]"] ;
289 -> 290 ;
291 [label="X[4] <= -0.301\ngini = 0.064\nsamples = 14\nvalue = [1, 29, 0]"] ;
289 -> 291 ;
292 [label="X[0] <= -0.514\ngini = 0.18\nsamples = 6\nvalue = [1, 9, 0]"] ;
291 -> 292 ;
293 [label="gini = 0.0\nsamples = 4\nvalue = [0, 8, 0]"] ;
292 -> 293 ;
294 [label="X[7] <= -0.135\ngini = 0.5\nsamples = 2\nvalue = [1, 1, 0]"] ;
292 -> 294 ;
295 [label="gini = 0.0\nsamples = 1\nvalue = [0, 1, 0]"] ;
294 -> 295 ;
296 [label="gini = 0.0\nsamples = 1\nvalue = [1, 0, 0]"] ;
294 -> 296 ;
297 [label="gini = 0.0\nsamples = 8\nvalue = [0, 20, 0]"] ;
291 -> 297 ;
298 [label="X[5] <= -0.365\ngini = 0.392\nsamples = 29\nvalue = [10, 32, 1]"] ;
288 -> 298 ;
299 [label="X[2] <= -0.508\ngini = 0.545\nsamples = 13\nvalue = [9, 10, 1]"] ;
298 -> 299 ;
300 [label="gini = 0.0\nsamples = 2\nvalue = [0, 4, 0]"] ;
299 -> 300 ;
301 [label="X[6] <= -0.246\ngini = 0.539\nsamples = 11\nvalue = [9, 6, 1]"] ;
299 -> 301 ;
302 [label="X[3] <= -0.413\ngini = 0.245\nsamples = 6\nvalue = [6, 0, 1]"] ;
301 -> 302 ;
303 [label="gini = 0.0\nsamples = 1\nvalue = [0, 0, 1]"] ;
302 -> 303 ;
304 [label="gini = 0.0\nsamples = 5\nvalue = [6, 0, 0]"] ;
302 -> 304 ;
305 [label="X[3] <= -0.413\ngini = 0.444\nsamples = 5\nvalue = [3, 6, 0]"] ;
301 -> 305 ;
306 [label="gini = 0.0\nsamples = 2\nvalue = [3, 0, 0]"] ;
305 -> 306 ;
307 [label="gini = 0.0\nsamples = 3\nvalue = [0, 6, 0]"] ;
305 -> 307 ;
308 [label="X[4] <= -0.301\ngini = 0.083\nsamples = 16\nvalue = [1, 22, 0]"] ;
298 -> 308 ;
309 [label="gini = 0.0\nsamples = 1\nvalue = [1, 0, 0]"] ;
308 -> 309 ;
310 [label="gini = 0.0\nsamples = 15\nvalue = [0, 22, 0]"] ;
308 -> 310 ;
311 [label="X[3] <= -0.413\ngini = 0.498\nsamples = 11\nvalue = [8, 7, 0]"] ;
287 -> 311 ;
312 [label="gini = 0.0\nsamples = 2\nvalue = [0, 3, 0]"] ;
311 -> 312 ;
313 [label="X[5] <= -0.365\ngini = 0.444\nsamples = 9\nvalue = [8, 4, 0]"] ;
311 -> 313 ;
314 [label="X[7] <= -0.134\ngini = 0.219\nsamples = 6\nvalue = [7, 1, 0]"] ;
313 -> 314 ;
315 [label="gini = 0.0\nsamples = 5\nvalue = [7, 0, 0]"] ;
314 -> 315 ;
316 [label="gini = 0.0\nsamples = 1\nvalue = [0, 1, 0]"] ;
314 -> 316 ;
317 [label="X[3] <= -0.413\ngini = 0.375\nsamples = 3\nvalue = [1, 3, 0]"] ;
313 -> 317 ;
318 [label="gini = 0.0\nsamples = 1\nvalue = [1, 0, 0]"] ;
317 -> 318 ;
319 [label="gini = 0.0\nsamples = 2\nvalue = [0, 3, 0]"] ;
317 -> 319 ;
320 [label="X[5] <= -0.361\ngini = 0.604\nsamples = 22\nvalue = [12, 4, 14]"] ;
282 -> 320 ;
321 [label="X[6] <= -0.246\ngini = 0.605\nsamples = 17\nvalue = [12, 4, 7]"] ;
320 -> 321 ;
322 [label="X[2] <= 1.984\ngini = 0.5\nsamples = 10\nvalue = [7, 0, 7]"] ;
321 -> 322 ;
323 [label="X[6] <= -0.246\ngini = 0.346\nsamples = 5\nvalue = [7, 0, 2]"] ;
322 -> 323 ;
324 [label="gini = 0.0\nsamples = 3\nvalue = [7, 0, 0]"] ;
323 -> 324 ;
325 [label="gini = 0.0\nsamples = 2\nvalue = [0, 0, 2]"] ;
323 -> 325 ;
326 [label="gini = 0.0\nsamples = 5\nvalue = [0, 0, 5]"] ;
322 -> 326 ;
327 [label="X[0] <= -0.501\ngini = 0.494\nsamples = 7\nvalue = [5, 4, 0]"] ;
321 -> 327 ;
328 [label="gini = 0.0\nsamples = 4\nvalue = [5, 0, 0]"] ;
327 -> 328 ;
329 [label="gini = 0.0\nsamples = 3\nvalue = [0, 4, 0]"] ;
327 -> 329 ;
330 [label="gini = 0.0\nsamples = 5\nvalue = [0, 0, 7]"] ;
320 -> 330 ;
331 [label="X[0] <= -0.509\ngini = 0.5\nsamples = 211\nvalue = [174, 150, 1]"] ;
281 -> 331 ;
332 [label="X[0] <= -0.519\ngini = 0.448\nsamples = 79\nvalue = [76, 39, 0]"] ;
331 -> 332 ;
333 [label="gini = 0.0\nsamples = 1\nvalue = [0, 3, 0]"] ;
332 -> 333 ;
334 [label="X[6] <= -0.244\ngini = 0.436\nsamples = 78\nvalue = [76, 36, 0]"] ;
332 -> 334 ;
335 [label="X[6] <= -0.245\ngini = 0.308\nsamples = 27\nvalue = [34, 8, 0]"] ;
334 -> 335 ;
336 [label="X[1] <= -0.511\ngini = 0.48\nsamples = 5\nvalue = [6, 4, 0]"] ;
335 -> 336 ;
337 [label="gini = 0.0\nsamples = 1\nvalue = [0, 2, 0]"] ;
336 -> 337 ;
338 [label="X[1] <= 0.752\ngini = 0.375\nsamples = 4\nvalue = [6, 2, 0]"] ;
336 -> 338 ;
339 [label="X[2] <= -0.507\ngini = 0.245\nsamples = 3\nvalue = [6, 1, 0]"] ;
338 -> 339 ;
340 [label="gini = 0.0\nsamples = 1\nvalue = [4, 0, 0]"] ;
339 -> 340 ;
341 [label="X[7] <= -0.133\ngini = 0.444\nsamples = 2\nvalue = [2, 1, 0]"] ;
339 -> 341 ;
342 [label="gini = 0.0\nsamples = 1\nvalue = [0, 1, 0]"] ;
341 -> 342 ;
343 [label="gini = 0.0\nsamples = 1\nvalue = [2, 0, 0]"] ;
341 -> 343 ;
344 [label="gini = 0.0\nsamples = 1\nvalue = [0, 1, 0]"] ;
338 -> 344 ;
345 [label="X[4] <= -0.3\ngini = 0.219\nsamples = 22\nvalue = [28, 4, 0]"] ;
335 -> 345 ;
346 [label="X[0] <= -0.51\ngini = 0.469\nsamples = 6\nvalue = [5, 3, 0]"] ;
345 -> 346 ;
347 [label="X[3] <= -0.413\ngini = 0.408\nsamples = 5\nvalue = [5, 2, 0]"] ;
346 -> 347 ;
348 [label="gini = 0.0\nsamples = 1\nvalue = [0, 1, 0]"] ;
347 -> 348 ;
349 [label="X[1] <= -0.501\ngini = 0.278\nsamples = 4\nvalue = [5, 1, 0]"] ;
347 -> 349 ;
350 [label="gini = 0.0\nsamples = 3\nvalue = [5, 0, 0]"] ;
349 -> 350 ;
351 [label="gini = 0.0\nsamples = 1\nvalue = [0, 1, 0]"] ;
349 -> 351 ;
352 [label="gini = 0.0\nsamples = 1\nvalue = [0, 1, 0]"] ;
346 -> 352 ;
353 [label="X[1] <= -0.506\ngini = 0.08\nsamples = 16\nvalue = [23, 1, 0]"] ;
345 -> 353 ;
354 [label="X[1] <= -0.507\ngini = 0.278\nsamples = 4\nvalue = [5, 1, 0]"] ;
353 -> 354 ;
355 [label="gini = 0.0\nsamples = 3\nvalue = [5, 0, 0]"] ;
354 -> 355 ;
356 [label="gini = 0.0\nsamples = 1\nvalue = [0, 1, 0]"] ;
354 -> 356 ;
357 [label="gini = 0.0\nsamples = 12\nvalue = [18, 0, 0]"] ;
353 -> 357 ;
358 [label="X[6] <= -0.244\ngini = 0.48\nsamples = 51\nvalue = [42, 28, 0]"] ;
334 -> 358 ;
359 [label="gini = 0.0\nsamples = 4\nvalue = [0, 5, 0]"] ;
358 -> 359 ;
360 [label="X[0] <= -0.515\ngini = 0.457\nsamples = 47\nvalue = [42, 23, 0]"] ;
358 -> 360 ;
361 [label="X[4] <= 1.53\ngini = 0.5\nsamples = 22\nvalue = [13, 13, 0]"] ;
360 -> 361 ;
362 [label="X[4] <= -0.3\ngini = 0.472\nsamples = 18\nvalue = [8, 13, 0]"] ;
361 -> 362 ;
363 [label="gini = 0.0\nsamples = 3\nvalue = [3, 0, 0]"] ;
362 -> 363 ;
364 [label="X[7] <= -0.132\ngini = 0.401\nsamples = 15\nvalue = [5, 13, 0]"] ;
362 -> 364 ;
365 [label="X[7] <= -0.133\ngini = 0.496\nsamples = 10\nvalue = [5, 6, 0]"] ;
364 -> 365 ;
366 [label="X[4] <= -0.298\ngini = 0.32\nsamples = 4\nvalue = [1, 4, 0]"] ;
365 -> 366 ;
367 [label="gini = 0.0\nsamples = 2\nvalue = [0, 3, 0]"] ;
366 -> 367 ;
368 [label="X[2] <= 0.739\ngini = 0.5\nsamples = 2\nvalue = [1, 1, 0]"] ;
366 -> 368 ;
369 [label="gini = 0.0\nsamples = 1\nvalue = [0, 1, 0]"] ;
368 -> 369 ;
370 [label="gini = 0.0\nsamples = 1\nvalue = [1, 0, 0]"] ;
368 -> 370 ;
371 [label="X[1] <= -0.506\ngini = 0.444\nsamples = 6\nvalue = [4, 2, 0]"] ;
365 -> 371 ;
372 [label="gini = 0.0\nsamples = 3\nvalue = [3, 0, 0]"] ;
371 -> 372 ;
373 [label="X[5] <= -0.362\ngini = 0.444\nsamples = 3\nvalue = [1, 2, 0]"] ;
371 -> 373 ;
374 [label="gini = 0.0\nsamples = 2\nvalue = [0, 2, 0]"] ;
373 -> 374 ;
375 [label="gini = 0.0\nsamples = 1\nvalue = [1, 0, 0]"] ;
373 -> 375 ;
376 [label="gini = 0.0\nsamples = 5\nvalue = [0, 7, 0]"] ;
364 -> 376 ;
377 [label="gini = 0.0\nsamples = 4\nvalue = [5, 0, 0]"] ;
361 -> 377 ;
378 [label="X[2] <= -0.506\ngini = 0.381\nsamples = 25\nvalue = [29, 10, 0]"] ;
360 -> 378 ;
379 [label="X[5] <= -0.363\ngini = 0.498\nsamples = 13\nvalue = [9, 8, 0]"] ;
378 -> 379 ;
380 [label="gini = 0.0\nsamples = 3\nvalue = [4, 0, 0]"] ;
379 -> 380 ;
381 [label="X[5] <= -0.362\ngini = 0.473\nsamples = 10\nvalue = [5, 8, 0]"] ;
379 -> 381 ;
382 [label="gini = 0.0\nsamples = 2\nvalue = [0, 3, 0]"] ;
381 -> 382 ;
383 [label="X[1] <= 0.761\ngini = 0.5\nsamples = 8\nvalue = [5, 5, 0]"] ;
381 -> 383 ;
384 [label="X[5] <= -0.362\ngini = 0.444\nsamples = 5\nvalue = [2, 4, 0]"] ;
383 -> 384 ;
385 [label="gini = 0.0\nsamples = 1\nvalue = [1, 0, 0]"] ;
384 -> 385 ;
386 [label="X[3] <= -0.41\ngini = 0.32\nsamples = 4\nvalue = [1, 4, 0]"] ;
384 -> 386 ;
387 [label="gini = 0.0\nsamples = 1\nvalue = [1, 0, 0]"] ;
386 -> 387 ;
388 [label="gini = 0.0\nsamples = 3\nvalue = [0, 4, 0]"] ;
386 -> 388 ;
389 [label="X[6] <= -0.244\ngini = 0.375\nsamples = 3\nvalue = [3, 1, 0]"] ;
383 -> 389 ;
390 [label="gini = 0.0\nsamples = 2\nvalue = [3, 0, 0]"] ;
389 -> 390 ;
391 [label="gini = 0.0\nsamples = 1\nvalue = [0, 1, 0]"] ;
389 -> 391 ;
392 [label="X[7] <= -0.129\ngini = 0.165\nsamples = 12\nvalue = [20, 2, 0]"] ;
378 -> 392 ;
393 [label="X[6] <= -0.243\ngini = 0.1\nsamples = 10\nvalue = [18, 1, 0]"] ;
392 -> 393 ;
394 [label="X[0] <= -0.511\ngini = 0.278\nsamples = 4\nvalue = [5, 1, 0]"] ;
393 -> 394 ;
395 [label="X[4] <= -0.298\ngini = 0.5\nsamples = 2\nvalue = [1, 1, 0]"] ;
394 -> 395 ;
396 [label="gini = 0.0\nsamples = 1\nvalue = [0, 1, 0]"] ;
395 -> 396 ;
397 [label="gini = 0.0\nsamples = 1\nvalue = [1, 0, 0]"] ;
395 -> 397 ;
398 [label="gini = 0.0\nsamples = 2\nvalue = [4, 0, 0]"] ;
394 -> 398 ;
399 [label="gini = 0.0\nsamples = 6\nvalue = [13, 0, 0]"] ;
393 -> 399 ;
400 [label="X[6] <= 1.926\ngini = 0.444\nsamples = 2\nvalue = [2, 1, 0]"] ;
392 -> 400 ;
401 [label="gini = 0.0\nsamples = 1\nvalue = [2, 0, 0]"] ;
400 -> 401 ;
402 [label="gini = 0.0\nsamples = 1\nvalue = [0, 1, 0]"] ;
400 -> 402 ;
403 [label="X[3] <= 2.427\ngini = 0.503\nsamples = 132\nvalue = [98, 111, 1]"] ;
331 -> 403 ;
404 [label="X[6] <= -0.243\ngini = 0.491\nsamples = 108\nvalue = [72, 102, 1]"] ;
403 -> 404 ;
405 [label="X[7] <= -0.134\ngini = 0.453\nsamples = 74\nvalue = [42, 84, 1]"] ;
404 -> 405 ;
406 [label="X[6] <= -0.245\ngini = 0.413\nsamples = 13\nvalue = [17, 7, 0]"] ;
405 -> 406 ;
407 [label="gini = 0.0\nsamples = 5\nvalue = [11, 0, 0]"] ;
406 -> 407 ;
408 [label="X[3] <= -0.413\ngini = 0.497\nsamples = 8\nvalue = [6, 7, 0]"] ;
406 -> 408 ;
409 [label="gini = 0.0\nsamples = 2\nvalue = [3, 0, 0]"] ;
408 -> 409 ;
410 [label="X[3] <= -0.411\ngini = 0.42\nsamples = 6\nvalue = [3, 7, 0]"] ;
408 -> 410 ;
411 [label="X[0] <= -0.5\ngini = 0.346\nsamples = 5\nvalue = [2, 7, 0]"] ;
410 -> 411 ;
412 [label="gini = 0.0\nsamples = 3\nvalue = [0, 5, 0]"] ;
411 -> 412 ;
413 [label="X[2] <= -0.507\ngini = 0.5\nsamples = 2\nvalue = [2, 2, 0]"] ;
411 -> 413 ;
414 [label="gini = 0.0\nsamples = 1\nvalue = [0, 2, 0]"] ;
413 -> 414 ;
415 [label="gini = 0.0\nsamples = 1\nvalue = [2, 0, 0]"] ;
413 -> 415 ;
416 [label="gini = 0.0\nsamples = 1\nvalue = [1, 0, 0]"] ;
410 -> 416 ;
417 [label="X[4] <= -0.3\ngini = 0.382\nsamples = 61\nvalue = [25, 77, 1]"] ;
405 -> 417 ;
418 [label="X[2] <= -0.507\ngini = 0.5\nsamples = 24\nvalue = [19, 19, 0]"] ;
417 -> 418 ;
419 [label="gini = 0.0\nsamples = 3\nvalue = [0, 5, 0]"] ;
418 -> 419 ;
420 [label="X[1] <= 2.012\ngini = 0.489\nsamples = 21\nvalue = [19, 14, 0]"] ;
418 -> 420 ;
421 [label="X[4] <= -0.301\ngini = 0.499\nsamples = 18\nvalue = [15, 14, 0]"] ;
420 -> 421 ;
422 [label="X[7] <= -0.134\ngini = 0.18\nsamples = 7\nvalue = [1, 9, 0]"] ;
421 -> 422 ;
423 [label="gini = 0.0\nsamples = 4\nvalue = [0, 7, 0]"] ;
422 -> 423 ;
424 [label="X[4] <= -0.301\ngini = 0.444\nsamples = 3\nvalue = [1, 2, 0]"] ;
422 -> 424 ;
425 [label="gini = 0.0\nsamples = 2\nvalue = [0, 2, 0]"] ;
424 -> 425 ;
426 [label="gini = 0.0\nsamples = 1\nvalue = [1, 0, 0]"] ;
424 -> 426 ;
427 [label="X[4] <= -0.3\ngini = 0.388\nsamples = 11\nvalue = [14, 5, 0]"] ;
421 -> 427 ;
428 [label="X[2] <= -0.506\ngini = 0.165\nsamples = 7\nvalue = [10, 1, 0]"] ;
427 -> 428 ;
429 [label="gini = 0.0\nsamples = 4\nvalue = [7, 0, 0]"] ;
428 -> 429 ;
430 [label="X[2] <= -0.506\ngini = 0.375\nsamples = 3\nvalue = [3, 1, 0]"] ;
428 -> 430 ;
431 [label="gini = 0.0\nsamples = 1\nvalue = [0, 1, 0]"] ;
430 -> 431 ;
432 [label="gini = 0.0\nsamples = 2\nvalue = [3, 0, 0]"] ;
430 -> 432 ;
433 [label="X[6] <= -0.245\ngini = 0.5\nsamples = 4\nvalue = [4, 4, 0]"] ;
427 -> 433 ;
434 [label="gini = 0.0\nsamples = 1\nvalue = [4, 0, 0]"] ;
433 -> 434 ;
435 [label="gini = 0.0\nsamples = 3\nvalue = [0, 4, 0]"] ;
433 -> 435 ;
436 [label="gini = 0.0\nsamples = 3\nvalue = [4, 0, 0]"] ;
420 -> 436 ;
437 [label="X[2] <= -0.505\ngini = 0.195\nsamples = 37\nvalue = [6, 58, 1]"] ;
417 -> 437 ;
438 [label="X[7] <= -0.131\ngini = 0.054\nsamples = 21\nvalue = [1, 35, 0]"] ;
437 -> 438 ;
439 [label="gini = 0.0\nsamples = 18\nvalue = [0, 31, 0]"] ;
438 -> 439 ;
440 [label="X[4] <= -0.297\ngini = 0.32\nsamples = 3\nvalue = [1, 4, 0]"] ;
438 -> 440 ;
441 [label="gini = 0.0\nsamples = 2\nvalue = [0, 4, 0]"] ;
440 -> 441 ;
442 [label="gini = 0.0\nsamples = 1\nvalue = [1, 0, 0]"] ;
440 -> 442 ;
443 [label="X[1] <= 2.011\ngini = 0.34\nsamples = 16\nvalue = [5, 23, 1]"] ;
437 -> 443 ;
444 [label="X[7] <= -0.13\ngini = 0.169\nsamples = 12\nvalue = [1, 20, 1]"] ;
443 -> 444 ;
445 [label="gini = 0.0\nsamples = 10\nvalue = [0, 20, 0]"] ;
444 -> 445 ;
446 [label="X[6] <= -0.244\ngini = 0.5\nsamples = 2\nvalue = [1, 0, 1]"] ;
444 -> 446 ;
447 [label="gini = 0.0\nsamples = 1\nvalue = [0, 0, 1]"] ;
446 -> 447 ;
448 [label="gini = 0.0\nsamples = 1\nvalue = [1, 0, 0]"] ;
446 -> 448 ;
449 [label="X[1] <= 2.013\ngini = 0.49\nsamples = 4\nvalue = [4, 3, 0]"] ;
443 -> 449 ;
450 [label="gini = 0.0\nsamples = 3\nvalue = [4, 0, 0]"] ;
449 -> 450 ;
451 [label="gini = 0.0\nsamples = 1\nvalue = [0, 3, 0]"] ;
449 -> 451 ;
452 [label="X[7] <= -0.132\ngini = 0.469\nsamples = 34\nvalue = [30, 18, 0]"] ;
404 -> 452 ;
453 [label="X[2] <= -0.504\ngini = 0.5\nsamples = 21\nvalue = [16, 17, 0]"] ;
452 -> 453 ;
454 [label="X[0] <= -0.487\ngini = 0.388\nsamples = 11\nvalue = [5, 14, 0]"] ;
453 -> 454 ;
455 [label="X[2] <= -0.505\ngini = 0.291\nsamples = 10\nvalue = [3, 14, 0]"] ;
454 -> 455 ;
456 [label="X[4] <= -0.296\ngini = 0.444\nsamples = 5\nvalue = [3, 6, 0]"] ;
455 -> 456 ;
457 [label="X[2] <= -0.505\ngini = 0.48\nsamples = 3\nvalue = [3, 2, 0]"] ;
456 -> 457 ;
458 [label="X[7] <= -0.133\ngini = 0.444\nsamples = 2\nvalue = [1, 2, 0]"] ;
457 -> 458 ;
459 [label="gini = 0.0\nsamples = 1\nvalue = [0, 2, 0]"] ;
458 -> 459 ;
460 [label="gini = 0.0\nsamples = 1\nvalue = [1, 0, 0]"] ;
458 -> 460 ;
461 [label="gini = 0.0\nsamples = 1\nvalue = [2, 0, 0]"] ;
457 -> 461 ;
462 [label="gini = 0.0\nsamples = 2\nvalue = [0, 4, 0]"] ;
456 -> 462 ;
463 [label="gini = 0.0\nsamples = 5\nvalue = [0, 8, 0]"] ;
455 -> 463 ;
464 [label="gini = 0.0\nsamples = 1\nvalue = [2, 0, 0]"] ;
454 -> 464 ;
465 [label="X[4] <= -0.295\ngini = 0.337\nsamples = 10\nvalue = [11, 3, 0]"] ;
453 -> 465 ;
466 [label="X[1] <= -0.506\ngini = 0.165\nsamples = 7\nvalue = [10, 1, 0]"] ;
465 -> 466 ;
467 [label="X[0] <= -0.5\ngini = 0.444\nsamples = 2\nvalue = [2, 1, 0]"] ;
466 -> 467 ;
468 [label="gini = 0.0\nsamples = 1\nvalue = [0, 1, 0]"] ;
467 -> 468 ;
469 [label="gini = 0.0\nsamples = 1\nvalue = [2, 0, 0]"] ;
467 -> 469 ;
470 [label="gini = 0.0\nsamples = 5\nvalue = [8, 0, 0]"] ;
466 -> 470 ;
471 [label="X[1] <= -0.484\ngini = 0.444\nsamples = 3\nvalue = [1, 2, 0]"] ;
465 -> 471 ;
472 [label="gini = 0.0\nsamples = 2\nvalue = [0, 2, 0]"] ;
471 -> 472 ;
473 [label="gini = 0.0\nsamples = 1\nvalue = [1, 0, 0]"] ;
471 -> 473 ;
474 [label="X[1] <= -0.486\ngini = 0.124\nsamples = 13\nvalue = [14, 1, 0]"] ;
452 -> 474 ;
475 [label="gini = 0.0\nsamples = 9\nvalue = [11, 0, 0]"] ;
474 -> 475 ;
476 [label="X[5] <= -0.361\ngini = 0.375\nsamples = 4\nvalue = [3, 1, 0]"] ;
474 -> 476 ;
477 [label="gini = 0.0\nsamples = 1\nvalue = [0, 1, 0]"] ;
476 -> 477 ;
478 [label="gini = 0.0\nsamples = 3\nvalue = [3, 0, 0]"] ;
476 -> 478 ;
479 [label="X[7] <= -0.132\ngini = 0.382\nsamples = 24\nvalue = [26, 9, 0]"] ;
403 -> 479 ;
480 [label="X[0] <= -0.508\ngini = 0.219\nsamples = 17\nvalue = [21, 3, 0]"] ;
479 -> 480 ;
481 [label="gini = 0.0\nsamples = 1\nvalue = [0, 1, 0]"] ;
480 -> 481 ;
482 [label="X[4] <= -0.3\ngini = 0.159\nsamples = 16\nvalue = [21, 2, 0]"] ;
480 -> 482 ;
483 [label="gini = 0.0\nsamples = 1\nvalue = [0, 1, 0]"] ;
482 -> 483 ;
484 [label="X[2] <= -0.506\ngini = 0.087\nsamples = 15\nvalue = [21, 1, 0]"] ;
482 -> 484 ;
485 [label="X[3] <= 2.429\ngini = 0.219\nsamples = 6\nvalue = [7, 1, 0]"] ;
484 -> 485 ;
486 [label="gini = 0.0\nsamples = 4\nvalue = [6, 0, 0]"] ;
485 -> 486 ;
487 [label="X[2] <= -0.506\ngini = 0.5\nsamples = 2\nvalue = [1, 1, 0]"] ;
485 -> 487 ;
488 [label="gini = 0.0\nsamples = 1\nvalue = [1, 0, 0]"] ;
487 -> 488 ;
489 [label="gini = 0.0\nsamples = 1\nvalue = [0, 1, 0]"] ;
487 -> 489 ;
490 [label="gini = 0.0\nsamples = 9\nvalue = [14, 0, 0]"] ;
484 -> 490 ;
491 [label="X[1] <= -0.502\ngini = 0.496\nsamples = 7\nvalue = [5, 6, 0]"] ;
479 -> 491 ;
492 [label="X[0] <= -0.493\ngini = 0.278\nsamples = 3\nvalue = [1, 5, 0]"] ;
491 -> 492 ;
493 [label="gini = 0.0\nsamples = 2\nvalue = [0, 5, 0]"] ;
492 -> 493 ;
494 [label="gini = 0.0\nsamples = 1\nvalue = [1, 0, 0]"] ;
492 -> 494 ;
495 [label="X[2] <= -0.502\ngini = 0.32\nsamples = 4\nvalue = [4, 1, 0]"] ;
491 -> 495 ;
496 [label="gini = 0.0\nsamples = 2\nvalue = [3, 0, 0]"] ;
495 -> 496 ;
497 [label="X[2] <= 0.743\ngini = 0.5\nsamples = 2\nvalue = [1, 1, 0]"] ;
495 -> 497 ;
498 [label="gini = 0.0\nsamples = 1\nvalue = [0, 1, 0]"] ;
497 -> 498 ;
499 [label="gini = 0.0\nsamples = 1\nvalue = [1, 0, 0]"] ;
497 -> 499 ;
500 [label="X[7] <= -0.129\ngini = 0.451\nsamples = 581\nvalue = [288, 611, 13]"] ;
280 -> 500 ;
501 [label="X[6] <= -0.243\ngini = 0.421\nsamples = 515\nvalue = [237, 565, 3]"] ;
500 -> 501 ;
502 [label="X[4] <= -0.3\ngini = 0.385\nsamples = 291\nvalue = [114, 339, 3]"] ;
501 -> 502 ;
503 [label="X[1] <= -0.511\ngini = 0.265\nsamples = 107\nvalue = [27, 145, 0]"] ;
502 -> 503 ;
504 [label="gini = 0.0\nsamples = 1\nvalue = [1, 0, 0]"] ;
503 -> 504 ;
505 [label="X[3] <= -0.413\ngini = 0.258\nsamples = 106\nvalue = [26, 145, 0]"] ;
503 -> 505 ;
506 [label="X[2] <= -0.504\ngini = 0.483\nsamples = 15\nvalue = [9, 13, 0]"] ;
505 -> 506 ;
507 [label="X[0] <= -0.401\ngini = 0.455\nsamples = 13\nvalue = [7, 13, 0]"] ;
506 -> 507 ;
508 [label="X[1] <= -0.501\ngini = 0.32\nsamples = 10\nvalue = [3, 12, 0]"] ;
507 -> 508 ;
509 [label="X[7] <= -0.135\ngini = 0.444\nsamples = 3\nvalue = [2, 1, 0]"] ;
508 -> 509 ;
510 [label="gini = 0.0\nsamples = 1\nvalue = [0, 1, 0]"] ;
509 -> 510 ;
511 [label="gini = 0.0\nsamples = 2\nvalue = [2, 0, 0]"] ;
509 -> 511 ;
512 [label="X[5] <= -0.364\ngini = 0.153\nsamples = 7\nvalue = [1, 11, 0]"] ;
508 -> 512 ;
513 [label="X[1] <= 2.012\ngini = 0.32\nsamples = 3\nvalue = [1, 4, 0]"] ;
512 -> 513 ;
514 [label="gini = 0.0\nsamples = 1\nvalue = [1, 0, 0]"] ;
513 -> 514 ;
515 [label="gini = 0.0\nsamples = 2\nvalue = [0, 4, 0]"] ;
513 -> 515 ;
516 [label="gini = 0.0\nsamples = 4\nvalue = [0, 7, 0]"] ;
512 -> 516 ;
517 [label="X[7] <= -0.134\ngini = 0.32\nsamples = 3\nvalue = [4, 1, 0]"] ;
507 -> 517 ;
518 [label="gini = 0.0\nsamples = 1\nvalue = [3, 0, 0]"] ;
517 -> 518 ;
519 [label="X[6] <= -0.244\ngini = 0.5\nsamples = 2\nvalue = [1, 1, 0]"] ;
517 -> 519 ;
520 [label="gini = 0.0\nsamples = 1\nvalue = [0, 1, 0]"] ;
519 -> 520 ;
521 [label="gini = 0.0\nsamples = 1\nvalue = [1, 0, 0]"] ;
519 -> 521 ;
522 [label="gini = 0.0\nsamples = 2\nvalue = [2, 0, 0]"] ;
506 -> 522 ;
523 [label="X[4] <= -0.301\ngini = 0.202\nsamples = 91\nvalue = [17, 132, 0]"] ;
505 -> 523 ;
524 [label="X[6] <= -0.246\ngini = 0.5\nsamples = 8\nvalue = [6, 6, 0]"] ;
523 -> 524 ;
525 [label="gini = 0.0\nsamples = 3\nvalue = [5, 0, 0]"] ;
524 -> 525 ;
526 [label="X[0] <= -0.424\ngini = 0.245\nsamples = 5\nvalue = [1, 6, 0]"] ;
524 -> 526 ;
527 [label="gini = 0.0\nsamples = 4\nvalue = [0, 6, 0]"] ;
526 -> 527 ;
528 [label="gini = 0.0\nsamples = 1\nvalue = [1, 0, 0]"] ;
526 -> 528 ;
529 [label="X[3] <= 2.43\ngini = 0.148\nsamples = 83\nvalue = [11, 126, 0]"] ;
523 -> 529 ;
530 [label="X[7] <= -0.134\ngini = 0.136\nsamples = 82\nvalue = [10, 126, 0]"] ;
529 -> 530 ;
531 [label="X[3] <= -0.411\ngini = 0.043\nsamples = 30\nvalue = [1, 45, 0]"] ;
530 -> 531 ;
532 [label="gini = 0.0\nsamples = 26\nvalue = [0, 40, 0]"] ;
531 -> 532 ;
533 [label="X[4] <= -0.301\ngini = 0.278\nsamples = 4\nvalue = [1, 5, 0]"] ;
531 -> 533 ;
534 [label="X[5] <= -0.365\ngini = 0.5\nsamples = 2\nvalue = [1, 1, 0]"] ;
533 -> 534 ;
535 [label="gini = 0.0\nsamples = 1\nvalue = [1, 0, 0]"] ;
534 -> 535 ;
536 [label="gini = 0.0\nsamples = 1\nvalue = [0, 1, 0]"] ;
534 -> 536 ;
537 [label="gini = 0.0\nsamples = 2\nvalue = [0, 4, 0]"] ;
533 -> 537 ;
538 [label="X[4] <= -0.3\ngini = 0.18\nsamples = 52\nvalue = [9, 81, 0]"] ;
530 -> 538 ;
539 [label="X[2] <= -0.507\ngini = 0.245\nsamples = 37\nvalue = [9, 54, 0]"] ;
538 -> 539 ;
540 [label="gini = 0.0\nsamples = 13\nvalue = [0, 21, 0]"] ;
539 -> 540 ;
541 [label="X[4] <= -0.3\ngini = 0.337\nsamples = 24\nvalue = [9, 33, 0]"] ;
539 -> 541 ;
542 [label="X[7] <= -0.134\ngini = 0.26\nsamples = 21\nvalue = [6, 33, 0]"] ;
541 -> 542 ;
543 [label="X[0] <= -0.403\ngini = 0.5\nsamples = 2\nvalue = [2, 2, 0]"] ;
542 -> 543 ;
544 [label="gini = 0.0\nsamples = 1\nvalue = [2, 0, 0]"] ;
543 -> 544 ;
545 [label="gini = 0.0\nsamples = 1\nvalue = [0, 2, 0]"] ;
543 -> 545 ;
546 [label="X[1] <= -0.5\ngini = 0.202\nsamples = 19\nvalue = [4, 31, 0]"] ;
542 -> 546 ;
547 [label="gini = 0.0\nsamples = 10\nvalue = [0, 21, 0]"] ;
546 -> 547 ;
548 [label="X[6] <= -0.244\ngini = 0.408\nsamples = 9\nvalue = [4, 10, 0]"] ;
546 -> 548 ;
549 [label="gini = 0.0\nsamples = 1\nvalue = [2, 0, 0]"] ;
548 -> 549 ;
550 [label="X[3] <= -0.412\ngini = 0.278\nsamples = 8\nvalue = [2, 10, 0]"] ;
548 -> 550 ;
551 [label="gini = 0.0\nsamples = 3\nvalue = [0, 7, 0]"] ;
550 -> 551 ;
552 [label="X[4] <= -0.3\ngini = 0.48\nsamples = 5\nvalue = [2, 3, 0]"] ;
550 -> 552 ;
553 [label="X[0] <= -0.459\ngini = 0.444\nsamples = 3\nvalue = [2, 1, 0]"] ;
552 -> 553 ;
554 [label="gini = 0.0\nsamples = 1\nvalue = [0, 1, 0]"] ;
553 -> 554 ;
555 [label="gini = 0.0\nsamples = 2\nvalue = [2, 0, 0]"] ;
553 -> 555 ;
556 [label="gini = 0.0\nsamples = 2\nvalue = [0, 2, 0]"] ;
552 -> 556 ;
557 [label="gini = 0.0\nsamples = 3\nvalue = [3, 0, 0]"] ;
541 -> 557 ;
558 [label="gini = 0.0\nsamples = 15\nvalue = [0, 27, 0]"] ;
538 -> 558 ;
559 [label="gini = 0.0\nsamples = 1\nvalue = [1, 0, 0]"] ;
529 -> 559 ;
560 [label="X[0] <= -0.45\ngini = 0.439\nsamples = 184\nvalue = [87, 194, 3]"] ;
502 -> 560 ;
561 [label="X[2] <= 1.984\ngini = 0.499\nsamples = 56\nvalue = [42, 38, 0]"] ;
560 -> 561 ;
562 [label="X[2] <= -0.505\ngini = 0.485\nsamples = 50\nvalue = [41, 29, 0]"] ;
561 -> 562 ;
563 [label="X[7] <= -0.133\ngini = 0.495\nsamples = 35\nvalue = [22, 27, 0]"] ;
562 -> 563 ;
564 [label="X[3] <= -0.412\ngini = 0.476\nsamples = 14\nvalue = [14, 9, 0]"] ;
563 -> 564 ;
565 [label="X[2] <= -0.506\ngini = 0.245\nsamples = 5\nvalue = [1, 6, 0]"] ;
564 -> 565 ;
566 [label="gini = 0.0\nsamples = 4\nvalue = [0, 6, 0]"] ;
565 -> 566 ;
567 [label="gini = 0.0\nsamples = 1\nvalue = [1, 0, 0]"] ;
565 -> 567 ;
568 [label="X[5] <= -0.363\ngini = 0.305\nsamples = 9\nvalue = [13, 3, 0]"] ;
564 -> 568 ;
569 [label="X[6] <= -0.244\ngini = 0.48\nsamples = 4\nvalue = [2, 3, 0]"] ;
568 -> 569 ;
570 [label="gini = 0.0\nsamples = 2\nvalue = [0, 2, 0]"] ;
569 -> 570 ;
571 [label="X[1] <= 0.771\ngini = 0.444\nsamples = 2\nvalue = [2, 1, 0]"] ;
569 -> 571 ;
572 [label="gini = 0.0\nsamples = 1\nvalue = [2, 0, 0]"] ;
571 -> 572 ;
573 [label="gini = 0.0\nsamples = 1\nvalue = [0, 1, 0]"] ;
571 -> 573 ;
574 [label="gini = 0.0\nsamples = 5\nvalue = [11, 0, 0]"] ;
568 -> 574 ;
575 [label="X[1] <= 2.01\ngini = 0.426\nsamples = 21\nvalue = [8, 18, 0]"] ;
563 -> 575 ;
576 [label="X[7] <= -0.13\ngini = 0.308\nsamples = 16\nvalue = [4, 17, 0]"] ;
575 -> 576 ;
577 [label="X[5] <= -0.362\ngini = 0.188\nsamples = 14\nvalue = [2, 17, 0]"] ;
576 -> 577 ;
578 [label="X[6] <= -0.245\ngini = 0.32\nsamples = 9\nvalue = [2, 8, 0]"] ;
577 -> 578 ;
579 [label="gini = 0.0\nsamples = 1\nvalue = [1, 0, 0]"] ;
578 -> 579 ;
580 [label="X[3] <= -0.413\ngini = 0.198\nsamples = 8\nvalue = [1, 8, 0]"] ;
578 -> 580 ;
581 [label="X[0] <= -0.467\ngini = 0.5\nsamples = 2\nvalue = [1, 1, 0]"] ;
580 -> 581 ;
582 [label="gini = 0.0\nsamples = 1\nvalue = [1, 0, 0]"] ;
581 -> 582 ;
583 [label="gini = 0.0\nsamples = 1\nvalue = [0, 1, 0]"] ;
581 -> 583 ;
584 [label="gini = 0.0\nsamples = 6\nvalue = [0, 7, 0]"] ;
580 -> 584 ;
585 [label="gini = 0.0\nsamples = 5\nvalue = [0, 9, 0]"] ;
577 -> 585 ;
586 [label="gini = 0.0\nsamples = 2\nvalue = [2, 0, 0]"] ;
576 -> 586 ;
587 [label="X[7] <= -0.132\ngini = 0.32\nsamples = 5\nvalue = [4, 1, 0]"] ;
575 -> 587 ;
588 [label="gini = 0.0\nsamples = 3\nvalue = [3, 0, 0]"] ;
587 -> 588 ;
589 [label="X[7] <= -0.132\ngini = 0.5\nsamples = 2\nvalue = [1, 1, 0]"] ;
587 -> 589 ;
590 [label="gini = 0.0\nsamples = 1\nvalue = [0, 1, 0]"] ;
589 -> 590 ;
591 [label="gini = 0.0\nsamples = 1\nvalue = [1, 0, 0]"] ;
589 -> 591 ;
592 [label="X[7] <= -0.132\ngini = 0.172\nsamples = 15\nvalue = [19, 2, 0]"] ;
562 -> 592 ;
593 [label="gini = 0.0\nsamples = 9\nvalue = [14, 0, 0]"] ;
592 -> 593 ;
594 [label="X[7] <= -0.131\ngini = 0.408\nsamples = 6\nvalue = [5, 2, 0]"] ;
592 -> 594 ;
595 [label="gini = 0.0\nsamples = 2\nvalue = [0, 2, 0]"] ;
594 -> 595 ;
596 [label="gini = 0.0\nsamples = 4\nvalue = [5, 0, 0]"] ;
594 -> 596 ;
597 [label="X[5] <= -0.364\ngini = 0.18\nsamples = 6\nvalue = [1, 9, 0]"] ;
561 -> 597 ;
598 [label="gini = 0.0\nsamples = 1\nvalue = [1, 0, 0]"] ;
597 -> 598 ;
599 [label="gini = 0.0\nsamples = 5\nvalue = [0, 9, 0]"] ;
597 -> 599 ;
600 [label="X[5] <= 2.757\ngini = 0.366\nsamples = 128\nvalue = [45, 156, 3]"] ;
560 -> 600 ;
601 [label="X[4] <= -0.3\ngini = 0.342\nsamples = 121\nvalue = [38, 151, 3]"] ;
600 -> 601 ;
602 [label="gini = 0.0\nsamples = 2\nvalue = [3, 0, 0]"] ;
601 -> 602 ;
603 [label="X[1] <= -0.483\ngini = 0.327\nsamples = 119\nvalue = [35, 151, 3]"] ;
601 -> 603 ;
604 [label="X[5] <= -0.362\ngini = 0.42\nsamples = 70\nvalue = [29, 81, 3]"] ;
603 -> 604 ;
605 [label="X[1] <= -0.508\ngini = 0.539\nsamples = 40\nvalue = [23, 31, 3]"] ;
604 -> 605 ;
606 [label="X[0] <= -0.446\ngini = 0.397\nsamples = 7\nvalue = [0, 8, 3]"] ;
605 -> 606 ;
607 [label="gini = 0.0\nsamples = 1\nvalue = [0, 0, 2]"] ;
606 -> 607 ;
608 [label="X[4] <= -0.296\ngini = 0.198\nsamples = 6\nvalue = [0, 8, 1]"] ;
606 -> 608 ;
609 [label="gini = 0.0\nsamples = 5\nvalue = [0, 8, 0]"] ;
608 -> 609 ;
610 [label="gini = 0.0\nsamples = 1\nvalue = [0, 0, 1]"] ;
608 -> 610 ;
611 [label="X[1] <= -0.503\ngini = 0.5\nsamples = 33\nvalue = [23, 23, 0]"] ;
605 -> 611 ;
612 [label="X[4] <= -0.297\ngini = 0.32\nsamples = 8\nvalue = [8, 2, 0]"] ;
611 -> 612 ;
613 [label="gini = 0.0\nsamples = 5\nvalue = [7, 0, 0]"] ;
612 -> 613 ;
614 [label="X[3] <= -0.413\ngini = 0.444\nsamples = 3\nvalue = [1, 2, 0]"] ;
612 -> 614 ;
615 [label="gini = 0.0\nsamples = 1\nvalue = [0, 1, 0]"] ;
614 -> 615 ;
616 [label="X[6] <= -0.244\ngini = 0.5\nsamples = 2\nvalue = [1, 1, 0]"] ;
614 -> 616 ;
617 [label="gini = 0.0\nsamples = 1\nvalue = [1, 0, 0]"] ;
616 -> 617 ;
618 [label="gini = 0.0\nsamples = 1\nvalue = [0, 1, 0]"] ;
616 -> 618 ;
619 [label="X[3] <= -0.411\ngini = 0.486\nsamples = 25\nvalue = [15, 21, 0]"] ;
611 -> 619 ;
620 [label="X[7] <= -0.132\ngini = 0.375\nsamples = 7\nvalue = [9, 3, 0]"] ;
619 -> 620 ;
621 [label="X[3] <= -0.412\ngini = 0.5\nsamples = 4\nvalue = [3, 3, 0]"] ;
620 -> 621 ;
622 [label="X[2] <= 0.74\ngini = 0.375\nsamples = 2\nvalue = [3, 1, 0]"] ;
621 -> 622 ;
623 [label="gini = 0.0\nsamples = 1\nvalue = [0, 1, 0]"] ;
622 -> 623 ;
624 [label="gini = 0.0\nsamples = 1\nvalue = [3, 0, 0]"] ;
622 -> 624 ;
625 [label="gini = 0.0\nsamples = 2\nvalue = [0, 2, 0]"] ;
621 -> 625 ;
626 [label="gini = 0.0\nsamples = 3\nvalue = [6, 0, 0]"] ;
620 -> 626 ;
627 [label="X[5] <= -0.362\ngini = 0.375\nsamples = 18\nvalue = [6, 18, 0]"] ;
619 -> 627 ;
628 [label="X[1] <= -0.489\ngini = 0.245\nsamples = 16\nvalue = [3, 18, 0]"] ;
627 -> 628 ;
629 [label="X[1] <= -0.499\ngini = 0.18\nsamples = 15\nvalue = [2, 18, 0]"] ;
628 -> 629 ;
630 [label="X[1] <= -0.501\ngini = 0.408\nsamples = 6\nvalue = [2, 5, 0]"] ;
629 -> 630 ;
631 [label="gini = 0.0\nsamples = 3\nvalue = [0, 4, 0]"] ;
630 -> 631 ;
632 [label="X[5] <= -0.364\ngini = 0.444\nsamples = 3\nvalue = [2, 1, 0]"] ;
630 -> 632 ;
633 [label="gini = 0.0\nsamples = 1\nvalue = [1, 0, 0]"] ;
632 -> 633 ;
634 [label="X[5] <= -0.363\ngini = 0.5\nsamples = 2\nvalue = [1, 1, 0]"] ;
632 -> 634 ;
635 [label="gini = 0.0\nsamples = 1\nvalue = [0, 1, 0]"] ;
634 -> 635 ;
636 [label="gini = 0.0\nsamples = 1\nvalue = [1, 0, 0]"] ;
634 -> 636 ;
637 [label="gini = 0.0\nsamples = 9\nvalue = [0, 13, 0]"] ;
629 -> 637 ;
638 [label="gini = 0.0\nsamples = 1\nvalue = [1, 0, 0]"] ;
628 -> 638 ;
639 [label="gini = 0.0\nsamples = 2\nvalue = [3, 0, 0]"] ;
627 -> 639 ;
640 [label="X[4] <= -0.298\ngini = 0.191\nsamples = 30\nvalue = [6, 50, 0]"] ;
604 -> 640 ;
641 [label="X[1] <= -0.5\ngini = 0.408\nsamples = 11\nvalue = [4, 10, 0]"] ;
640 -> 641 ;
642 [label="X[2] <= -0.506\ngini = 0.48\nsamples = 5\nvalue = [3, 2, 0]"] ;
641 -> 642 ;
643 [label="gini = 0.0\nsamples = 1\nvalue = [0, 1, 0]"] ;
642 -> 643 ;
644 [label="X[0] <= -0.372\ngini = 0.375\nsamples = 4\nvalue = [3, 1, 0]"] ;
642 -> 644 ;
645 [label="gini = 0.0\nsamples = 3\nvalue = [3, 0, 0]"] ;
644 -> 645 ;
646 [label="gini = 0.0\nsamples = 1\nvalue = [0, 1, 0]"] ;
644 -> 646 ;
647 [label="X[5] <= -0.36\ngini = 0.198\nsamples = 6\nvalue = [1, 8, 0]"] ;
641 -> 647 ;
648 [label="gini = 0.0\nsamples = 5\nvalue = [0, 8, 0]"] ;
647 -> 648 ;
649 [label="gini = 0.0\nsamples = 1\nvalue = [1, 0, 0]"] ;
647 -> 649 ;
650 [label="X[2] <= -0.504\ngini = 0.091\nsamples = 19\nvalue = [2, 40, 0]"] ;
640 -> 650 ;
651 [label="gini = 0.0\nsamples = 11\nvalue = [0, 24, 0]"] ;
650 -> 651 ;
652 [label="X[3] <= -0.41\ngini = 0.198\nsamples = 8\nvalue = [2, 16, 0]"] ;
650 -> 652 ;
653 [label="X[6] <= -0.243\ngini = 0.444\nsamples = 3\nvalue = [2, 4, 0]"] ;
652 -> 653 ;
654 [label="gini = 0.0\nsamples = 2\nvalue = [0, 4, 0]"] ;
653 -> 654 ;
655 [label="gini = 0.0\nsamples = 1\nvalue = [2, 0, 0]"] ;
653 -> 655 ;
656 [label="gini = 0.0\nsamples = 5\nvalue = [0, 12, 0]"] ;
652 -> 656 ;
657 [label="X[1] <= 2.013\ngini = 0.145\nsamples = 49\nvalue = [6, 70, 0]"] ;
603 -> 657 ;
658 [label="X[4] <= -0.299\ngini = 0.089\nsamples = 43\nvalue = [3, 61, 0]"] ;
657 -> 658 ;
659 [label="X[3] <= -0.41\ngini = 0.375\nsamples = 3\nvalue = [1, 3, 0]"] ;
658 -> 659 ;
660 [label="gini = 0.0\nsamples = 1\nvalue = [1, 0, 0]"] ;
659 -> 660 ;
661 [label="gini = 0.0\nsamples = 2\nvalue = [0, 3, 0]"] ;
659 -> 661 ;
662 [label="X[6] <= -0.244\ngini = 0.064\nsamples = 40\nvalue = [2, 58, 0]"] ;
658 -> 662 ;
663 [label="gini = 0.0\nsamples = 19\nvalue = [0, 28, 0]"] ;
662 -> 663 ;
664 [label="X[5] <= -0.362\ngini = 0.117\nsamples = 21\nvalue = [2, 30, 0]"] ;
662 -> 664 ;
665 [label="X[1] <= -0.47\ngini = 0.188\nsamples = 12\nvalue = [2, 17, 0]"] ;
664 -> 665 ;
666 [label="X[2] <= 0.74\ngini = 0.444\nsamples = 5\nvalue = [2, 4, 0]"] ;
665 -> 666 ;
667 [label="X[3] <= -0.412\ngini = 0.444\nsamples = 3\nvalue = [2, 1, 0]"] ;
666 -> 667 ;
668 [label="gini = 0.0\nsamples = 1\nvalue = [0, 1, 0]"] ;
667 -> 668 ;
669 [label="gini = 0.0\nsamples = 2\nvalue = [2, 0, 0]"] ;
667 -> 669 ;
670 [label="gini = 0.0\nsamples = 2\nvalue = [0, 3, 0]"] ;
666 -> 670 ;
671 [label="gini = 0.0\nsamples = 7\nvalue = [0, 13, 0]"] ;
665 -> 671 ;
672 [label="gini = 0.0\nsamples = 9\nvalue = [0, 13, 0]"] ;
664 -> 672 ;
673 [label="X[1] <= 2.014\ngini = 0.375\nsamples = 6\nvalue = [3, 9, 0]"] ;
657 -> 673 ;
674 [label="gini = 0.0\nsamples = 1\nvalue = [3, 0, 0]"] ;
673 -> 674 ;
675 [label="gini = 0.0\nsamples = 5\nvalue = [0, 9, 0]"] ;
673 -> 675 ;
676 [label="X[5] <= 2.758\ngini = 0.486\nsamples = 7\nvalue = [7, 5, 0]"] ;
600 -> 676 ;
677 [label="gini = 0.0\nsamples = 3\nvalue = [6, 0, 0]"] ;
676 -> 677 ;
678 [label="X[1] <= -0.455\ngini = 0.278\nsamples = 4\nvalue = [1, 5, 0]"] ;
676 -> 678 ;
679 [label="gini = 0.0\nsamples = 3\nvalue = [0, 5, 0]"] ;
678 -> 679 ;
680 [label="gini = 0.0\nsamples = 1\nvalue = [1, 0, 0]"] ;
678 -> 680 ;
681 [label="X[4] <= -0.296\ngini = 0.456\nsamples = 224\nvalue = [123, 226, 0]"] ;
501 -> 681 ;
682 [label="X[1] <= 2.014\ngini = 0.488\nsamples = 139\nvalue = [92, 125, 0]"] ;
681 -> 682 ;
683 [label="X[4] <= -0.297\ngini = 0.484\nsamples = 136\nvalue = [87, 125, 0]"] ;
682 -> 683 ;
684 [label="X[7] <= -0.134\ngini = 0.468\nsamples = 125\nvalue = [74, 124, 0]"] ;
683 -> 684 ;
685 [label="X[0] <= -0.299\ngini = 0.455\nsamples = 12\nvalue = [13, 7, 0]"] ;
684 -> 685 ;
686 [label="X[7] <= -0.134\ngini = 0.36\nsamples = 10\nvalue = [13, 4, 0]"] ;
685 -> 686 ;
687 [label="gini = 0.0\nsamples = 2\nvalue = [0, 3, 0]"] ;
686 -> 687 ;
688 [label="X[4] <= -0.301\ngini = 0.133\nsamples = 8\nvalue = [13, 1, 0]"] ;
686 -> 688 ;
689 [label="gini = 0.0\nsamples = 1\nvalue = [0, 1, 0]"] ;
688 -> 689 ;
690 [label="gini = 0.0\nsamples = 7\nvalue = [13, 0, 0]"] ;
688 -> 690 ;
691 [label="gini = 0.0\nsamples = 2\nvalue = [0, 3, 0]"] ;
685 -> 691 ;
692 [label="X[6] <= -0.243\ngini = 0.451\nsamples = 113\nvalue = [61, 117, 0]"] ;
684 -> 692 ;
693 [label="gini = 0.0\nsamples = 2\nvalue = [4, 0, 0]"] ;
692 -> 693 ;
694 [label="X[6] <= -0.242\ngini = 0.441\nsamples = 111\nvalue = [57, 117, 0]"] ;
692 -> 694 ;
695 [label="gini = 0.0\nsamples = 6\nvalue = [0, 10, 0]"] ;
694 -> 695 ;
696 [label="X[0] <= -0.255\ngini = 0.454\nsamples = 105\nvalue = [57, 107, 0]"] ;
694 -> 696 ;
697 [label="X[0] <= -0.478\ngini = 0.473\nsamples = 90\nvalue = [55, 88, 0]"] ;
696 -> 697 ;
698 [label="X[3] <= -0.411\ngini = 0.133\nsamples = 8\nvalue = [1, 13, 0]"] ;
697 -> 698 ;
699 [label="gini = 0.0\nsamples = 4\nvalue = [0, 9, 0]"] ;
698 -> 699 ;
700 [label="X[4] <= -0.298\ngini = 0.32\nsamples = 4\nvalue = [1, 4, 0]"] ;
698 -> 700 ;
701 [label="X[2] <= -0.499\ngini = 0.5\nsamples = 2\nvalue = [1, 1, 0]"] ;
700 -> 701 ;
702 [label="gini = 0.0\nsamples = 1\nvalue = [1, 0, 0]"] ;
701 -> 702 ;
703 [label="gini = 0.0\nsamples = 1\nvalue = [0, 1, 0]"] ;
701 -> 703 ;
704 [label="gini = 0.0\nsamples = 2\nvalue = [0, 3, 0]"] ;
700 -> 704 ;
705 [label="X[6] <= -0.242\ngini = 0.487\nsamples = 82\nvalue = [54, 75, 0]"] ;
697 -> 705 ;
706 [label="X[1] <= -0.474\ngini = 0.476\nsamples = 25\nvalue = [25, 16, 0]"] ;
705 -> 706 ;
707 [label="X[3] <= 2.429\ngini = 0.438\nsamples = 20\nvalue = [23, 11, 0]"] ;
706 -> 707 ;
708 [label="X[5] <= -0.363\ngini = 0.404\nsamples = 19\nvalue = [23, 9, 0]"] ;
707 -> 708 ;
709 [label="X[1] <= -0.487\ngini = 0.444\nsamples = 5\nvalue = [3, 6, 0]"] ;
708 -> 709 ;
710 [label="gini = 0.0\nsamples = 3\nvalue = [0, 6, 0]"] ;
709 -> 710 ;
711 [label="gini = 0.0\nsamples = 2\nvalue = [3, 0, 0]"] ;
709 -> 711 ;
712 [label="X[3] <= -0.411\ngini = 0.227\nsamples = 14\nvalue = [20, 3, 0]"] ;
708 -> 712 ;
713 [label="gini = 0.0\nsamples = 4\nvalue = [9, 0, 0]"] ;
712 -> 713 ;
714 [label="X[1] <= -0.507\ngini = 0.337\nsamples = 10\nvalue = [11, 3, 0]"] ;
712 -> 714 ;
715 [label="gini = 0.0\nsamples = 1\nvalue = [0, 2, 0]"] ;
714 -> 715 ;
716 [label="X[7] <= -0.129\ngini = 0.153\nsamples = 9\nvalue = [11, 1, 0]"] ;
714 -> 716 ;
717 [label="gini = 0.0\nsamples = 8\nvalue = [11, 0, 0]"] ;
716 -> 717 ;
718 [label="gini = 0.0\nsamples = 1\nvalue = [0, 1, 0]"] ;
716 -> 718 ;
719 [label="gini = 0.0\nsamples = 1\nvalue = [0, 2, 0]"] ;
707 -> 719 ;
720 [label="X[7] <= -0.132\ngini = 0.408\nsamples = 5\nvalue = [2, 5, 0]"] ;
706 -> 720 ;
721 [label="gini = 0.0\nsamples = 2\nvalue = [0, 4, 0]"] ;
720 -> 721 ;
722 [label="X[3] <= -0.411\ngini = 0.444\nsamples = 3\nvalue = [2, 1, 0]"] ;
720 -> 722 ;
723 [label="gini = 0.0\nsamples = 1\nvalue = [0, 1, 0]"] ;
722 -> 723 ;
724 [label="gini = 0.0\nsamples = 2\nvalue = [2, 0, 0]"] ;
722 -> 724 ;
725 [label="X[7] <= -0.132\ngini = 0.442\nsamples = 57\nvalue = [29, 59, 0]"] ;
705 -> 725 ;
726 [label="X[1] <= -0.501\ngini = 0.185\nsamples = 20\nvalue = [3, 26, 0]"] ;
725 -> 726 ;
727 [label="X[4] <= -0.299\ngini = 0.5\nsamples = 2\nvalue = [1, 1, 0]"] ;
726 -> 727 ;
728 [label="gini = 0.0\nsamples = 1\nvalue = [1, 0, 0]"] ;
727 -> 728 ;
729 [label="gini = 0.0\nsamples = 1\nvalue = [0, 1, 0]"] ;
727 -> 729 ;
730 [label="X[5] <= -0.364\ngini = 0.137\nsamples = 18\nvalue = [2, 25, 0]"] ;
726 -> 730 ;
731 [label="gini = 0.0\nsamples = 1\nvalue = [1, 0, 0]"] ;
730 -> 731 ;
732 [label="X[0] <= -0.45\ngini = 0.074\nsamples = 17\nvalue = [1, 25, 0]"] ;
730 -> 732 ;
733 [label="X[3] <= 1.008\ngini = 0.5\nsamples = 2\nvalue = [1, 1, 0]"] ;
732 -> 733 ;
734 [label="gini = 0.0\nsamples = 1\nvalue = [0, 1, 0]"] ;
733 -> 734 ;
735 [label="gini = 0.0\nsamples = 1\nvalue = [1, 0, 0]"] ;
733 -> 735 ;
736 [label="gini = 0.0\nsamples = 15\nvalue = [0, 24, 0]"] ;
732 -> 736 ;
737 [label="X[7] <= -0.132\ngini = 0.493\nsamples = 37\nvalue = [26, 33, 0]"] ;
725 -> 737 ;
738 [label="X[0] <= -0.461\ngini = 0.165\nsamples = 7\nvalue = [10, 1, 0]"] ;
737 -> 738 ;
739 [label="gini = 0.0\nsamples = 1\nvalue = [0, 1, 0]"] ;
738 -> 739 ;
740 [label="gini = 0.0\nsamples = 6\nvalue = [10, 0, 0]"] ;
738 -> 740 ;
741 [label="X[6] <= 4.095\ngini = 0.444\nsamples = 30\nvalue = [16, 32, 0]"] ;
737 -> 741 ;
742 [label="X[4] <= -0.3\ngini = 0.36\nsamples = 23\nvalue = [8, 26, 0]"] ;
741 -> 742 ;
743 [label="gini = 0.0\nsamples = 3\nvalue = [3, 0, 0]"] ;
742 -> 743 ;
744 [label="X[5] <= -0.363\ngini = 0.271\nsamples = 20\nvalue = [5, 26, 0]"] ;
742 -> 744 ;
745 [label="X[4] <= -0.299\ngini = 0.444\nsamples = 2\nvalue = [2, 1, 0]"] ;
744 -> 745 ;
746 [label="gini = 0.0\nsamples = 1\nvalue = [0, 1, 0]"] ;
745 -> 746 ;
747 [label="gini = 0.0\nsamples = 1\nvalue = [2, 0, 0]"] ;
745 -> 747 ;
748 [label="X[6] <= -0.241\ngini = 0.191\nsamples = 18\nvalue = [3, 25, 0]"] ;
744 -> 748 ;
749 [label="gini = 0.0\nsamples = 1\nvalue = [1, 0, 0]"] ;
748 -> 749 ;
750 [label="X[4] <= -0.297\ngini = 0.137\nsamples = 17\nvalue = [2, 25, 0]"] ;
748 -> 750 ;
751 [label="X[3] <= -0.412\ngini = 0.077\nsamples = 15\nvalue = [1, 24, 0]"] ;
750 -> 751 ;
752 [label="X[6] <= -0.24\ngini = 0.5\nsamples = 2\nvalue = [1, 1, 0]"] ;
751 -> 752 ;
753 [label="gini = 0.0\nsamples = 1\nvalue = [1, 0, 0]"] ;
752 -> 753 ;
754 [label="gini = 0.0\nsamples = 1\nvalue = [0, 1, 0]"] ;
752 -> 754 ;
755 [label="gini = 0.0\nsamples = 13\nvalue = [0, 23, 0]"] ;
751 -> 755 ;
756 [label="X[7] <= -0.13\ngini = 0.5\nsamples = 2\nvalue = [1, 1, 0]"] ;
750 -> 756 ;
757 [label="gini = 0.0\nsamples = 1\nvalue = [1, 0, 0]"] ;
756 -> 757 ;
758 [label="gini = 0.0\nsamples = 1\nvalue = [0, 1, 0]"] ;
756 -> 758 ;
759 [label="X[0] <= -0.391\ngini = 0.49\nsamples = 7\nvalue = [8, 6, 0]"] ;
741 -> 759 ;
760 [label="gini = 0.0\nsamples = 4\nvalue = [6, 0, 0]"] ;
759 -> 760 ;
761 [label="X[1] <= -0.485\ngini = 0.375\nsamples = 3\nvalue = [2, 6, 0]"] ;
759 -> 761 ;
762 [label="X[6] <= 4.098\ngini = 0.444\nsamples = 2\nvalue = [2, 1, 0]"] ;
761 -> 762 ;
763 [label="gini = 0.0\nsamples = 1\nvalue = [2, 0, 0]"] ;
762 -> 763 ;
764 [label="gini = 0.0\nsamples = 1\nvalue = [0, 1, 0]"] ;
762 -> 764 ;
765 [label="gini = 0.0\nsamples = 1\nvalue = [0, 5, 0]"] ;
761 -> 765 ;
766 [label="X[7] <= -0.133\ngini = 0.172\nsamples = 15\nvalue = [2, 19, 0]"] ;
696 -> 766 ;
767 [label="gini = 0.0\nsamples = 1\nvalue = [1, 0, 0]"] ;
766 -> 767 ;
768 [label="X[0] <= -0.239\ngini = 0.095\nsamples = 14\nvalue = [1, 19, 0]"] ;
766 -> 768 ;
769 [label="X[5] <= -0.36\ngini = 0.32\nsamples = 4\nvalue = [1, 4, 0]"] ;
768 -> 769 ;
770 [label="gini = 0.0\nsamples = 3\nvalue = [0, 4, 0]"] ;
769 -> 770 ;
771 [label="gini = 0.0\nsamples = 1\nvalue = [1, 0, 0]"] ;
769 -> 771 ;
772 [label="gini = 0.0\nsamples = 10\nvalue = [0, 15, 0]"] ;
768 -> 772 ;
773 [label="X[2] <= -0.504\ngini = 0.133\nsamples = 11\nvalue = [13, 1, 0]"] ;
683 -> 773 ;
774 [label="X[7] <= -0.131\ngini = 0.245\nsamples = 6\nvalue = [6, 1, 0]"] ;
773 -> 774 ;
775 [label="X[0] <= -0.388\ngini = 0.444\nsamples = 3\nvalue = [2, 1, 0]"] ;
774 -> 775 ;
776 [label="gini = 0.0\nsamples = 2\nvalue = [2, 0, 0]"] ;
775 -> 776 ;
777 [label="gini = 0.0\nsamples = 1\nvalue = [0, 1, 0]"] ;
775 -> 777 ;
778 [label="gini = 0.0\nsamples = 3\nvalue = [4, 0, 0]"] ;
774 -> 778 ;
779 [label="gini = 0.0\nsamples = 5\nvalue = [7, 0, 0]"] ;
773 -> 779 ;
780 [label="gini = 0.0\nsamples = 3\nvalue = [5, 0, 0]"] ;
682 -> 780 ;
781 [label="X[5] <= -0.363\ngini = 0.359\nsamples = 85\nvalue = [31, 101, 0]"] ;
681 -> 781 ;
782 [label="gini = 0.0\nsamples = 3\nvalue = [4, 0, 0]"] ;
781 -> 782 ;
783 [label="X[4] <= -0.282\ngini = 0.333\nsamples = 82\nvalue = [27, 101, 0]"] ;
781 -> 783 ;
784 [label="X[6] <= -0.242\ngini = 0.215\nsamples = 34\nvalue = [7, 50, 0]"] ;
783 -> 784 ;
785 [label="X[2] <= -0.506\ngini = 0.444\nsamples = 2\nvalue = [2, 1, 0]"] ;
784 -> 785 ;
786 [label="gini = 0.0\nsamples = 1\nvalue = [0, 1, 0]"] ;
785 -> 786 ;
787 [label="gini = 0.0\nsamples = 1\nvalue = [2, 0, 0]"] ;
785 -> 787 ;
788 [label="X[2] <= 1.987\ngini = 0.168\nsamples = 32\nvalue = [5, 49, 0]"] ;
784 -> 788 ;
789 [label="X[6] <= -0.239\ngini = 0.111\nsamples = 29\nvalue = [3, 48, 0]"] ;
788 -> 789 ;
790 [label="gini = 0.0\nsamples = 13\nvalue = [0, 23, 0]"] ;
789 -> 790 ;
791 [label="X[6] <= -0.239\ngini = 0.191\nsamples = 16\nvalue = [3, 25, 0]"] ;
789 -> 791 ;
792 [label="gini = 0.0\nsamples = 1\nvalue = [2, 0, 0]"] ;
791 -> 792 ;
793 [label="X[3] <= -0.41\ngini = 0.074\nsamples = 15\nvalue = [1, 25, 0]"] ;
791 -> 793 ;
794 [label="X[6] <= 1.934\ngini = 0.278\nsamples = 3\nvalue = [1, 5, 0]"] ;
793 -> 794 ;
795 [label="gini = 0.0\nsamples = 1\nvalue = [1, 0, 0]"] ;
794 -> 795 ;
796 [label="gini = 0.0\nsamples = 2\nvalue = [0, 5, 0]"] ;
794 -> 796 ;
797 [label="gini = 0.0\nsamples = 12\nvalue = [0, 20, 0]"] ;
793 -> 797 ;
798 [label="X[1] <= -0.502\ngini = 0.444\nsamples = 3\nvalue = [2, 1, 0]"] ;
788 -> 798 ;
799 [label="gini = 0.0\nsamples = 1\nvalue = [1, 0, 0]"] ;
798 -> 799 ;
800 [label="X[3] <= -0.399\ngini = 0.5\nsamples = 2\nvalue = [1, 1, 0]"] ;
798 -> 800 ;
801 [label="gini = 0.0\nsamples = 1\nvalue = [1, 0, 0]"] ;
800 -> 801 ;
802 [label="gini = 0.0\nsamples = 1\nvalue = [0, 1, 0]"] ;
800 -> 802 ;
803 [label="X[6] <= 4.094\ngini = 0.405\nsamples = 48\nvalue = [20, 51, 0]"] ;
783 -> 803 ;
804 [label="X[4] <= 3.348\ngini = 0.472\nsamples = 32\nvalue = [16, 26, 0]"] ;
803 -> 804 ;
805 [label="X[6] <= -0.24\ngini = 0.49\nsamples = 21\nvalue = [16, 12, 0]"] ;
804 -> 805 ;
806 [label="X[7] <= -0.131\ngini = 0.473\nsamples = 11\nvalue = [5, 8, 0]"] ;
805 -> 806 ;
807 [label="X[7] <= -0.133\ngini = 0.375\nsamples = 3\nvalue = [3, 1, 0]"] ;
806 -> 807 ;
808 [label="gini = 0.0\nsamples = 1\nvalue = [0, 1, 0]"] ;
807 -> 808 ;
809 [label="gini = 0.0\nsamples = 2\nvalue = [3, 0, 0]"] ;
807 -> 809 ;
810 [label="X[7] <= -0.129\ngini = 0.346\nsamples = 8\nvalue = [2, 7, 0]"] ;
806 -> 810 ;
811 [label="X[5] <= -0.363\ngini = 0.245\nsamples = 6\nvalue = [1, 6, 0]"] ;
810 -> 811 ;
812 [label="gini = 0.0\nsamples = 1\nvalue = [1, 0, 0]"] ;
811 -> 812 ;
813 [label="gini = 0.0\nsamples = 5\nvalue = [0, 6, 0]"] ;
811 -> 813 ;
814 [label="X[0] <= -0.322\ngini = 0.5\nsamples = 2\nvalue = [1, 1, 0]"] ;
810 -> 814 ;
815 [label="gini = 0.0\nsamples = 1\nvalue = [1, 0, 0]"] ;
814 -> 815 ;
816 [label="gini = 0.0\nsamples = 1\nvalue = [0, 1, 0]"] ;
814 -> 816 ;
817 [label="X[6] <= -0.215\ngini = 0.391\nsamples = 10\nvalue = [11, 4, 0]"] ;
805 -> 817 ;
818 [label="X[5] <= -0.36\ngini = 0.198\nsamples = 6\nvalue = [8, 1, 0]"] ;
817 -> 818 ;
819 [label="gini = 0.0\nsamples = 4\nvalue = [7, 0, 0]"] ;
818 -> 819 ;
820 [label="X[7] <= -0.131\ngini = 0.5\nsamples = 2\nvalue = [1, 1, 0]"] ;
818 -> 820 ;
821 [label="gini = 0.0\nsamples = 1\nvalue = [1, 0, 0]"] ;
820 -> 821 ;
822 [label="gini = 0.0\nsamples = 1\nvalue = [0, 1, 0]"] ;
820 -> 822 ;
823 [label="X[6] <= 4.094\ngini = 0.5\nsamples = 4\nvalue = [3, 3, 0]"] ;
817 -> 823 ;
824 [label="X[4] <= 3.347\ngini = 0.375\nsamples = 3\nvalue = [1, 3, 0]"] ;
823 -> 824 ;
825 [label="gini = 0.0\nsamples = 2\nvalue = [0, 3, 0]"] ;
824 -> 825 ;
826 [label="gini = 0.0\nsamples = 1\nvalue = [1, 0, 0]"] ;
824 -> 826 ;
827 [label="gini = 0.0\nsamples = 1\nvalue = [2, 0, 0]"] ;
823 -> 827 ;
828 [label="gini = 0.0\nsamples = 11\nvalue = [0, 14, 0]"] ;
804 -> 828 ;
829 [label="X[4] <= 1.532\ngini = 0.238\nsamples = 16\nvalue = [4, 25, 0]"] ;
803 -> 829 ;
830 [label="gini = 0.0\nsamples = 1\nvalue = [2, 0, 0]"] ;
829 -> 830 ;
831 [label="X[3] <= -0.404\ngini = 0.137\nsamples = 15\nvalue = [2, 25, 0]"] ;
829 -> 831 ;
832 [label="X[1] <= -0.467\ngini = 0.408\nsamples = 4\nvalue = [2, 5, 0]"] ;
831 -> 832 ;
833 [label="gini = 0.0\nsamples = 3\nvalue = [0, 5, 0]"] ;
832 -> 833 ;
834 [label="gini = 0.0\nsamples = 1\nvalue = [2, 0, 0]"] ;
832 -> 834 ;
835 [label="gini = 0.0\nsamples = 11\nvalue = [0, 20, 0]"] ;
831 -> 835 ;
836 [label="X[3] <= -0.411\ngini = 0.579\nsamples = 66\nvalue = [51, 46, 10]"] ;
500 -> 836 ;
837 [label="X[3] <= -0.413\ngini = 0.549\nsamples = 10\nvalue = [8, 1, 9]"] ;
836 -> 837 ;
838 [label="gini = 0.0\nsamples = 4\nvalue = [6, 0, 0]"] ;
837 -> 838 ;
839 [label="X[4] <= -0.296\ngini = 0.403\nsamples = 6\nvalue = [2, 1, 9]"] ;
837 -> 839 ;
840 [label="gini = 0.0\nsamples = 4\nvalue = [0, 0, 9]"] ;
839 -> 840 ;
841 [label="X[0] <= -0.255\ngini = 0.444\nsamples = 2\nvalue = [2, 1, 0]"] ;
839 -> 841 ;
842 [label="gini = 0.0\nsamples = 1\nvalue = [2, 0, 0]"] ;
841 -> 842 ;
843 [label="gini = 0.0\nsamples = 1\nvalue = [0, 1, 0]"] ;
841 -> 843 ;
844 [label="X[4] <= -0.284\ngini = 0.511\nsamples = 56\nvalue = [43, 45, 1]"] ;
836 -> 844 ;
845 [label="X[4] <= -0.296\ngini = 0.496\nsamples = 40\nvalue = [23, 35, 1]"] ;
844 -> 845 ;
846 [label="X[4] <= -0.299\ngini = 0.499\nsamples = 26\nvalue = [21, 19, 0]"] ;
845 -> 846 ;
847 [label="X[5] <= -0.363\ngini = 0.32\nsamples = 7\nvalue = [2, 8, 0]"] ;
846 -> 847 ;
848 [label="gini = 0.0\nsamples = 1\nvalue = [2, 0, 0]"] ;
847 -> 848 ;
849 [label="gini = 0.0\nsamples = 6\nvalue = [0, 8, 0]"] ;
847 -> 849 ;
850 [label="X[3] <= 2.429\ngini = 0.464\nsamples = 19\nvalue = [19, 11, 0]"] ;
846 -> 850 ;
851 [label="X[7] <= -0.128\ngini = 0.375\nsamples = 15\nvalue = [18, 6, 0]"] ;
850 -> 851 ;
852 [label="X[0] <= -0.439\ngini = 0.219\nsamples = 9\nvalue = [14, 2, 0]"] ;
851 -> 852 ;
853 [label="X[6] <= -0.242\ngini = 0.444\nsamples = 3\nvalue = [1, 2, 0]"] ;
852 -> 853 ;
854 [label="gini = 0.0\nsamples = 2\nvalue = [0, 2, 0]"] ;
853 -> 854 ;
855 [label="gini = 0.0\nsamples = 1\nvalue = [1, 0, 0]"] ;
853 -> 855 ;
856 [label="gini = 0.0\nsamples = 6\nvalue = [13, 0, 0]"] ;
852 -> 856 ;
857 [label="X[2] <= -0.505\ngini = 0.5\nsamples = 6\nvalue = [4, 4, 0]"] ;
851 -> 857 ;
858 [label="X[1] <= -0.504\ngini = 0.32\nsamples = 3\nvalue = [4, 1, 0]"] ;
857 -> 858 ;
859 [label="gini = 0.0\nsamples = 1\nvalue = [0, 1, 0]"] ;
858 -> 859 ;
860 [label="gini = 0.0\nsamples = 2\nvalue = [4, 0, 0]"] ;
858 -> 860 ;
861 [label="gini = 0.0\nsamples = 3\nvalue = [0, 3, 0]"] ;
857 -> 861 ;
862 [label="X[7] <= -0.127\ngini = 0.278\nsamples = 4\nvalue = [1, 5, 0]"] ;
850 -> 862 ;
863 [label="X[3] <= 2.43\ngini = 0.444\nsamples = 2\nvalue = [1, 2, 0]"] ;
862 -> 863 ;
864 [label="gini = 0.0\nsamples = 1\nvalue = [0, 2, 0]"] ;
863 -> 864 ;
865 [label="gini = 0.0\nsamples = 1\nvalue = [1, 0, 0]"] ;
863 -> 865 ;
866 [label="gini = 0.0\nsamples = 2\nvalue = [0, 3, 0]"] ;
862 -> 866 ;
867 [label="X[2] <= 1.985\ngini = 0.277\nsamples = 14\nvalue = [2, 16, 1]"] ;
845 -> 867 ;
868 [label="X[3] <= -0.41\ngini = 0.111\nsamples = 12\nvalue = [0, 16, 1]"] ;
867 -> 868 ;
869 [label="gini = 0.0\nsamples = 1\nvalue = [0, 0, 1]"] ;
868 -> 869 ;
870 [label="gini = 0.0\nsamples = 11\nvalue = [0, 16, 0]"] ;
868 -> 870 ;
871 [label="gini = 0.0\nsamples = 2\nvalue = [2, 0, 0]"] ;
867 -> 871 ;
872 [label="X[2] <= 0.748\ngini = 0.444\nsamples = 16\nvalue = [20, 10, 0]"] ;
844 -> 872 ;
873 [label="X[7] <= -0.127\ngini = 0.384\nsamples = 14\nvalue = [20, 7, 0]"] ;
872 -> 873 ;
874 [label="X[4] <= 3.349\ngini = 0.32\nsamples = 13\nvalue = [20, 5, 0]"] ;
873 -> 874 ;
875 [label="X[6] <= -0.239\ngini = 0.18\nsamples = 11\nvalue = [18, 2, 0]"] ;
874 -> 875 ;
876 [label="gini = 0.0\nsamples = 1\nvalue = [0, 2, 0]"] ;
875 -> 876 ;
877 [label="gini = 0.0\nsamples = 10\nvalue = [18, 0, 0]"] ;
875 -> 877 ;
878 [label="X[3] <= 1.016\ngini = 0.48\nsamples = 2\nvalue = [2, 3, 0]"] ;
874 -> 878 ;
879 [label="gini = 0.0\nsamples = 1\nvalue = [0, 3, 0]"] ;
878 -> 879 ;
880 [label="gini = 0.0\nsamples = 1\nvalue = [2, 0, 0]"] ;
878 -> 880 ;
881 [label="gini = 0.0\nsamples = 1\nvalue = [0, 2, 0]"] ;
873 -> 881 ;
882 [label="gini = 0.0\nsamples = 2\nvalue = [0, 3, 0]"] ;
872 -> 882 ;
883 [label="X[6] <= -0.246\ngini = 0.475\nsamples = 120\nvalue = [126, 43, 16]"] ;
279 -> 883 ;
884 [label="X[6] <= -0.246\ngini = 0.432\nsamples = 15\nvalue = [6, 0, 13]"] ;
883 -> 884 ;
885 [label="X[7] <= -0.134\ngini = 0.49\nsamples = 12\nvalue = [6, 0, 8]"] ;
884 -> 885 ;
886 [label="gini = 0.0\nsamples = 4\nvalue = [6, 0, 0]"] ;
885 -> 886 ;
887 [label="gini = 0.0\nsamples = 8\nvalue = [0, 0, 8]"] ;
885 -> 887 ;
888 [label="gini = 0.0\nsamples = 3\nvalue = [0, 0, 5]"] ;
884 -> 888 ;
889 [label="X[0] <= 2.182\ngini = 0.41\nsamples = 105\nvalue = [120, 43, 3]"] ;
883 -> 889 ;
890 [label="X[5] <= -0.363\ngini = 0.362\nsamples = 80\nvalue = [98, 26, 3]"] ;
889 -> 890 ;
891 [label="X[6] <= -0.246\ngini = 0.282\nsamples = 51\nvalue = [67, 10, 3]"] ;
890 -> 891 ;
892 [label="X[2] <= -0.506\ngini = 0.625\nsamples = 7\nvalue = [6, 3, 3]"] ;
891 -> 892 ;
893 [label="gini = 0.0\nsamples = 2\nvalue = [0, 3, 0]"] ;
892 -> 893 ;
894 [label="X[2] <= -0.499\ngini = 0.444\nsamples = 5\nvalue = [6, 0, 3]"] ;
892 -> 894 ;
895 [label="gini = 0.0\nsamples = 4\nvalue = [6, 0, 0]"] ;
894 -> 895 ;
896 [label="gini = 0.0\nsamples = 1\nvalue = [0, 0, 3]"] ;
894 -> 896 ;
897 [label="X[7] <= -0.129\ngini = 0.185\nsamples = 44\nvalue = [61, 7, 0]"] ;
891 -> 897 ;
898 [label="X[5] <= -0.364\ngini = 0.163\nsamples = 43\nvalue = [61, 6, 0]"] ;
897 -> 898 ;
899 [label="gini = 0.0\nsamples = 20\nvalue = [29, 0, 0]"] ;
898 -> 899 ;
900 [label="X[2] <= -0.504\ngini = 0.266\nsamples = 23\nvalue = [32, 6, 0]"] ;
898 -> 900 ;
901 [label="X[4] <= -0.299\ngini = 0.133\nsamples = 19\nvalue = [26, 2, 0]"] ;
900 -> 901 ;
902 [label="gini = 0.0\nsamples = 12\nvalue = [21, 0, 0]"] ;
901 -> 902 ;
903 [label="X[0] <= 2.181\ngini = 0.408\nsamples = 7\nvalue = [5, 2, 0]"] ;
901 -> 903 ;
904 [label="gini = 0.0\nsamples = 4\nvalue = [4, 0, 0]"] ;
903 -> 904 ;
905 [label="X[0] <= 2.181\ngini = 0.444\nsamples = 3\nvalue = [1, 2, 0]"] ;
903 -> 905 ;
906 [label="gini = 0.0\nsamples = 2\nvalue = [0, 2, 0]"] ;
905 -> 906 ;
907 [label="gini = 0.0\nsamples = 1\nvalue = [1, 0, 0]"] ;
905 -> 907 ;
908 [label="X[1] <= -0.511\ngini = 0.48\nsamples = 4\nvalue = [6, 4, 0]"] ;
900 -> 908 ;
909 [label="gini = 0.0\nsamples = 1\nvalue = [0, 3, 0]"] ;
908 -> 909 ;
910 [label="X[4] <= -0.3\ngini = 0.245\nsamples = 3\nvalue = [6, 1, 0]"] ;
908 -> 910 ;
911 [label="gini = 0.0\nsamples = 1\nvalue = [0, 1, 0]"] ;
910 -> 911 ;
912 [label="gini = 0.0\nsamples = 2\nvalue = [6, 0, 0]"] ;
910 -> 912 ;
913 [label="gini = 0.0\nsamples = 1\nvalue = [0, 1, 0]"] ;
897 -> 913 ;
914 [label="X[2] <= -0.507\ngini = 0.449\nsamples = 29\nvalue = [31, 16, 0]"] ;
890 -> 914 ;
915 [label="gini = 0.0\nsamples = 2\nvalue = [0, 4, 0]"] ;
914 -> 915 ;
916 [label="X[6] <= -0.245\ngini = 0.402\nsamples = 27\nvalue = [31, 12, 0]"] ;
914 -> 916 ;
917 [label="X[1] <= -0.51\ngini = 0.375\nsamples = 6\nvalue = [2, 6, 0]"] ;
916 -> 917 ;
918 [label="gini = 0.0\nsamples = 1\nvalue = [1, 0, 0]"] ;
917 -> 918 ;
919 [label="X[6] <= -0.245\ngini = 0.245\nsamples = 5\nvalue = [1, 6, 0]"] ;
917 -> 919 ;
920 [label="X[4] <= -0.3\ngini = 0.5\nsamples = 2\nvalue = [1, 1, 0]"] ;
919 -> 920 ;
921 [label="gini = 0.0\nsamples = 1\nvalue = [1, 0, 0]"] ;
920 -> 921 ;
922 [label="gini = 0.0\nsamples = 1\nvalue = [0, 1, 0]"] ;
920 -> 922 ;
923 [label="gini = 0.0\nsamples = 3\nvalue = [0, 5, 0]"] ;
919 -> 923 ;
924 [label="X[3] <= -0.412\ngini = 0.284\nsamples = 21\nvalue = [29, 6, 0]"] ;
916 -> 924 ;
925 [label="X[5] <= -0.36\ngini = 0.494\nsamples = 5\nvalue = [5, 4, 0]"] ;
924 -> 925 ;
926 [label="X[2] <= -0.506\ngini = 0.32\nsamples = 3\nvalue = [1, 4, 0]"] ;
925 -> 926 ;
927 [label="gini = 0.0\nsamples = 1\nvalue = [1, 0, 0]"] ;
926 -> 927 ;
928 [label="gini = 0.0\nsamples = 2\nvalue = [0, 4, 0]"] ;
926 -> 928 ;
929 [label="gini = 0.0\nsamples = 2\nvalue = [4, 0, 0]"] ;
925 -> 929 ;
930 [label="X[2] <= 1.986\ngini = 0.142\nsamples = 16\nvalue = [24, 2, 0]"] ;
924 -> 930 ;
931 [label="gini = 0.0\nsamples = 14\nvalue = [24, 0, 0]"] ;
930 -> 931 ;
932 [label="gini = 0.0\nsamples = 2\nvalue = [0, 2, 0]"] ;
930 -> 932 ;
933 [label="X[2] <= -0.504\ngini = 0.492\nsamples = 25\nvalue = [22, 17, 0]"] ;
889 -> 933 ;
934 [label="X[2] <= -0.508\ngini = 0.463\nsamples = 22\nvalue = [21, 12, 0]"] ;
933 -> 934 ;
935 [label="gini = 0.0\nsamples = 2\nvalue = [0, 3, 0]"] ;
934 -> 935 ;
936 [label="X[4] <= 1.525\ngini = 0.42\nsamples = 20\nvalue = [21, 9, 0]"] ;
934 -> 936 ;
937 [label="X[4] <= -0.299\ngini = 0.461\nsamples = 17\nvalue = [16, 9, 0]"] ;
936 -> 937 ;
938 [label="X[4] <= -0.299\ngini = 0.36\nsamples = 12\nvalue = [13, 4, 0]"] ;
937 -> 938 ;
939 [label="X[1] <= -0.51\ngini = 0.494\nsamples = 7\nvalue = [5, 4, 0]"] ;
938 -> 939 ;
940 [label="gini = 0.0\nsamples = 3\nvalue = [4, 0, 0]"] ;
939 -> 940 ;
941 [label="X[5] <= -0.363\ngini = 0.32\nsamples = 4\nvalue = [1, 4, 0]"] ;
939 -> 941 ;
942 [label="X[4] <= -0.3\ngini = 0.5\nsamples = 2\nvalue = [1, 1, 0]"] ;
941 -> 942 ;
943 [label="gini = 0.0\nsamples = 1\nvalue = [1, 0, 0]"] ;
942 -> 943 ;
944 [label="gini = 0.0\nsamples = 1\nvalue = [0, 1, 0]"] ;
942 -> 944 ;
945 [label="gini = 0.0\nsamples = 2\nvalue = [0, 3, 0]"] ;
941 -> 945 ;
946 [label="gini = 0.0\nsamples = 5\nvalue = [8, 0, 0]"] ;
938 -> 946 ;
947 [label="X[5] <= -0.362\ngini = 0.469\nsamples = 5\nvalue = [3, 5, 0]"] ;
937 -> 947 ;
948 [label="gini = 0.0\nsamples = 4\nvalue = [0, 5, 0]"] ;
947 -> 948 ;
949 [label="gini = 0.0\nsamples = 1\nvalue = [3, 0, 0]"] ;
947 -> 949 ;
950 [label="gini = 0.0\nsamples = 3\nvalue = [5, 0, 0]"] ;
936 -> 950 ;
951 [label="X[0] <= 2.183\ngini = 0.278\nsamples = 3\nvalue = [1, 5, 0]"] ;
933 -> 951 ;
952 [label="gini = 0.0\nsamples = 2\nvalue = [0, 5, 0]"] ;
951 -> 952 ;
953 [label="gini = 0.0\nsamples = 1\nvalue = [1, 0, 0]"] ;
951 -> 953 ;
954 [label="X[3] <= -0.411\ngini = 0.455\nsamples = 133\nvalue = [58, 134, 6]"] ;
218 -> 954 ;
955 [label="X[4] <= -0.296\ngini = 0.615\nsamples = 20\nvalue = [12, 11, 4]"] ;
954 -> 955 ;
956 [label="X[1] <= -0.508\ngini = 0.357\nsamples = 10\nvalue = [1, 11, 2]"] ;
955 -> 956 ;
957 [label="X[1] <= -0.51\ngini = 0.48\nsamples = 3\nvalue = [0, 3, 2]"] ;
956 -> 957 ;
958 [label="gini = 0.0\nsamples = 1\nvalue = [0, 3, 0]"] ;
957 -> 958 ;
959 [label="gini = 0.0\nsamples = 2\nvalue = [0, 0, 2]"] ;
957 -> 959 ;
960 [label="X[0] <= -0.43\ngini = 0.198\nsamples = 7\nvalue = [1, 8, 0]"] ;
956 -> 960 ;
961 [label="gini = 0.0\nsamples = 3\nvalue = [0, 5, 0]"] ;
960 -> 961 ;
962 [label="X[2] <= -0.505\ngini = 0.375\nsamples = 4\nvalue = [1, 3, 0]"] ;
960 -> 962 ;
963 [label="gini = 0.0\nsamples = 1\nvalue = [1, 0, 0]"] ;
962 -> 963 ;
964 [label="gini = 0.0\nsamples = 3\nvalue = [0, 3, 0]"] ;
962 -> 964 ;
965 [label="X[7] <= -0.122\ngini = 0.26\nsamples = 10\nvalue = [11, 0, 2]"] ;
955 -> 965 ;
966 [label="gini = 0.0\nsamples = 7\nvalue = [10, 0, 0]"] ;
965 -> 966 ;
967 [label="X[4] <= -0.289\ngini = 0.444\nsamples = 3\nvalue = [1, 0, 2]"] ;
965 -> 967 ;
968 [label="gini = 0.0\nsamples = 1\nvalue = [1, 0, 0]"] ;
967 -> 968 ;
969 [label="gini = 0.0\nsamples = 2\nvalue = [0, 0, 2]"] ;
967 -> 969 ;
970 [label="X[3] <= 2.43\ngini = 0.41\nsamples = 113\nvalue = [46, 123, 2]"] ;
954 -> 970 ;
971 [label="X[4] <= -0.298\ngini = 0.374\nsamples = 100\nvalue = [35, 115, 2]"] ;
970 -> 971 ;
972 [label="X[3] <= -0.405\ngini = 0.486\nsamples = 8\nvalue = [7, 5, 0]"] ;
971 -> 972 ;
973 [label="X[0] <= -0.23\ngini = 0.32\nsamples = 3\nvalue = [1, 4, 0]"] ;
972 -> 973 ;
974 [label="gini = 0.0\nsamples = 2\nvalue = [0, 4, 0]"] ;
973 -> 974 ;
975 [label="gini = 0.0\nsamples = 1\nvalue = [1, 0, 0]"] ;
973 -> 975 ;
976 [label="X[3] <= 2.428\ngini = 0.245\nsamples = 5\nvalue = [6, 1, 0]"] ;
972 -> 976 ;
977 [label="gini = 0.0\nsamples = 3\nvalue = [5, 0, 0]"] ;
976 -> 977 ;
978 [label="X[3] <= 2.429\ngini = 0.5\nsamples = 2\nvalue = [1, 1, 0]"] ;
976 -> 978 ;
979 [label="gini = 0.0\nsamples = 1\nvalue = [0, 1, 0]"] ;
978 -> 979 ;
980 [label="gini = 0.0\nsamples = 1\nvalue = [1, 0, 0]"] ;
978 -> 980 ;
981 [label="X[4] <= -0.286\ngini = 0.342\nsamples = 92\nvalue = [28, 110, 2]"] ;
971 -> 981 ;
982 [label="X[1] <= -0.488\ngini = 0.158\nsamples = 33\nvalue = [3, 43, 1]"] ;
981 -> 982 ;
983 [label="X[6] <= -0.242\ngini = 0.5\nsamples = 2\nvalue = [1, 0, 1]"] ;
982 -> 983 ;
984 [label="gini = 0.0\nsamples = 1\nvalue = [0, 0, 1]"] ;
983 -> 984 ;
985 [label="gini = 0.0\nsamples = 1\nvalue = [1, 0, 0]"] ;
983 -> 985 ;
986 [label="X[3] <= -0.409\ngini = 0.085\nsamples = 31\nvalue = [2, 43, 0]"] ;
982 -> 986 ;
987 [label="X[1] <= -0.455\ngini = 0.375\nsamples = 6\nvalue = [2, 6, 0]"] ;
986 -> 987 ;
988 [label="X[2] <= -0.504\ngini = 0.48\nsamples = 4\nvalue = [2, 3, 0]"] ;
987 -> 988 ;
989 [label="gini = 0.0\nsamples = 1\nvalue = [1, 0, 0]"] ;
988 -> 989 ;
990 [label="X[3] <= -0.41\ngini = 0.375\nsamples = 3\nvalue = [1, 3, 0]"] ;
988 -> 990 ;
991 [label="gini = 0.0\nsamples = 2\nvalue = [0, 3, 0]"] ;
990 -> 991 ;
992 [label="gini = 0.0\nsamples = 1\nvalue = [1, 0, 0]"] ;
990 -> 992 ;
993 [label="gini = 0.0\nsamples = 2\nvalue = [0, 3, 0]"] ;
987 -> 993 ;
994 [label="gini = 0.0\nsamples = 25\nvalue = [0, 37, 0]"] ;
986 -> 994 ;
995 [label="X[4] <= -0.285\ngini = 0.409\nsamples = 59\nvalue = [25, 67, 1]"] ;
981 -> 995 ;
996 [label="gini = 0.0\nsamples = 2\nvalue = [7, 0, 0]"] ;
995 -> 996 ;
997 [label="X[1] <= -0.329\ngini = 0.349\nsamples = 57\nvalue = [18, 67, 1]"] ;
995 -> 997 ;
998 [label="X[7] <= 7.576\ngini = 0.27\nsamples = 49\nvalue = [11, 64, 1]"] ;
997 -> 998 ;
999 [label="X[3] <= -0.41\ngini = 0.165\nsamples = 42\nvalue = [5, 61, 1]"] ;
998 -> 999 ;
1000 [label="gini = 0.0\nsamples = 1\nvalue = [0, 0, 1]"] ;
999 -> 1000 ;
1001 [label="X[6] <= -0.24\ngini = 0.14\nsamples = 41\nvalue = [5, 61, 0]"] ;
999 -> 1001 ;
1002 [label="gini = 0.0\nsamples = 14\nvalue = [0, 19, 0]"] ;
1001 -> 1002 ;
1003 [label="X[0] <= -0.06\ngini = 0.19\nsamples = 27\nvalue = [5, 42, 0]"] ;
1001 -> 1003 ;
1004 [label="X[3] <= -0.405\ngini = 0.159\nsamples = 26\nvalue = [4, 42, 0]"] ;
1003 -> 1004 ;
1005 [label="X[3] <= -0.408\ngini = 0.5\nsamples = 2\nvalue = [1, 1, 0]"] ;
1004 -> 1005 ;
1006 [label="gini = 0.0\nsamples = 1\nvalue = [0, 1, 0]"] ;
1005 -> 1006 ;
1007 [label="gini = 0.0\nsamples = 1\nvalue = [1, 0, 0]"] ;
1005 -> 1007 ;
1008 [label="X[0] <= -0.373\ngini = 0.127\nsamples = 24\nvalue = [3, 41, 0]"] ;
1004 -> 1008 ;
1009 [label="X[6] <= -0.24\ngini = 0.305\nsamples = 9\nvalue = [3, 13, 0]"] ;
1008 -> 1009 ;
1010 [label="gini = 0.0\nsamples = 1\nvalue = [2, 0, 0]"] ;
1009 -> 1010 ;
1011 [label="X[7] <= 7.572\ngini = 0.133\nsamples = 8\nvalue = [1, 13, 0]"] ;
1009 -> 1011 ;
1012 [label="gini = 0.0\nsamples = 6\nvalue = [0, 10, 0]"] ;
1011 -> 1012 ;
1013 [label="X[0] <= -0.428\ngini = 0.375\nsamples = 2\nvalue = [1, 3, 0]"] ;
1011 -> 1013 ;
1014 [label="gini = 0.0\nsamples = 1\nvalue = [0, 3, 0]"] ;
1013 -> 1014 ;
1015 [label="gini = 0.0\nsamples = 1\nvalue = [1, 0, 0]"] ;
1013 -> 1015 ;
1016 [label="gini = 0.0\nsamples = 15\nvalue = [0, 28, 0]"] ;
1008 -> 1016 ;
1017 [label="gini = 0.0\nsamples = 1\nvalue = [1, 0, 0]"] ;
1003 -> 1017 ;
1018 [label="X[3] <= -0.393\ngini = 0.444\nsamples = 7\nvalue = [6, 3, 0]"] ;
998 -> 1018 ;
1019 [label="X[1] <= -0.426\ngini = 0.375\nsamples = 3\nvalue = [1, 3, 0]"] ;
1018 -> 1019 ;
1020 [label="gini = 0.0\nsamples = 1\nvalue = [1, 0, 0]"] ;
1019 -> 1020 ;
1021 [label="gini = 0.0\nsamples = 2\nvalue = [0, 3, 0]"] ;
1019 -> 1021 ;
1022 [label="gini = 0.0\nsamples = 4\nvalue = [5, 0, 0]"] ;
1018 -> 1022 ;
1023 [label="X[3] <= -0.393\ngini = 0.42\nsamples = 8\nvalue = [7, 3, 0]"] ;
997 -> 1023 ;
1024 [label="X[2] <= -0.49\ngini = 0.444\nsamples = 3\nvalue = [1, 2, 0]"] ;
1023 -> 1024 ;
1025 [label="gini = 0.0\nsamples = 1\nvalue = [1, 0, 0]"] ;
1024 -> 1025 ;
1026 [label="gini = 0.0\nsamples = 2\nvalue = [0, 2, 0]"] ;
1024 -> 1026 ;
1027 [label="X[1] <= -0.309\ngini = 0.245\nsamples = 5\nvalue = [6, 1, 0]"] ;
1023 -> 1027 ;
1028 [label="gini = 0.0\nsamples = 2\nvalue = [4, 0, 0]"] ;
1027 -> 1028 ;
1029 [label="X[0] <= -0.313\ngini = 0.444\nsamples = 3\nvalue = [2, 1, 0]"] ;
1027 -> 1029 ;
1030 [label="gini = 0.0\nsamples = 2\nvalue = [2, 0, 0]"] ;
1029 -> 1030 ;
1031 [label="gini = 0.0\nsamples = 1\nvalue = [0, 1, 0]"] ;
1029 -> 1031 ;
1032 [label="X[7] <= -0.121\ngini = 0.488\nsamples = 13\nvalue = [11, 8, 0]"] ;
970 -> 1032 ;
1033 [label="X[5] <= -0.362\ngini = 0.486\nsamples = 8\nvalue = [5, 7, 0]"] ;
1032 -> 1033 ;
1034 [label="gini = 0.0\nsamples = 3\nvalue = [3, 0, 0]"] ;
1033 -> 1034 ;
1035 [label="X[5] <= 1.204\ngini = 0.346\nsamples = 5\nvalue = [2, 7, 0]"] ;
1033 -> 1035 ;
1036 [label="gini = 0.0\nsamples = 4\nvalue = [0, 7, 0]"] ;
1035 -> 1036 ;
1037 [label="gini = 0.0\nsamples = 1\nvalue = [2, 0, 0]"] ;
1035 -> 1037 ;
1038 [label="X[6] <= -0.239\ngini = 0.245\nsamples = 5\nvalue = [6, 1, 0]"] ;
1032 -> 1038 ;
1039 [label="X[7] <= 7.572\ngini = 0.5\nsamples = 2\nvalue = [1, 1, 0]"] ;
1038 -> 1039 ;
1040 [label="gini = 0.0\nsamples = 1\nvalue = [1, 0, 0]"] ;
1039 -> 1040 ;
1041 [label="gini = 0.0\nsamples = 1\nvalue = [0, 1, 0]"] ;
1039 -> 1041 ;
1042 [label="gini = 0.0\nsamples = 3\nvalue = [5, 0, 0]"] ;
1038 -> 1042 ;
}