digraph Tree {
node [shape=box] ;
0 [label="X[6] <= -0.246\ngini = 0.666\nsamples = 2219\nvalue = [1104, 1242, 1158]"] ;
1 [label="X[5] <= -0.364\ngini = 0.357\nsamples = 864\nvalue = [130, 154, 1055]"] ;
0 -> 1 [labeldistance=2.5, labelangle=45, headlabel="True"] ;
2 [label="X[3] <= -0.414\ngini = 0.663\nsamples = 209\nvalue = [97, 119, 122]"] ;
1 -> 2 ;
3 [label="X[0] <= 0.888\ngini = 0.597\nsamples = 120\nvalue = [41, 47, 107]"] ;
2 -> 3 ;
4 [label="X[2] <= -0.506\ngini = 0.637\nsamples = 89\nvalue = [40, 37, 69]"] ;
3 -> 4 ;
5 [label="X[5] <= -0.365\ngini = 0.602\nsamples = 44\nvalue = [36, 30, 10]"] ;
4 -> 5 ;
6 [label="X[7] <= -0.134\ngini = 0.584\nsamples = 40\nvalue = [36, 26, 8]"] ;
5 -> 6 ;
7 [label="X[2] <= -0.508\ngini = 0.457\nsamples = 28\nvalue = [31, 17, 0]"] ;
6 -> 7 ;
8 [label="X[6] <= -0.246\ngini = 0.133\nsamples = 7\nvalue = [13, 1, 0]"] ;
7 -> 8 ;
9 [label="X[0] <= -0.51\ngini = 0.444\nsamples = 2\nvalue = [2, 1, 0]"] ;
8 -> 9 ;
10 [label="gini = 0.0\nsamples = 1\nvalue = [2, 0, 0]"] ;
9 -> 10 ;
11 [label="gini = 0.0\nsamples = 1\nvalue = [0, 1, 0]"] ;
9 -> 11 ;
12 [label="gini = 0.0\nsamples = 5\nvalue = [11, 0, 0]"] ;
8 -> 12 ;
13 [label="X[7] <= -0.135\ngini = 0.498\nsamples = 21\nvalue = [18, 16, 0]"] ;
7 -> 13 ;
14 [label="gini = 0.0\nsamples = 4\nvalue = [0, 5, 0]"] ;
13 -> 14 ;
15 [label="X[3] <= -0.414\ngini = 0.471\nsamples = 17\nvalue = [18, 11, 0]"] ;
13 -> 15 ;
16 [label="X[6] <= -0.246\ngini = 0.444\nsamples = 6\nvalue = [4, 8, 0]"] ;
15 -> 16 ;
17 [label="gini = 0.0\nsamples = 1\nvalue = [2, 0, 0]"] ;
16 -> 17 ;
18 [label="X[7] <= -0.135\ngini = 0.32\nsamples = 5\nvalue = [2, 8, 0]"] ;
16 -> 18 ;
19 [label="X[2] <= -0.507\ngini = 0.198\nsamples = 4\nvalue = [1, 8, 0]"] ;
18 -> 19 ;
20 [label="gini = 0.0\nsamples = 3\nvalue = [0, 8, 0]"] ;
19 -> 20 ;
21 [label="gini = 0.0\nsamples = 1\nvalue = [1, 0, 0]"] ;
19 -> 21 ;
22 [label="gini = 0.0\nsamples = 1\nvalue = [1, 0, 0]"] ;
18 -> 22 ;
23 [label="X[4] <= -0.301\ngini = 0.291\nsamples = 11\nvalue = [14, 3, 0]"] ;
15 -> 23 ;
24 [label="gini = 0.0\nsamples = 7\nvalue = [9, 0, 0]"] ;
23 -> 24 ;
25 [label="X[1] <= -0.51\ngini = 0.469\nsamples = 4\nvalue = [5, 3, 0]"] ;
23 -> 25 ;
26 [label="gini = 0.0\nsamples = 2\nvalue = [0, 3, 0]"] ;
25 -> 26 ;
27 [label="gini = 0.0\nsamples = 2\nvalue = [5, 0, 0]"] ;
25 -> 27 ;
28 [label="X[0] <= -0.488\ngini = 0.649\nsamples = 12\nvalue = [5, 9, 8]"] ;
6 -> 28 ;
29 [label="X[4] <= -0.301\ngini = 0.637\nsamples = 11\nvalue = [5, 9, 5]"] ;
28 -> 29 ;
30 [label="X[0] <= -0.514\ngini = 0.58\nsamples = 7\nvalue = [5, 4, 1]"] ;
29 -> 30 ;
31 [label="X[0] <= -0.516\ngini = 0.32\nsamples = 4\nvalue = [0, 4, 1]"] ;
30 -> 31 ;
32 [label="gini = 0.0\nsamples = 3\nvalue = [0, 4, 0]"] ;
31 -> 32 ;
33 [label="gini = 0.0\nsamples = 1\nvalue = [0, 0, 1]"] ;
31 -> 33 ;
34 [label="gini = 0.0\nsamples = 3\nvalue = [5, 0, 0]"] ;
30 -> 34 ;
35 [label="X[3] <= -0.414\ngini = 0.494\nsamples = 4\nvalue = [0, 5, 4]"] ;
29 -> 35 ;
36 [label="gini = 0.0\nsamples = 2\nvalue = [0, 0, 4]"] ;
35 -> 36 ;
37 [label="gini = 0.0\nsamples = 2\nvalue = [0, 5, 0]"] ;
35 -> 37 ;
38 [label="gini = 0.0\nsamples = 1\nvalue = [0, 0, 3]"] ;
28 -> 38 ;
39 [label="X[7] <= -0.134\ngini = 0.444\nsamples = 4\nvalue = [0, 4, 2]"] ;
5 -> 39 ;
40 [label="gini = 0.0\nsamples = 3\nvalue = [0, 4, 0]"] ;
39 -> 40 ;
41 [label="gini = 0.0\nsamples = 1\nvalue = [0, 0, 2]"] ;
39 -> 41 ;
42 [label="X[6] <= -0.246\ngini = 0.276\nsamples = 45\nvalue = [4, 7, 59]"] ;
4 -> 42 ;
43 [label="X[2] <= -0.505\ngini = 0.174\nsamples = 42\nvalue = [4, 2, 58]"] ;
42 -> 43 ;
44 [label="X[7] <= -0.134\ngini = 0.43\nsamples = 15\nvalue = [4, 2, 16]"] ;
43 -> 44 ;
45 [label="X[4] <= -0.301\ngini = 0.32\nsamples = 4\nvalue = [4, 1, 0]"] ;
44 -> 45 ;
46 [label="gini = 0.0\nsamples = 1\nvalue = [0, 1, 0]"] ;
45 -> 46 ;
47 [label="gini = 0.0\nsamples = 3\nvalue = [4, 0, 0]"] ;
45 -> 47 ;
48 [label="X[0] <= -0.506\ngini = 0.111\nsamples = 11\nvalue = [0, 1, 16]"] ;
44 -> 48 ;
49 [label="gini = 0.0\nsamples = 9\nvalue = [0, 0, 15]"] ;
48 -> 49 ;
50 [label="X[6] <= -0.246\ngini = 0.5\nsamples = 2\nvalue = [0, 1, 1]"] ;
48 -> 50 ;
51 [label="gini = 0.0\nsamples = 1\nvalue = [0, 1, 0]"] ;
50 -> 51 ;
52 [label="gini = 0.0\nsamples = 1\nvalue = [0, 0, 1]"] ;
50 -> 52 ;
53 [label="gini = 0.0\nsamples = 27\nvalue = [0, 0, 42]"] ;
43 -> 53 ;
54 [label="X[2] <= -0.505\ngini = 0.278\nsamples = 3\nvalue = [0, 5, 1]"] ;
42 -> 54 ;
55 [label="gini = 0.0\nsamples = 1\nvalue = [0, 0, 1]"] ;
54 -> 55 ;
56 [label="gini = 0.0\nsamples = 2\nvalue = [0, 5, 0]"] ;
54 -> 56 ;
57 [label="X[4] <= -0.301\ngini = 0.357\nsamples = 31\nvalue = [1, 10, 38]"] ;
3 -> 57 ;
58 [label="X[7] <= -0.134\ngini = 0.444\nsamples = 11\nvalue = [0, 10, 5]"] ;
57 -> 58 ;
59 [label="gini = 0.0\nsamples = 8\nvalue = [0, 10, 0]"] ;
58 -> 59 ;
60 [label="gini = 0.0\nsamples = 3\nvalue = [0, 0, 5]"] ;
58 -> 60 ;
61 [label="X[1] <= -0.51\ngini = 0.057\nsamples = 20\nvalue = [1, 0, 33]"] ;
57 -> 61 ;
62 [label="gini = 0.0\nsamples = 12\nvalue = [0, 0, 20]"] ;
61 -> 62 ;
63 [label="X[5] <= -0.365\ngini = 0.133\nsamples = 8\nvalue = [1, 0, 13]"] ;
61 -> 63 ;
64 [label="gini = 0.0\nsamples = 7\nvalue = [0, 0, 13]"] ;
63 -> 64 ;
65 [label="gini = 0.0\nsamples = 1\nvalue = [1, 0, 0]"] ;
63 -> 65 ;
66 [label="X[7] <= -0.134\ngini = 0.582\nsamples = 89\nvalue = [56, 72, 15]"] ;
2 -> 66 ;
67 [label="X[0] <= -0.471\ngini = 0.493\nsamples = 74\nvalue = [54, 68, 0]"] ;
66 -> 67 ;
68 [label="X[3] <= -0.412\ngini = 0.472\nsamples = 51\nvalue = [50, 31, 0]"] ;
67 -> 68 ;
69 [label="X[5] <= -0.365\ngini = 0.455\nsamples = 48\nvalue = [50, 27, 0]"] ;
68 -> 69 ;
70 [label="X[0] <= -0.513\ngini = 0.32\nsamples = 22\nvalue = [28, 7, 0]"] ;
69 -> 70 ;
71 [label="X[2] <= -0.508\ngini = 0.496\nsamples = 6\nvalue = [5, 6, 0]"] ;
70 -> 71 ;
72 [label="X[3] <= -0.413\ngini = 0.278\nsamples = 3\nvalue = [5, 1, 0]"] ;
71 -> 72 ;
73 [label="gini = 0.0\nsamples = 1\nvalue = [0, 1, 0]"] ;
72 -> 73 ;
74 [label="gini = 0.0\nsamples = 2\nvalue = [5, 0, 0]"] ;
72 -> 74 ;
75 [label="gini = 0.0\nsamples = 3\nvalue = [0, 5, 0]"] ;
71 -> 75 ;
76 [label="X[7] <= -0.135\ngini = 0.08\nsamples = 16\nvalue = [23, 1, 0]"] ;
70 -> 76 ;
77 [label="X[0] <= -0.5\ngini = 0.375\nsamples = 3\nvalue = [3, 1, 0]"] ;
76 -> 77 ;
78 [label="gini = 0.0\nsamples = 1\nvalue = [0, 1, 0]"] ;
77 -> 78 ;
79 [label="gini = 0.0\nsamples = 2\nvalue = [3, 0, 0]"] ;
77 -> 79 ;
80 [label="gini = 0.0\nsamples = 13\nvalue = [20, 0, 0]"] ;
76 -> 80 ;
81 [label="X[6] <= -0.246\ngini = 0.499\nsamples = 26\nvalue = [22, 20, 0]"] ;
69 -> 81 ;
82 [label="gini = 0.0\nsamples = 6\nvalue = [10, 0, 0]"] ;
81 -> 82 ;
83 [label="X[5] <= -0.365\ngini = 0.469\nsamples = 20\nvalue = [12, 20, 0]"] ;
81 -> 83 ;
84 [label="gini = 0.0\nsamples = 4\nvalue = [0, 6, 0]"] ;
83 -> 84 ;
85 [label="X[5] <= -0.365\ngini = 0.497\nsamples = 16\nvalue = [12, 14, 0]"] ;
83 -> 85 ;
86 [label="gini = 0.0\nsamples = 3\nvalue = [4, 0, 0]"] ;
85 -> 86 ;
87 [label="X[4] <= -0.301\ngini = 0.463\nsamples = 13\nvalue = [8, 14, 0]"] ;
85 -> 87 ;
88 [label="X[4] <= -0.301\ngini = 0.278\nsamples = 4\nvalue = [5, 1, 0]"] ;
87 -> 88 ;
89 [label="gini = 0.0\nsamples = 1\nvalue = [0, 1, 0]"] ;
88 -> 89 ;
90 [label="gini = 0.0\nsamples = 3\nvalue = [5, 0, 0]"] ;
88 -> 90 ;
91 [label="X[0] <= -0.52\ngini = 0.305\nsamples = 9\nvalue = [3, 13, 0]"] ;
87 -> 91 ;
92 [label="gini = 0.0\nsamples = 1\nvalue = [2, 0, 0]"] ;
91 -> 92 ;
93 [label="X[1] <= -0.51\ngini = 0.133\nsamples = 8\nvalue = [1, 13, 0]"] ;
91 -> 93 ;
94 [label="gini = 0.0\nsamples = 1\nvalue = [1, 0, 0]"] ;
93 -> 94 ;
95 [label="gini = 0.0\nsamples = 7\nvalue = [0, 13, 0]"] ;
93 -> 95 ;
96 [label="gini = 0.0\nsamples = 3\nvalue = [0, 4, 0]"] ;
68 -> 96 ;
97 [label="X[1] <= -0.508\ngini = 0.176\nsamples = 23\nvalue = [4, 37, 0]"] ;
67 -> 97 ;
98 [label="X[4] <= -0.3\ngini = 0.332\nsamples = 11\nvalue = [4, 15, 0]"] ;
97 -> 98 ;
99 [label="X[3] <= -0.414\ngini = 0.231\nsamples = 9\nvalue = [2, 13, 0]"] ;
98 -> 99 ;
100 [label="gini = 0.0\nsamples = 1\nvalue = [1, 0, 0]"] ;
99 -> 100 ;
101 [label="X[6] <= -0.246\ngini = 0.133\nsamples = 8\nvalue = [1, 13, 0]"] ;
99 -> 101 ;
102 [label="gini = 0.0\nsamples = 4\nvalue = [0, 8, 0]"] ;
101 -> 102 ;
103 [label="X[1] <= -0.509\ngini = 0.278\nsamples = 4\nvalue = [1, 5, 0]"] ;
101 -> 103 ;
104 [label="X[4] <= -0.301\ngini = 0.5\nsamples = 2\nvalue = [1, 1, 0]"] ;
103 -> 104 ;
105 [label="gini = 0.0\nsamples = 1\nvalue = [0, 1, 0]"] ;
104 -> 105 ;
106 [label="gini = 0.0\nsamples = 1\nvalue = [1, 0, 0]"] ;
104 -> 106 ;
107 [label="gini = 0.0\nsamples = 2\nvalue = [0, 4, 0]"] ;
103 -> 107 ;
108 [label="X[2] <= -0.507\ngini = 0.5\nsamples = 2\nvalue = [2, 2, 0]"] ;
98 -> 108 ;
109 [label="gini = 0.0\nsamples = 1\nvalue = [2, 0, 0]"] ;
108 -> 109 ;
110 [label="gini = 0.0\nsamples = 1\nvalue = [0, 2, 0]"] ;
108 -> 110 ;
111 [label="gini = 0.0\nsamples = 12\nvalue = [0, 22, 0]"] ;
97 -> 111 ;
112 [label="X[5] <= -0.365\ngini = 0.444\nsamples = 15\nvalue = [2, 4, 15]"] ;
66 -> 112 ;
113 [label="gini = 0.0\nsamples = 10\nvalue = [0, 0, 12]"] ;
112 -> 113 ;
114 [label="X[3] <= -0.413\ngini = 0.642\nsamples = 5\nvalue = [2, 4, 3]"] ;
112 -> 114 ;
115 [label="gini = 0.0\nsamples = 2\nvalue = [0, 0, 3]"] ;
114 -> 115 ;
116 [label="X[4] <= -0.3\ngini = 0.444\nsamples = 3\nvalue = [2, 4, 0]"] ;
114 -> 116 ;
117 [label="gini = 0.0\nsamples = 1\nvalue = [2, 0, 0]"] ;
116 -> 117 ;
118 [label="gini = 0.0\nsamples = 2\nvalue = [0, 4, 0]"] ;
116 -> 118 ;
119 [label="X[2] <= -0.507\ngini = 0.129\nsamples = 655\nvalue = [33, 35, 933]"] ;
1 -> 119 ;
120 [label="X[5] <= -0.362\ngini = 0.665\nsamples = 17\nvalue = [8, 8, 7]"] ;
119 -> 120 ;
121 [label="X[4] <= -0.298\ngini = 0.62\nsamples = 14\nvalue = [8, 8, 3]"] ;
120 -> 121 ;
122 [label="X[3] <= -0.414\ngini = 0.604\nsamples = 13\nvalue = [8, 4, 3]"] ;
121 -> 122 ;
123 [label="X[3] <= -0.414\ngini = 0.48\nsamples = 4\nvalue = [0, 3, 2]"] ;
122 -> 123 ;
124 [label="gini = 0.0\nsamples = 1\nvalue = [0, 0, 2]"] ;
123 -> 124 ;
125 [label="gini = 0.0\nsamples = 3\nvalue = [0, 3, 0]"] ;
123 -> 125 ;
126 [label="X[0] <= 2.183\ngini = 0.34\nsamples = 9\nvalue = [8, 1, 1]"] ;
122 -> 126 ;
127 [label="X[3] <= -0.413\ngini = 0.198\nsamples = 8\nvalue = [8, 1, 0]"] ;
126 -> 127 ;
128 [label="X[4] <= -0.3\ngini = 0.375\nsamples = 4\nvalue = [3, 1, 0]"] ;
127 -> 128 ;
129 [label="X[7] <= -0.134\ngini = 0.5\nsamples = 2\nvalue = [1, 1, 0]"] ;
128 -> 129 ;
130 [label="gini = 0.0\nsamples = 1\nvalue = [1, 0, 0]"] ;
129 -> 130 ;
131 [label="gini = 0.0\nsamples = 1\nvalue = [0, 1, 0]"] ;
129 -> 131 ;
132 [label="gini = 0.0\nsamples = 2\nvalue = [2, 0, 0]"] ;
128 -> 132 ;
133 [label="gini = 0.0\nsamples = 4\nvalue = [5, 0, 0]"] ;
127 -> 133 ;
134 [label="gini = 0.0\nsamples = 1\nvalue = [0, 0, 1]"] ;
126 -> 134 ;
135 [label="gini = 0.0\nsamples = 1\nvalue = [0, 4, 0]"] ;
121 -> 135 ;
136 [label="gini = 0.0\nsamples = 3\nvalue = [0, 0, 4]"] ;
120 -> 136 ;
137 [label="X[6] <= -0.246\ngini = 0.102\nsamples = 638\nvalue = [25, 27, 926]"] ;
119 -> 137 ;
138 [label="X[0] <= -0.525\ngini = 0.027\nsamples = 467\nvalue = [6, 4, 710]"] ;
137 -> 138 ;
139 [label="X[3] <= -0.412\ngini = 0.444\nsamples = 7\nvalue = [4, 0, 8]"] ;
138 -> 139 ;
140 [label="gini = 0.0\nsamples = 6\nvalue = [0, 0, 8]"] ;
139 -> 140 ;
141 [label="gini = 0.0\nsamples = 1\nvalue = [4, 0, 0]"] ;
139 -> 141 ;
142 [label="X[7] <= -0.135\ngini = 0.017\nsamples = 460\nvalue = [2, 4, 702]"] ;
138 -> 142 ;
143 [label="X[6] <= -0.246\ngini = 0.5\nsamples = 2\nvalue = [1, 1, 0]"] ;
142 -> 143 ;
144 [label="gini = 0.0\nsamples = 1\nvalue = [0, 1, 0]"] ;
143 -> 144 ;
145 [label="gini = 0.0\nsamples = 1\nvalue = [1, 0, 0]"] ;
143 -> 145 ;
146 [label="X[1] <= -0.497\ngini = 0.011\nsamples = 458\nvalue = [1, 3, 702]"] ;
142 -> 146 ;
147 [label="gini = 0.0\nsamples = 346\nvalue = [0, 0, 541]"] ;
146 -> 147 ;
148 [label="X[5] <= -0.364\ngini = 0.048\nsamples = 112\nvalue = [1, 3, 161]"] ;
146 -> 148 ;
149 [label="X[6] <= -0.246\ngini = 0.191\nsamples = 17\nvalue = [0, 3, 25]"] ;
148 -> 149 ;
150 [label="X[1] <= 2.013\ngini = 0.077\nsamples = 15\nvalue = [0, 1, 24]"] ;
149 -> 150 ;
151 [label="gini = 0.0\nsamples = 13\nvalue = [0, 0, 21]"] ;
150 -> 151 ;
152 [label="X[5] <= -0.364\ngini = 0.375\nsamples = 2\nvalue = [0, 1, 3]"] ;
150 -> 152 ;
153 [label="gini = 0.0\nsamples = 1\nvalue = [0, 0, 3]"] ;
152 -> 153 ;
154 [label="gini = 0.0\nsamples = 1\nvalue = [0, 1, 0]"] ;
152 -> 154 ;
155 [label="X[2] <= -0.504\ngini = 0.444\nsamples = 2\nvalue = [0, 2, 1]"] ;
149 -> 155 ;
156 [label="gini = 0.0\nsamples = 1\nvalue = [0, 2, 0]"] ;
155 -> 156 ;
157 [label="gini = 0.0\nsamples = 1\nvalue = [0, 0, 1]"] ;
155 -> 157 ;
158 [label="X[2] <= -0.503\ngini = 0.014\nsamples = 95\nvalue = [1, 0, 136]"] ;
148 -> 158 ;
159 [label="gini = 0.0\nsamples = 60\nvalue = [0, 0, 90]"] ;
158 -> 159 ;
160 [label="X[1] <= 2.011\ngini = 0.042\nsamples = 35\nvalue = [1, 0, 46]"] ;
158 -> 160 ;
161 [label="X[3] <= -0.412\ngini = 0.142\nsamples = 12\nvalue = [1, 0, 12]"] ;
160 -> 161 ;
162 [label="gini = 0.0\nsamples = 11\nvalue = [0, 0, 12]"] ;
161 -> 162 ;
163 [label="gini = 0.0\nsamples = 1\nvalue = [1, 0, 0]"] ;
161 -> 163 ;
164 [label="gini = 0.0\nsamples = 23\nvalue = [0, 0, 34]"] ;
160 -> 164 ;
165 [label="X[7] <= -0.134\ngini = 0.286\nsamples = 171\nvalue = [19, 23, 216]"] ;
137 -> 165 ;
166 [label="X[0] <= -0.507\ngini = 0.601\nsamples = 26\nvalue = [17, 18, 5]"] ;
165 -> 166 ;
167 [label="X[7] <= -0.134\ngini = 0.408\nsamples = 12\nvalue = [10, 0, 4]"] ;
166 -> 167 ;
168 [label="X[1] <= -0.508\ngini = 0.278\nsamples = 11\nvalue = [10, 0, 2]"] ;
167 -> 168 ;
169 [label="gini = 0.0\nsamples = 6\nvalue = [7, 0, 0]"] ;
168 -> 169 ;
170 [label="X[3] <= -0.412\ngini = 0.48\nsamples = 5\nvalue = [3, 0, 2]"] ;
168 -> 170 ;
171 [label="X[1] <= -0.501\ngini = 0.444\nsamples = 3\nvalue = [1, 0, 2]"] ;
170 -> 171 ;
172 [label="gini = 0.0\nsamples = 2\nvalue = [0, 0, 2]"] ;
171 -> 172 ;
173 [label="gini = 0.0\nsamples = 1\nvalue = [1, 0, 0]"] ;
171 -> 173 ;
174 [label="gini = 0.0\nsamples = 2\nvalue = [2, 0, 0]"] ;
170 -> 174 ;
175 [label="gini = 0.0\nsamples = 1\nvalue = [0, 0, 2]"] ;
167 -> 175 ;
176 [label="X[7] <= -0.134\ngini = 0.447\nsamples = 14\nvalue = [7, 18, 1]"] ;
166 -> 176 ;
177 [label="X[5] <= -0.363\ngini = 0.111\nsamples = 8\nvalue = [1, 16, 0]"] ;
176 -> 177 ;
178 [label="gini = 0.0\nsamples = 6\nvalue = [0, 14, 0]"] ;
177 -> 178 ;
179 [label="X[0] <= -0.423\ngini = 0.444\nsamples = 2\nvalue = [1, 2, 0]"] ;
177 -> 179 ;
180 [label="gini = 0.0\nsamples = 1\nvalue = [1, 0, 0]"] ;
179 -> 180 ;
181 [label="gini = 0.0\nsamples = 1\nvalue = [0, 2, 0]"] ;
179 -> 181 ;
182 [label="X[0] <= 2.181\ngini = 0.494\nsamples = 6\nvalue = [6, 2, 1]"] ;
176 -> 182 ;
183 [label="X[6] <= -0.246\ngini = 0.444\nsamples = 3\nvalue = [0, 2, 1]"] ;
182 -> 183 ;
184 [label="gini = 0.0\nsamples = 1\nvalue = [0, 0, 1]"] ;
183 -> 184 ;
185 [label="gini = 0.0\nsamples = 2\nvalue = [0, 2, 0]"] ;
183 -> 185 ;
186 [label="gini = 0.0\nsamples = 3\nvalue = [6, 0, 0]"] ;
182 -> 186 ;
187 [label="X[1] <= -0.501\ngini = 0.063\nsamples = 145\nvalue = [2, 5, 211]"] ;
165 -> 187 ;
188 [label="X[3] <= -0.414\ngini = 0.013\nsamples = 98\nvalue = [1, 0, 154]"] ;
187 -> 188 ;
189 [label="gini = 0.0\nsamples = 85\nvalue = [0, 0, 136]"] ;
188 -> 189 ;
190 [label="X[3] <= -0.414\ngini = 0.1\nsamples = 13\nvalue = [1, 0, 18]"] ;
188 -> 190 ;
191 [label="gini = 0.0\nsamples = 1\nvalue = [1, 0, 0]"] ;
190 -> 191 ;
192 [label="gini = 0.0\nsamples = 12\nvalue = [0, 0, 18]"] ;
190 -> 192 ;
193 [label="X[5] <= -0.364\ngini = 0.175\nsamples = 47\nvalue = [1, 5, 57]"] ;
187 -> 193 ;
194 [label="X[7] <= -0.132\ngini = 0.375\nsamples = 3\nvalue = [0, 3, 1]"] ;
193 -> 194 ;
195 [label="gini = 0.0\nsamples = 1\nvalue = [0, 0, 1]"] ;
194 -> 195 ;
196 [label="gini = 0.0\nsamples = 2\nvalue = [0, 3, 0]"] ;
194 -> 196 ;
197 [label="X[4] <= -0.298\ngini = 0.098\nsamples = 44\nvalue = [1, 2, 56]"] ;
193 -> 197 ;
198 [label="X[7] <= -0.133\ngini = 0.07\nsamples = 42\nvalue = [1, 1, 54]"] ;
197 -> 198 ;
199 [label="X[7] <= -0.133\ngini = 0.278\nsamples = 3\nvalue = [0, 1, 5]"] ;
198 -> 199 ;
200 [label="gini = 0.0\nsamples = 2\nvalue = [0, 0, 5]"] ;
199 -> 200 ;
201 [label="gini = 0.0\nsamples = 1\nvalue = [0, 1, 0]"] ;
199 -> 201 ;
202 [label="X[1] <= 2.009\ngini = 0.039\nsamples = 39\nvalue = [1, 0, 49]"] ;
198 -> 202 ;
203 [label="X[6] <= -0.246\ngini = 0.18\nsamples = 8\nvalue = [1, 0, 9]"] ;
202 -> 203 ;
204 [label="gini = 0.0\nsamples = 7\nvalue = [0, 0, 9]"] ;
203 -> 204 ;
205 [label="gini = 0.0\nsamples = 1\nvalue = [1, 0, 0]"] ;
203 -> 205 ;
206 [label="gini = 0.0\nsamples = 31\nvalue = [0, 0, 40]"] ;
202 -> 206 ;
207 [label="X[1] <= 0.758\ngini = 0.444\nsamples = 2\nvalue = [0, 1, 2]"] ;
197 -> 207 ;
208 [label="gini = 0.0\nsamples = 1\nvalue = [0, 1, 0]"] ;
207 -> 208 ;
209 [label="gini = 0.0\nsamples = 1\nvalue = [0, 0, 2]"] ;
207 -> 209 ;
210 [label="X[0] <= -0.518\ngini = 0.543\nsamples = 1355\nvalue = [974, 1088, 103]"] ;
0 -> 210 [labeldistance=2.5, labelangle=-45, headlabel="False"] ;
211 [label="X[5] <= -0.365\ngini = 0.335\nsamples = 206\nvalue = [266, 37, 28]"] ;
210 -> 211 ;
212 [label="gini = 0.0\nsamples = 1\nvalue = [0, 3, 0]"] ;
211 -> 212 ;
213 [label="X[6] <= -0.245\ngini = 0.324\nsamples = 205\nvalue = [266, 34, 28]"] ;
211 -> 213 ;
214 [label="X[6] <= -0.245\ngini = 0.51\nsamples = 35\nvalue = [31, 1, 24]"] ;
213 -> 214 ;
215 [label="X[3] <= -0.413\ngini = 0.491\nsamples = 31\nvalue = [31, 1, 19]"] ;
214 -> 215 ;
216 [label="gini = 0.0\nsamples = 12\nvalue = [0, 0, 18]"] ;
215 -> 216 ;
217 [label="X[1] <= 2.012\ngini = 0.116\nsamples = 19\nvalue = [31, 1, 1]"] ;
215 -> 217 ;
218 [label="X[7] <= -0.131\ngini = 0.061\nsamples = 18\nvalue = [31, 0, 1]"] ;
217 -> 218 ;
219 [label="gini = 0.0\nsamples = 17\nvalue = [31, 0, 0]"] ;
218 -> 219 ;
220 [label="gini = 0.0\nsamples = 1\nvalue = [0, 0, 1]"] ;
218 -> 220 ;
221 [label="gini = 0.0\nsamples = 1\nvalue = [0, 1, 0]"] ;
217 -> 221 ;
222 [label="gini = 0.0\nsamples = 4\nvalue = [0, 0, 5]"] ;
214 -> 222 ;
223 [label="X[2] <= -0.505\ngini = 0.239\nsamples = 170\nvalue = [235, 33, 4]"] ;
213 -> 223 ;
224 [label="X[0] <= -0.521\ngini = 0.161\nsamples = 135\nvalue = [196, 19, 0]"] ;
223 -> 224 ;
225 [label="X[0] <= -0.522\ngini = 0.131\nsamples = 123\nvalue = [185, 14, 0]"] ;
224 -> 225 ;
226 [label="X[4] <= -0.299\ngini = 0.167\nsamples = 89\nvalue = [128, 13, 0]"] ;
225 -> 226 ;
227 [label="X[4] <= -0.3\ngini = 0.028\nsamples = 41\nvalue = [69, 1, 0]"] ;
226 -> 227 ;
228 [label="gini = 0.0\nsamples = 25\nvalue = [45, 0, 0]"] ;
227 -> 228 ;
229 [label="X[1] <= -0.508\ngini = 0.077\nsamples = 16\nvalue = [24, 1, 0]"] ;
227 -> 229 ;
230 [label="gini = 0.0\nsamples = 10\nvalue = [15, 0, 0]"] ;
229 -> 230 ;
231 [label="X[1] <= -0.508\ngini = 0.18\nsamples = 6\nvalue = [9, 1, 0]"] ;
229 -> 231 ;
232 [label="gini = 0.0\nsamples = 1\nvalue = [0, 1, 0]"] ;
231 -> 232 ;
233 [label="gini = 0.0\nsamples = 5\nvalue = [9, 0, 0]"] ;
231 -> 233 ;
234 [label="X[4] <= -0.299\ngini = 0.281\nsamples = 48\nvalue = [59, 12, 0]"] ;
226 -> 234 ;
235 [label="gini = 0.0\nsamples = 1\nvalue = [0, 2, 0]"] ;
234 -> 235 ;
236 [label="X[1] <= -0.51\ngini = 0.248\nsamples = 47\nvalue = [59, 10, 0]"] ;
234 -> 236 ;
237 [label="X[5] <= -0.362\ngini = 0.067\nsamples = 18\nvalue = [28, 1, 0]"] ;
236 -> 237 ;
238 [label="gini = 0.0\nsamples = 15\nvalue = [26, 0, 0]"] ;
237 -> 238 ;
239 [label="X[6] <= -0.244\ngini = 0.444\nsamples = 3\nvalue = [2, 1, 0]"] ;
237 -> 239 ;
240 [label="gini = 0.0\nsamples = 1\nvalue = [0, 1, 0]"] ;
239 -> 240 ;
241 [label="gini = 0.0\nsamples = 2\nvalue = [2, 0, 0]"] ;
239 -> 241 ;
242 [label="X[6] <= -0.245\ngini = 0.349\nsamples = 29\nvalue = [31, 9, 0]"] ;
236 -> 242 ;
243 [label="X[0] <= -0.524\ngini = 0.5\nsamples = 7\nvalue = [5, 5, 0]"] ;
242 -> 243 ;
244 [label="X[3] <= 2.426\ngini = 0.408\nsamples = 4\nvalue = [2, 5, 0]"] ;
243 -> 244 ;
245 [label="gini = 0.0\nsamples = 2\nvalue = [0, 5, 0]"] ;
244 -> 245 ;
246 [label="gini = 0.0\nsamples = 2\nvalue = [2, 0, 0]"] ;
244 -> 246 ;
247 [label="gini = 0.0\nsamples = 3\nvalue = [3, 0, 0]"] ;
243 -> 247 ;
248 [label="X[3] <= -0.409\ngini = 0.231\nsamples = 22\nvalue = [26, 4, 0]"] ;
242 -> 248 ;
249 [label="X[0] <= -0.522\ngini = 0.298\nsamples = 17\nvalue = [18, 4, 0]"] ;
248 -> 249 ;
250 [label="X[3] <= -0.409\ngini = 0.18\nsamples = 15\nvalue = [18, 2, 0]"] ;
249 -> 250 ;
251 [label="X[1] <= -0.509\ngini = 0.1\nsamples = 14\nvalue = [18, 1, 0]"] ;
250 -> 251 ;
252 [label="X[1] <= -0.509\ngini = 0.375\nsamples = 3\nvalue = [3, 1, 0]"] ;
251 -> 252 ;
253 [label="gini = 0.0\nsamples = 2\nvalue = [3, 0, 0]"] ;
252 -> 253 ;
254 [label="gini = 0.0\nsamples = 1\nvalue = [0, 1, 0]"] ;
252 -> 254 ;
255 [label="gini = 0.0\nsamples = 11\nvalue = [15, 0, 0]"] ;
251 -> 255 ;
256 [label="gini = 0.0\nsamples = 1\nvalue = [0, 1, 0]"] ;
250 -> 256 ;
257 [label="gini = 0.0\nsamples = 2\nvalue = [0, 2, 0]"] ;
249 -> 257 ;
258 [label="gini = 0.0\nsamples = 5\nvalue = [8, 0, 0]"] ;
248 -> 258 ;
259 [label="X[4] <= -0.297\ngini = 0.034\nsamples = 34\nvalue = [57, 1, 0]"] ;
225 -> 259 ;
260 [label="gini = 0.0\nsamples = 30\nvalue = [50, 0, 0]"] ;
259 -> 260 ;
261 [label="X[7] <= -0.134\ngini = 0.219\nsamples = 4\nvalue = [7, 1, 0]"] ;
259 -> 261 ;
262 [label="gini = 0.0\nsamples = 1\nvalue = [0, 1, 0]"] ;
261 -> 262 ;
263 [label="gini = 0.0\nsamples = 3\nvalue = [7, 0, 0]"] ;
261 -> 263 ;
264 [label="X[6] <= -0.245\ngini = 0.43\nsamples = 12\nvalue = [11, 5, 0]"] ;
224 -> 264 ;
265 [label="X[3] <= -0.413\ngini = 0.219\nsamples = 5\nvalue = [7, 1, 0]"] ;
264 -> 265 ;
266 [label="gini = 0.0\nsamples = 1\nvalue = [0, 1, 0]"] ;
265 -> 266 ;
267 [label="gini = 0.0\nsamples = 4\nvalue = [7, 0, 0]"] ;
265 -> 267 ;
268 [label="X[6] <= -0.243\ngini = 0.5\nsamples = 7\nvalue = [4, 4, 0]"] ;
264 -> 268 ;
269 [label="X[4] <= -0.301\ngini = 0.32\nsamples = 4\nvalue = [1, 4, 0]"] ;
268 -> 269 ;
270 [label="gini = 0.0\nsamples = 1\nvalue = [1, 0, 0]"] ;
269 -> 270 ;
271 [label="gini = 0.0\nsamples = 3\nvalue = [0, 4, 0]"] ;
269 -> 271 ;
272 [label="gini = 0.0\nsamples = 3\nvalue = [3, 0, 0]"] ;
268 -> 272 ;
273 [label="X[3] <= -0.414\ngini = 0.467\nsamples = 35\nvalue = [39, 14, 4]"] ;
223 -> 273 ;
274 [label="gini = 0.0\nsamples = 3\nvalue = [0, 0, 4]"] ;
273 -> 274 ;
275 [label="X[6] <= -0.244\ngini = 0.389\nsamples = 32\nvalue = [39, 14, 0]"] ;
273 -> 275 ;
276 [label="gini = 0.0\nsamples = 11\nvalue = [18, 0, 0]"] ;
275 -> 276 ;
277 [label="X[4] <= -0.297\ngini = 0.48\nsamples = 21\nvalue = [21, 14, 0]"] ;
275 -> 277 ;
278 [label="X[6] <= -0.244\ngini = 0.417\nsamples = 16\nvalue = [19, 8, 0]"] ;
277 -> 278 ;
279 [label="gini = 0.0\nsamples = 1\nvalue = [0, 1, 0]"] ;
278 -> 279 ;
280 [label="X[5] <= -0.36\ngini = 0.393\nsamples = 15\nvalue = [19, 7, 0]"] ;
278 -> 280 ;
281 [label="X[0] <= -0.521\ngini = 0.33\nsamples = 14\nvalue = [19, 5, 0]"] ;
280 -> 281 ;
282 [label="X[6] <= -0.241\ngini = 0.117\nsamples = 9\nvalue = [15, 1, 0]"] ;
281 -> 282 ;
283 [label="gini = 0.0\nsamples = 7\nvalue = [12, 0, 0]"] ;
282 -> 283 ;
284 [label="X[3] <= 2.429\ngini = 0.375\nsamples = 2\nvalue = [3, 1, 0]"] ;
282 -> 284 ;
285 [label="gini = 0.0\nsamples = 1\nvalue = [0, 1, 0]"] ;
284 -> 285 ;
286 [label="gini = 0.0\nsamples = 1\nvalue = [3, 0, 0]"] ;
284 -> 286 ;
287 [label="X[5] <= -0.363\ngini = 0.5\nsamples = 5\nvalue = [4, 4, 0]"] ;
281 -> 287 ;
288 [label="gini = 0.0\nsamples = 2\nvalue = [0, 3, 0]"] ;
287 -> 288 ;
289 [label="X[4] <= -0.299\ngini = 0.32\nsamples = 3\nvalue = [4, 1, 0]"] ;
287 -> 289 ;
290 [label="gini = 0.0\nsamples = 1\nvalue = [0, 1, 0]"] ;
289 -> 290 ;
291 [label="gini = 0.0\nsamples = 2\nvalue = [4, 0, 0]"] ;
289 -> 291 ;
292 [label="gini = 0.0\nsamples = 1\nvalue = [0, 2, 0]"] ;
280 -> 292 ;
293 [label="X[0] <= -0.522\ngini = 0.375\nsamples = 5\nvalue = [2, 6, 0]"] ;
277 -> 293 ;
294 [label="gini = 0.0\nsamples = 1\nvalue = [1, 0, 0]"] ;
293 -> 294 ;
295 [label="X[4] <= -0.295\ngini = 0.245\nsamples = 4\nvalue = [1, 6, 0]"] ;
293 -> 295 ;
296 [label="gini = 0.0\nsamples = 2\nvalue = [0, 4, 0]"] ;
295 -> 296 ;
297 [label="X[4] <= -0.295\ngini = 0.444\nsamples = 2\nvalue = [1, 2, 0]"] ;
295 -> 297 ;
298 [label="gini = 0.0\nsamples = 1\nvalue = [1, 0, 0]"] ;
297 -> 298 ;
299 [label="gini = 0.0\nsamples = 1\nvalue = [0, 2, 0]"] ;
297 -> 299 ;
300 [label="X[3] <= -0.414\ngini = 0.521\nsamples = 1149\nvalue = [708, 1051, 75]"] ;
210 -> 300 ;
301 [label="X[4] <= -0.299\ngini = 0.66\nsamples = 63\nvalue = [27, 37, 37]"] ;
300 -> 301 ;
302 [label="X[2] <= -0.506\ngini = 0.652\nsamples = 50\nvalue = [22, 24, 35]"] ;
301 -> 302 ;
303 [label="X[5] <= -0.363\ngini = 0.608\nsamples = 31\nvalue = [21, 23, 7]"] ;
302 -> 303 ;
304 [label="X[2] <= -0.508\ngini = 0.56\nsamples = 28\nvalue = [21, 21, 3]"] ;
303 -> 304 ;
305 [label="X[4] <= -0.301\ngini = 0.32\nsamples = 6\nvalue = [8, 2, 0]"] ;
304 -> 305 ;
306 [label="X[1] <= -0.509\ngini = 0.444\nsamples = 2\nvalue = [1, 2, 0]"] ;
305 -> 306 ;
307 [label="gini = 0.0\nsamples = 1\nvalue = [0, 2, 0]"] ;
306 -> 307 ;
308 [label="gini = 0.0\nsamples = 1\nvalue = [1, 0, 0]"] ;
306 -> 308 ;
309 [label="gini = 0.0\nsamples = 4\nvalue = [7, 0, 0]"] ;
305 -> 309 ;
310 [label="X[3] <= -0.414\ngini = 0.56\nsamples = 22\nvalue = [13, 19, 3]"] ;
304 -> 310 ;
311 [label="gini = 0.0\nsamples = 3\nvalue = [0, 0, 3]"] ;
310 -> 311 ;
312 [label="X[1] <= 2.011\ngini = 0.482\nsamples = 19\nvalue = [13, 19, 0]"] ;
310 -> 312 ;
313 [label="X[4] <= -0.3\ngini = 0.386\nsamples = 13\nvalue = [6, 17, 0]"] ;
312 -> 313 ;
314 [label="X[0] <= -0.508\ngini = 0.308\nsamples = 12\nvalue = [4, 17, 0]"] ;
313 -> 314 ;
315 [label="X[0] <= -0.517\ngini = 0.5\nsamples = 3\nvalue = [3, 3, 0]"] ;
314 -> 315 ;
316 [label="gini = 0.0\nsamples = 1\nvalue = [0, 3, 0]"] ;
315 -> 316 ;
317 [label="gini = 0.0\nsamples = 2\nvalue = [3, 0, 0]"] ;
315 -> 317 ;
318 [label="X[4] <= -0.301\ngini = 0.124\nsamples = 9\nvalue = [1, 14, 0]"] ;
314 -> 318 ;
319 [label="X[5] <= -0.364\ngini = 0.245\nsamples = 5\nvalue = [1, 6, 0]"] ;
318 -> 319 ;
320 [label="X[6] <= -0.245\ngini = 0.444\nsamples = 3\nvalue = [1, 2, 0]"] ;
319 -> 320 ;
321 [label="gini = 0.0\nsamples = 1\nvalue = [1, 0, 0]"] ;
320 -> 321 ;
322 [label="gini = 0.0\nsamples = 2\nvalue = [0, 2, 0]"] ;
320 -> 322 ;
323 [label="gini = 0.0\nsamples = 2\nvalue = [0, 4, 0]"] ;
319 -> 323 ;
324 [label="gini = 0.0\nsamples = 4\nvalue = [0, 8, 0]"] ;
318 -> 324 ;
325 [label="gini = 0.0\nsamples = 1\nvalue = [2, 0, 0]"] ;
313 -> 325 ;
326 [label="X[6] <= -0.245\ngini = 0.346\nsamples = 6\nvalue = [7, 2, 0]"] ;
312 -> 326 ;
327 [label="gini = 0.0\nsamples = 1\nvalue = [0, 1, 0]"] ;
326 -> 327 ;
328 [label="X[1] <= 2.013\ngini = 0.219\nsamples = 5\nvalue = [7, 1, 0]"] ;
326 -> 328 ;
329 [label="gini = 0.0\nsamples = 3\nvalue = [6, 0, 0]"] ;
328 -> 329 ;
330 [label="X[0] <= -0.458\ngini = 0.5\nsamples = 2\nvalue = [1, 1, 0]"] ;
328 -> 330 ;
331 [label="gini = 0.0\nsamples = 1\nvalue = [1, 0, 0]"] ;
330 -> 331 ;
332 [label="gini = 0.0\nsamples = 1\nvalue = [0, 1, 0]"] ;
330 -> 332 ;
333 [label="X[2] <= -0.507\ngini = 0.444\nsamples = 3\nvalue = [0, 2, 4]"] ;
303 -> 333 ;
334 [label="gini = 0.0\nsamples = 1\nvalue = [0, 2, 0]"] ;
333 -> 334 ;
335 [label="gini = 0.0\nsamples = 2\nvalue = [0, 0, 4]"] ;
333 -> 335 ;
336 [label="X[7] <= -0.135\ngini = 0.127\nsamples = 19\nvalue = [1, 1, 28]"] ;
302 -> 336 ;
337 [label="gini = 0.0\nsamples = 1\nvalue = [0, 1, 0]"] ;
336 -> 337 ;
338 [label="X[1] <= -0.51\ngini = 0.067\nsamples = 18\nvalue = [1, 0, 28]"] ;
336 -> 338 ;
339 [label="gini = 0.0\nsamples = 9\nvalue = [0, 0, 18]"] ;
338 -> 339 ;
340 [label="X[7] <= -0.132\ngini = 0.165\nsamples = 9\nvalue = [1, 0, 10]"] ;
338 -> 340 ;
341 [label="X[3] <= -0.414\ngini = 0.444\nsamples = 3\nvalue = [1, 0, 2]"] ;
340 -> 341 ;
342 [label="gini = 0.0\nsamples = 1\nvalue = [1, 0, 0]"] ;
341 -> 342 ;
343 [label="gini = 0.0\nsamples = 2\nvalue = [0, 0, 2]"] ;
341 -> 343 ;
344 [label="gini = 0.0\nsamples = 6\nvalue = [0, 0, 8]"] ;
340 -> 344 ;
345 [label="X[0] <= 2.182\ngini = 0.505\nsamples = 13\nvalue = [5, 13, 2]"] ;
301 -> 345 ;
346 [label="X[1] <= -0.502\ngini = 0.438\nsamples = 12\nvalue = [3, 13, 2]"] ;
345 -> 346 ;
347 [label="gini = 0.0\nsamples = 1\nvalue = [3, 0, 0]"] ;
346 -> 347 ;
348 [label="X[6] <= -0.245\ngini = 0.231\nsamples = 11\nvalue = [0, 13, 2]"] ;
346 -> 348 ;
349 [label="gini = 0.0\nsamples = 2\nvalue = [0, 0, 2]"] ;
348 -> 349 ;
350 [label="gini = 0.0\nsamples = 9\nvalue = [0, 13, 0]"] ;
348 -> 350 ;
351 [label="gini = 0.0\nsamples = 1\nvalue = [2, 0, 0]"] ;
345 -> 351 ;
352 [label="X[1] <= -0.508\ngini = 0.503\nsamples = 1086\nvalue = [681, 1014, 38]"] ;
300 -> 352 ;
353 [label="X[2] <= -0.499\ngini = 0.546\nsamples = 171\nvalue = [145, 104, 17]"] ;
352 -> 353 ;
354 [label="X[1] <= -0.509\ngini = 0.497\nsamples = 150\nvalue = [134, 99, 2]"] ;
353 -> 354 ;
355 [label="X[6] <= -0.244\ngini = 0.471\nsamples = 92\nvalue = [92, 53, 1]"] ;
354 -> 355 ;
356 [label="X[6] <= -0.245\ngini = 0.499\nsamples = 71\nvalue = [64, 48, 1]"] ;
355 -> 356 ;
357 [label="X[0] <= -0.506\ngini = 0.491\nsamples = 13\nvalue = [5, 11, 1]"] ;
356 -> 357 ;
358 [label="X[1] <= -0.511\ngini = 0.594\nsamples = 6\nvalue = [4, 3, 1]"] ;
357 -> 358 ;
359 [label="gini = 0.0\nsamples = 2\nvalue = [0, 2, 0]"] ;
358 -> 359 ;
360 [label="X[6] <= -0.245\ngini = 0.5\nsamples = 4\nvalue = [4, 1, 1]"] ;
358 -> 360 ;
361 [label="gini = 0.0\nsamples = 2\nvalue = [4, 0, 0]"] ;
360 -> 361 ;
362 [label="X[3] <= -0.414\ngini = 0.5\nsamples = 2\nvalue = [0, 1, 1]"] ;
360 -> 362 ;
363 [label="gini = 0.0\nsamples = 1\nvalue = [0, 0, 1]"] ;
362 -> 363 ;
364 [label="gini = 0.0\nsamples = 1\nvalue = [0, 1, 0]"] ;
362 -> 364 ;
365 [label="X[6] <= -0.246\ngini = 0.198\nsamples = 7\nvalue = [1, 8, 0]"] ;
357 -> 365 ;
366 [label="gini = 0.0\nsamples = 1\nvalue = [1, 0, 0]"] ;
365 -> 366 ;
367 [label="gini = 0.0\nsamples = 6\nvalue = [0, 8, 0]"] ;
365 -> 367 ;
368 [label="X[6] <= -0.245\ngini = 0.474\nsamples = 58\nvalue = [59, 37, 0]"] ;
356 -> 368 ;
369 [label="gini = 0.0\nsamples = 6\nvalue = [13, 0, 0]"] ;
368 -> 369 ;
370 [label="X[4] <= -0.301\ngini = 0.494\nsamples = 52\nvalue = [46, 37, 0]"] ;
368 -> 370 ;
371 [label="X[7] <= -0.134\ngini = 0.165\nsamples = 7\nvalue = [1, 10, 0]"] ;
370 -> 371 ;
372 [label="gini = 0.0\nsamples = 5\nvalue = [0, 8, 0]"] ;
371 -> 372 ;
373 [label="X[6] <= -0.245\ngini = 0.444\nsamples = 2\nvalue = [1, 2, 0]"] ;
371 -> 373 ;
374 [label="gini = 0.0\nsamples = 1\nvalue = [1, 0, 0]"] ;
373 -> 374 ;
375 [label="gini = 0.0\nsamples = 1\nvalue = [0, 2, 0]"] ;
373 -> 375 ;
376 [label="X[6] <= -0.244\ngini = 0.469\nsamples = 45\nvalue = [45, 27, 0]"] ;
370 -> 376 ;
377 [label="X[1] <= -0.51\ngini = 0.385\nsamples = 30\nvalue = [37, 13, 0]"] ;
376 -> 377 ;
378 [label="X[0] <= -0.511\ngini = 0.491\nsamples = 18\nvalue = [17, 13, 0]"] ;
377 -> 378 ;
379 [label="gini = 0.0\nsamples = 4\nvalue = [7, 0, 0]"] ;
378 -> 379 ;
380 [label="X[1] <= -0.51\ngini = 0.491\nsamples = 14\nvalue = [10, 13, 0]"] ;
378 -> 380 ;
381 [label="X[2] <= -0.506\ngini = 0.444\nsamples = 10\nvalue = [10, 5, 0]"] ;
380 -> 381 ;
382 [label="gini = 0.0\nsamples = 4\nvalue = [7, 0, 0]"] ;
381 -> 382 ;
383 [label="X[3] <= -0.412\ngini = 0.469\nsamples = 6\nvalue = [3, 5, 0]"] ;
381 -> 383 ;
384 [label="gini = 0.0\nsamples = 3\nvalue = [0, 5, 0]"] ;
383 -> 384 ;
385 [label="gini = 0.0\nsamples = 3\nvalue = [3, 0, 0]"] ;
383 -> 385 ;
386 [label="gini = 0.0\nsamples = 4\nvalue = [0, 8, 0]"] ;
380 -> 386 ;
387 [label="gini = 0.0\nsamples = 12\nvalue = [20, 0, 0]"] ;
377 -> 387 ;
388 [label="X[2] <= -0.507\ngini = 0.463\nsamples = 15\nvalue = [8, 14, 0]"] ;
376 -> 388 ;
389 [label="X[0] <= 0.868\ngini = 0.32\nsamples = 4\nvalue = [4, 1, 0]"] ;
388 -> 389 ;
390 [label="X[6] <= -0.244\ngini = 0.5\nsamples = 2\nvalue = [1, 1, 0]"] ;
389 -> 390 ;
391 [label="gini = 0.0\nsamples = 1\nvalue = [0, 1, 0]"] ;
390 -> 391 ;
392 [label="gini = 0.0\nsamples = 1\nvalue = [1, 0, 0]"] ;
390 -> 392 ;
393 [label="gini = 0.0\nsamples = 2\nvalue = [3, 0, 0]"] ;
389 -> 393 ;
394 [label="X[2] <= -0.504\ngini = 0.36\nsamples = 11\nvalue = [4, 13, 0]"] ;
388 -> 394 ;
395 [label="X[0] <= 0.956\ngini = 0.305\nsamples = 10\nvalue = [3, 13, 0]"] ;
394 -> 395 ;
396 [label="gini = 0.0\nsamples = 7\nvalue = [0, 10, 0]"] ;
395 -> 396 ;
397 [label="X[1] <= -0.51\ngini = 0.5\nsamples = 3\nvalue = [3, 3, 0]"] ;
395 -> 397 ;
398 [label="gini = 0.0\nsamples = 2\nvalue = [3, 0, 0]"] ;
397 -> 398 ;
399 [label="gini = 0.0\nsamples = 1\nvalue = [0, 3, 0]"] ;
397 -> 399 ;
400 [label="gini = 0.0\nsamples = 1\nvalue = [1, 0, 0]"] ;
394 -> 400 ;
401 [label="X[0] <= -0.469\ngini = 0.257\nsamples = 21\nvalue = [28, 5, 0]"] ;
355 -> 401 ;
402 [label="X[3] <= -0.409\ngini = 0.43\nsamples = 12\nvalue = [11, 5, 0]"] ;
401 -> 402 ;
403 [label="gini = 0.0\nsamples = 5\nvalue = [7, 0, 0]"] ;
402 -> 403 ;
404 [label="X[5] <= -0.362\ngini = 0.494\nsamples = 7\nvalue = [4, 5, 0]"] ;
402 -> 404 ;
405 [label="gini = 0.0\nsamples = 4\nvalue = [4, 0, 0]"] ;
404 -> 405 ;
406 [label="gini = 0.0\nsamples = 3\nvalue = [0, 5, 0]"] ;
404 -> 406 ;
407 [label="gini = 0.0\nsamples = 9\nvalue = [17, 0, 0]"] ;
401 -> 407 ;
408 [label="X[3] <= -0.413\ngini = 0.51\nsamples = 58\nvalue = [42, 46, 1]"] ;
354 -> 408 ;
409 [label="X[5] <= -0.364\ngini = 0.344\nsamples = 16\nvalue = [4, 19, 1]"] ;
408 -> 409 ;
410 [label="gini = 0.0\nsamples = 9\nvalue = [0, 15, 0]"] ;
409 -> 410 ;
411 [label="X[5] <= -0.364\ngini = 0.593\nsamples = 7\nvalue = [4, 4, 1]"] ;
409 -> 411 ;
412 [label="gini = 0.0\nsamples = 1\nvalue = [2, 0, 0]"] ;
411 -> 412 ;
413 [label="X[1] <= -0.509\ngini = 0.571\nsamples = 6\nvalue = [2, 4, 1]"] ;
411 -> 413 ;
414 [label="gini = 0.0\nsamples = 2\nvalue = [0, 3, 0]"] ;
413 -> 414 ;
415 [label="X[5] <= -0.362\ngini = 0.625\nsamples = 4\nvalue = [2, 1, 1]"] ;
413 -> 415 ;
416 [label="gini = 0.0\nsamples = 2\nvalue = [2, 0, 0]"] ;
415 -> 416 ;
417 [label="X[5] <= -0.361\ngini = 0.5\nsamples = 2\nvalue = [0, 1, 1]"] ;
415 -> 417 ;
418 [label="gini = 0.0\nsamples = 1\nvalue = [0, 1, 0]"] ;
417 -> 418 ;
419 [label="gini = 0.0\nsamples = 1\nvalue = [0, 0, 1]"] ;
417 -> 419 ;
420 [label="X[0] <= -0.517\ngini = 0.486\nsamples = 42\nvalue = [38, 27, 0]"] ;
408 -> 420 ;
421 [label="gini = 0.0\nsamples = 1\nvalue = [0, 4, 0]"] ;
420 -> 421 ;
422 [label="X[4] <= -0.301\ngini = 0.47\nsamples = 41\nvalue = [38, 23, 0]"] ;
420 -> 422 ;
423 [label="gini = 0.0\nsamples = 4\nvalue = [6, 0, 0]"] ;
422 -> 423 ;
424 [label="X[1] <= -0.508\ngini = 0.487\nsamples = 37\nvalue = [32, 23, 0]"] ;
422 -> 424 ;
425 [label="X[4] <= -0.301\ngini = 0.497\nsamples = 34\nvalue = [27, 23, 0]"] ;
424 -> 425 ;
426 [label="gini = 0.0\nsamples = 3\nvalue = [0, 8, 0]"] ;
425 -> 426 ;
427 [label="X[2] <= -0.504\ngini = 0.459\nsamples = 31\nvalue = [27, 15, 0]"] ;
425 -> 427 ;
428 [label="X[5] <= -0.363\ngini = 0.411\nsamples = 28\nvalue = [27, 11, 0]"] ;
427 -> 428 ;
429 [label="X[6] <= -0.244\ngini = 0.219\nsamples = 18\nvalue = [21, 3, 0]"] ;
428 -> 429 ;
430 [label="X[4] <= -0.298\ngini = 0.444\nsamples = 6\nvalue = [4, 2, 0]"] ;
429 -> 430 ;
431 [label="gini = 0.0\nsamples = 3\nvalue = [3, 0, 0]"] ;
430 -> 431 ;
432 [label="X[1] <= -0.508\ngini = 0.444\nsamples = 3\nvalue = [1, 2, 0]"] ;
430 -> 432 ;
433 [label="gini = 0.0\nsamples = 1\nvalue = [1, 0, 0]"] ;
432 -> 433 ;
434 [label="gini = 0.0\nsamples = 2\nvalue = [0, 2, 0]"] ;
432 -> 434 ;
435 [label="X[4] <= -0.296\ngini = 0.105\nsamples = 12\nvalue = [17, 1, 0]"] ;
429 -> 435 ;
436 [label="gini = 0.0\nsamples = 9\nvalue = [14, 0, 0]"] ;
435 -> 436 ;
437 [label="X[4] <= -0.296\ngini = 0.375\nsamples = 3\nvalue = [3, 1, 0]"] ;
435 -> 437 ;
438 [label="gini = 0.0\nsamples = 1\nvalue = [0, 1, 0]"] ;
437 -> 438 ;
439 [label="gini = 0.0\nsamples = 2\nvalue = [3, 0, 0]"] ;
437 -> 439 ;
440 [label="X[3] <= -0.41\ngini = 0.49\nsamples = 10\nvalue = [6, 8, 0]"] ;
428 -> 440 ;
441 [label="gini = 0.0\nsamples = 3\nvalue = [0, 4, 0]"] ;
440 -> 441 ;
442 [label="X[7] <= -0.131\ngini = 0.48\nsamples = 7\nvalue = [6, 4, 0]"] ;
440 -> 442 ;
443 [label="gini = 0.0\nsamples = 4\nvalue = [6, 0, 0]"] ;
442 -> 443 ;
444 [label="gini = 0.0\nsamples = 3\nvalue = [0, 4, 0]"] ;
442 -> 444 ;
445 [label="gini = 0.0\nsamples = 3\nvalue = [0, 4, 0]"] ;
427 -> 445 ;
446 [label="gini = 0.0\nsamples = 3\nvalue = [5, 0, 0]"] ;
424 -> 446 ;
447 [label="X[7] <= -0.13\ngini = 0.614\nsamples = 21\nvalue = [11, 5, 15]"] ;
353 -> 447 ;
448 [label="X[5] <= 1.203\ngini = 0.612\nsamples = 15\nvalue = [11, 5, 5]"] ;
447 -> 448 ;
449 [label="X[6] <= -0.245\ngini = 0.519\nsamples = 12\nvalue = [11, 3, 3]"] ;
448 -> 449 ;
450 [label="X[1] <= -0.509\ngini = 0.375\nsamples = 2\nvalue = [0, 1, 3]"] ;
449 -> 450 ;
451 [label="gini = 0.0\nsamples = 1\nvalue = [0, 0, 3]"] ;
450 -> 451 ;
452 [label="gini = 0.0\nsamples = 1\nvalue = [0, 1, 0]"] ;
450 -> 452 ;
453 [label="X[5] <= -0.362\ngini = 0.26\nsamples = 10\nvalue = [11, 2, 0]"] ;
449 -> 453 ;
454 [label="gini = 0.0\nsamples = 7\nvalue = [8, 0, 0]"] ;
453 -> 454 ;
455 [label="X[4] <= 1.527\ngini = 0.48\nsamples = 3\nvalue = [3, 2, 0]"] ;
453 -> 455 ;
456 [label="gini = 0.0\nsamples = 2\nvalue = [3, 0, 0]"] ;
455 -> 456 ;
457 [label="gini = 0.0\nsamples = 1\nvalue = [0, 2, 0]"] ;
455 -> 457 ;
458 [label="X[3] <= -0.413\ngini = 0.5\nsamples = 3\nvalue = [0, 2, 2]"] ;
448 -> 458 ;
459 [label="gini = 0.0\nsamples = 2\nvalue = [0, 0, 2]"] ;
458 -> 459 ;
460 [label="gini = 0.0\nsamples = 1\nvalue = [0, 2, 0]"] ;
458 -> 460 ;
461 [label="gini = 0.0\nsamples = 6\nvalue = [0, 0, 10]"] ;
447 -> 461 ;
462 [label="X[7] <= -0.129\ngini = 0.482\nsamples = 915\nvalue = [536, 910, 21]"] ;
352 -> 462 ;
463 [label="X[0] <= -0.223\ngini = 0.455\nsamples = 713\nvalue = [393, 741, 2]"] ;
462 -> 463 ;
464 [label="X[2] <= -0.507\ngini = 0.441\nsamples = 653\nvalue = [338, 702, 2]"] ;
463 -> 464 ;
465 [label="X[7] <= -0.131\ngini = 0.178\nsamples = 46\nvalue = [7, 64, 0]"] ;
464 -> 465 ;
466 [label="X[6] <= -0.246\ngini = 0.138\nsamples = 44\nvalue = [5, 62, 0]"] ;
465 -> 466 ;
467 [label="X[6] <= -0.246\ngini = 0.5\nsamples = 2\nvalue = [1, 1, 0]"] ;
466 -> 467 ;
468 [label="gini = 0.0\nsamples = 1\nvalue = [0, 1, 0]"] ;
467 -> 468 ;
469 [label="gini = 0.0\nsamples = 1\nvalue = [1, 0, 0]"] ;
467 -> 469 ;
470 [label="X[2] <= -0.508\ngini = 0.116\nsamples = 42\nvalue = [4, 61, 0]"] ;
466 -> 470 ;
471 [label="gini = 0.0\nsamples = 23\nvalue = [0, 35, 0]"] ;
470 -> 471 ;
472 [label="X[2] <= -0.507\ngini = 0.231\nsamples = 19\nvalue = [4, 26, 0]"] ;
470 -> 472 ;
473 [label="gini = 0.0\nsamples = 1\nvalue = [1, 0, 0]"] ;
472 -> 473 ;
474 [label="X[7] <= -0.133\ngini = 0.185\nsamples = 18\nvalue = [3, 26, 0]"] ;
472 -> 474 ;
475 [label="X[5] <= -0.364\ngini = 0.266\nsamples = 12\nvalue = [3, 16, 0]"] ;
474 -> 475 ;
476 [label="gini = 0.0\nsamples = 4\nvalue = [0, 8, 0]"] ;
475 -> 476 ;
477 [label="X[4] <= -0.299\ngini = 0.397\nsamples = 8\nvalue = [3, 8, 0]"] ;
475 -> 477 ;
478 [label="gini = 0.0\nsamples = 4\nvalue = [0, 7, 0]"] ;
477 -> 478 ;
479 [label="X[1] <= 2.013\ngini = 0.375\nsamples = 4\nvalue = [3, 1, 0]"] ;
477 -> 479 ;
480 [label="gini = 0.0\nsamples = 3\nvalue = [3, 0, 0]"] ;
479 -> 480 ;
481 [label="gini = 0.0\nsamples = 1\nvalue = [0, 1, 0]"] ;
479 -> 481 ;
482 [label="gini = 0.0\nsamples = 6\nvalue = [0, 10, 0]"] ;
474 -> 482 ;
483 [label="X[7] <= -0.13\ngini = 0.5\nsamples = 2\nvalue = [2, 2, 0]"] ;
465 -> 483 ;
484 [label="gini = 0.0\nsamples = 1\nvalue = [2, 0, 0]"] ;
483 -> 484 ;
485 [label="gini = 0.0\nsamples = 1\nvalue = [0, 2, 0]"] ;
483 -> 485 ;
486 [label="X[0] <= -0.481\ngini = 0.452\nsamples = 607\nvalue = [331, 638, 2]"] ;
464 -> 486 ;
487 [label="X[7] <= -0.135\ngini = 0.497\nsamples = 183\nvalue = [120, 159, 2]"] ;
486 -> 487 ;
488 [label="gini = 0.0\nsamples = 2\nvalue = [6, 0, 0]"] ;
487 -> 488 ;
489 [label="X[2] <= -0.504\ngini = 0.494\nsamples = 181\nvalue = [114, 159, 2]"] ;
487 -> 489 ;
490 [label="X[6] <= -0.239\ngini = 0.433\nsamples = 114\nvalue = [54, 121, 1]"] ;
489 -> 490 ;
491 [label="X[3] <= -0.413\ngini = 0.424\nsamples = 111\nvalue = [51, 121, 1]"] ;
490 -> 491 ;
492 [label="X[5] <= -0.364\ngini = 0.498\nsamples = 39\nvalue = [28, 32, 0]"] ;
491 -> 492 ;
493 [label="X[0] <= -0.499\ngini = 0.444\nsamples = 19\nvalue = [20, 10, 0]"] ;
492 -> 493 ;
494 [label="X[0] <= -0.517\ngini = 0.188\nsamples = 12\nvalue = [17, 2, 0]"] ;
493 -> 494 ;
495 [label="gini = 0.0\nsamples = 1\nvalue = [0, 1, 0]"] ;
494 -> 495 ;
496 [label="X[2] <= -0.506\ngini = 0.105\nsamples = 11\nvalue = [17, 1, 0]"] ;
494 -> 496 ;
497 [label="gini = 0.0\nsamples = 8\nvalue = [15, 0, 0]"] ;
496 -> 497 ;
498 [label="X[5] <= -0.365\ngini = 0.444\nsamples = 3\nvalue = [2, 1, 0]"] ;
496 -> 498 ;
499 [label="gini = 0.0\nsamples = 1\nvalue = [0, 1, 0]"] ;
498 -> 499 ;
500 [label="gini = 0.0\nsamples = 2\nvalue = [2, 0, 0]"] ;
498 -> 500 ;
501 [label="X[2] <= -0.506\ngini = 0.397\nsamples = 7\nvalue = [3, 8, 0]"] ;
493 -> 501 ;
502 [label="X[0] <= -0.493\ngini = 0.375\nsamples = 3\nvalue = [3, 1, 0]"] ;
501 -> 502 ;
503 [label="gini = 0.0\nsamples = 1\nvalue = [0, 1, 0]"] ;
502 -> 503 ;
504 [label="gini = 0.0\nsamples = 2\nvalue = [3, 0, 0]"] ;
502 -> 504 ;
505 [label="gini = 0.0\nsamples = 4\nvalue = [0, 7, 0]"] ;
501 -> 505 ;
506 [label="X[3] <= -0.413\ngini = 0.391\nsamples = 20\nvalue = [8, 22, 0]"] ;
492 -> 506 ;
507 [label="X[4] <= -0.301\ngini = 0.302\nsamples = 17\nvalue = [5, 22, 0]"] ;
506 -> 507 ;
508 [label="gini = 0.0\nsamples = 2\nvalue = [3, 0, 0]"] ;
507 -> 508 ;
509 [label="X[4] <= -0.3\ngini = 0.153\nsamples = 15\nvalue = [2, 22, 0]"] ;
507 -> 509 ;
510 [label="X[0] <= -0.487\ngini = 0.32\nsamples = 7\nvalue = [2, 8, 0]"] ;
509 -> 510 ;
511 [label="gini = 0.0\nsamples = 6\nvalue = [0, 8, 0]"] ;
510 -> 511 ;
512 [label="gini = 0.0\nsamples = 1\nvalue = [2, 0, 0]"] ;
510 -> 512 ;
513 [label="gini = 0.0\nsamples = 8\nvalue = [0, 14, 0]"] ;
509 -> 513 ;
514 [label="gini = 0.0\nsamples = 3\nvalue = [3, 0, 0]"] ;
506 -> 514 ;
515 [label="X[5] <= -0.363\ngini = 0.338\nsamples = 72\nvalue = [23, 89, 1]"] ;
491 -> 515 ;
516 [label="X[4] <= -0.3\ngini = 0.236\nsamples = 41\nvalue = [9, 57, 0]"] ;
515 -> 516 ;
517 [label="gini = 0.0\nsamples = 10\nvalue = [0, 16, 0]"] ;
516 -> 517 ;
518 [label="X[1] <= -0.505\ngini = 0.295\nsamples = 31\nvalue = [9, 41, 0]"] ;
516 -> 518 ;
519 [label="X[5] <= -0.363\ngini = 0.48\nsamples = 3\nvalue = [3, 2, 0]"] ;
518 -> 519 ;
520 [label="gini = 0.0\nsamples = 2\nvalue = [3, 0, 0]"] ;
519 -> 520 ;
521 [label="gini = 0.0\nsamples = 1\nvalue = [0, 2, 0]"] ;
519 -> 521 ;
522 [label="X[2] <= -0.507\ngini = 0.231\nsamples = 28\nvalue = [6, 39, 0]"] ;
518 -> 522 ;
523 [label="X[7] <= -0.133\ngini = 0.48\nsamples = 4\nvalue = [3, 2, 0]"] ;
522 -> 523 ;
524 [label="gini = 0.0\nsamples = 1\nvalue = [0, 2, 0]"] ;
523 -> 524 ;
525 [label="gini = 0.0\nsamples = 3\nvalue = [3, 0, 0]"] ;
523 -> 525 ;
526 [label="X[5] <= -0.364\ngini = 0.139\nsamples = 24\nvalue = [3, 37, 0]"] ;
522 -> 526 ;
527 [label="gini = 0.0\nsamples = 11\nvalue = [0, 21, 0]"] ;
526 -> 527 ;
528 [label="X[0] <= -0.516\ngini = 0.266\nsamples = 13\nvalue = [3, 16, 0]"] ;
526 -> 528 ;
529 [label="gini = 0.0\nsamples = 1\nvalue = [1, 0, 0]"] ;
528 -> 529 ;
530 [label="X[2] <= -0.505\ngini = 0.198\nsamples = 12\nvalue = [2, 16, 0]"] ;
528 -> 530 ;
531 [label="X[2] <= -0.506\ngini = 0.117\nsamples = 10\nvalue = [1, 15, 0]"] ;
530 -> 531 ;
532 [label="X[2] <= -0.506\ngini = 0.444\nsamples = 3\nvalue = [1, 2, 0]"] ;
531 -> 532 ;
533 [label="gini = 0.0\nsamples = 2\nvalue = [0, 2, 0]"] ;
532 -> 533 ;
534 [label="gini = 0.0\nsamples = 1\nvalue = [1, 0, 0]"] ;
532 -> 534 ;
535 [label="gini = 0.0\nsamples = 7\nvalue = [0, 13, 0]"] ;
531 -> 535 ;
536 [label="X[7] <= -0.132\ngini = 0.5\nsamples = 2\nvalue = [1, 1, 0]"] ;
530 -> 536 ;
537 [label="gini = 0.0\nsamples = 1\nvalue = [0, 1, 0]"] ;
536 -> 537 ;
538 [label="gini = 0.0\nsamples = 1\nvalue = [1, 0, 0]"] ;
536 -> 538 ;
539 [label="X[7] <= -0.13\ngini = 0.447\nsamples = 31\nvalue = [14, 32, 1]"] ;
515 -> 539 ;
540 [label="X[2] <= -0.505\ngini = 0.387\nsamples = 26\nvalue = [11, 31, 0]"] ;
539 -> 540 ;
541 [label="X[4] <= -0.3\ngini = 0.438\nsamples = 23\nvalue = [11, 23, 0]"] ;
540 -> 541 ;
542 [label="gini = 0.0\nsamples = 1\nvalue = [2, 0, 0]"] ;
541 -> 542 ;
543 [label="X[4] <= -0.299\ngini = 0.404\nsamples = 22\nvalue = [9, 23, 0]"] ;
541 -> 543 ;
544 [label="X[5] <= -0.361\ngini = 0.231\nsamples = 9\nvalue = [2, 13, 0]"] ;
543 -> 544 ;
545 [label="gini = 0.0\nsamples = 6\nvalue = [0, 11, 0]"] ;
544 -> 545 ;
546 [label="X[4] <= -0.299\ngini = 0.5\nsamples = 3\nvalue = [2, 2, 0]"] ;
544 -> 546 ;
547 [label="gini = 0.0\nsamples = 2\nvalue = [2, 0, 0]"] ;
546 -> 547 ;
548 [label="gini = 0.0\nsamples = 1\nvalue = [0, 2, 0]"] ;
546 -> 548 ;
549 [label="X[0] <= -0.512\ngini = 0.484\nsamples = 13\nvalue = [7, 10, 0]"] ;
543 -> 549 ;
550 [label="gini = 0.0\nsamples = 3\nvalue = [3, 0, 0]"] ;
549 -> 550 ;
551 [label="X[5] <= -0.362\ngini = 0.408\nsamples = 10\nvalue = [4, 10, 0]"] ;
549 -> 551 ;
552 [label="gini = 0.0\nsamples = 2\nvalue = [2, 0, 0]"] ;
551 -> 552 ;
553 [label="X[6] <= -0.244\ngini = 0.278\nsamples = 8\nvalue = [2, 10, 0]"] ;
551 -> 553 ;
554 [label="X[1] <= -0.502\ngini = 0.5\nsamples = 3\nvalue = [2, 2, 0]"] ;
553 -> 554 ;
555 [label="gini = 0.0\nsamples = 2\nvalue = [0, 2, 0]"] ;
554 -> 555 ;
556 [label="gini = 0.0\nsamples = 1\nvalue = [2, 0, 0]"] ;
554 -> 556 ;
557 [label="gini = 0.0\nsamples = 5\nvalue = [0, 8, 0]"] ;
553 -> 557 ;
558 [label="gini = 0.0\nsamples = 3\nvalue = [0, 8, 0]"] ;
540 -> 558 ;
559 [label="X[2] <= -0.505\ngini = 0.56\nsamples = 5\nvalue = [3, 1, 1]"] ;
539 -> 559 ;
560 [label="gini = 0.0\nsamples = 3\nvalue = [3, 0, 0]"] ;
559 -> 560 ;
561 [label="X[5] <= 1.199\ngini = 0.5\nsamples = 2\nvalue = [0, 1, 1]"] ;
559 -> 561 ;
562 [label="gini = 0.0\nsamples = 1\nvalue = [0, 0, 1]"] ;
561 -> 562 ;
563 [label="gini = 0.0\nsamples = 1\nvalue = [0, 1, 0]"] ;
561 -> 563 ;
564 [label="gini = 0.0\nsamples = 3\nvalue = [3, 0, 0]"] ;
490 -> 564 ;
565 [label="X[2] <= -0.504\ngini = 0.485\nsamples = 67\nvalue = [60, 38, 1]"] ;
489 -> 565 ;
566 [label="gini = 0.0\nsamples = 6\nvalue = [9, 0, 0]"] ;
565 -> 566 ;
567 [label="X[3] <= -0.412\ngini = 0.5\nsamples = 61\nvalue = [51, 38, 1]"] ;
565 -> 567 ;
568 [label="X[6] <= -0.244\ngini = 0.443\nsamples = 13\nvalue = [4, 12, 1]"] ;
567 -> 568 ;
569 [label="X[7] <= -0.134\ngini = 0.611\nsamples = 6\nvalue = [3, 2, 1]"] ;
568 -> 569 ;
570 [label="gini = 0.0\nsamples = 2\nvalue = [0, 2, 0]"] ;
569 -> 570 ;
571 [label="X[1] <= 0.761\ngini = 0.375\nsamples = 4\nvalue = [3, 0, 1]"] ;
569 -> 571 ;
572 [label="gini = 0.0\nsamples = 3\nvalue = [3, 0, 0]"] ;
571 -> 572 ;
573 [label="gini = 0.0\nsamples = 1\nvalue = [0, 0, 1]"] ;
571 -> 573 ;
574 [label="X[0] <= -0.51\ngini = 0.165\nsamples = 7\nvalue = [1, 10, 0]"] ;
568 -> 574 ;
575 [label="X[6] <= -0.244\ngini = 0.444\nsamples = 2\nvalue = [1, 2, 0]"] ;
574 -> 575 ;
576 [label="gini = 0.0\nsamples = 1\nvalue = [0, 2, 0]"] ;
575 -> 576 ;
577 [label="gini = 0.0\nsamples = 1\nvalue = [1, 0, 0]"] ;
575 -> 577 ;
578 [label="gini = 0.0\nsamples = 5\nvalue = [0, 8, 0]"] ;
574 -> 578 ;
579 [label="X[1] <= -0.507\ngini = 0.459\nsamples = 48\nvalue = [47, 26, 0]"] ;
567 -> 579 ;
580 [label="gini = 0.0\nsamples = 3\nvalue = [0, 7, 0]"] ;
579 -> 580 ;
581 [label="X[1] <= 2.013\ngini = 0.41\nsamples = 45\nvalue = [47, 19, 0]"] ;
579 -> 581 ;
582 [label="X[0] <= -0.516\ngini = 0.362\nsamples = 42\nvalue = [45, 14, 0]"] ;
581 -> 582 ;
583 [label="X[5] <= 1.199\ngini = 0.32\nsamples = 4\nvalue = [1, 4, 0]"] ;
582 -> 583 ;
584 [label="gini = 0.0\nsamples = 3\nvalue = [0, 4, 0]"] ;
583 -> 584 ;
585 [label="gini = 0.0\nsamples = 1\nvalue = [1, 0, 0]"] ;
583 -> 585 ;
586 [label="X[6] <= -0.244\ngini = 0.302\nsamples = 38\nvalue = [44, 10, 0]"] ;
582 -> 586 ;
587 [label="X[7] <= -0.133\ngini = 0.496\nsamples = 9\nvalue = [5, 6, 0]"] ;
586 -> 587 ;
588 [label="X[2] <= -0.498\ngini = 0.408\nsamples = 6\nvalue = [5, 2, 0]"] ;
587 -> 588 ;
589 [label="X[1] <= 0.77\ngini = 0.444\nsamples = 3\nvalue = [1, 2, 0]"] ;
588 -> 589 ;
590 [label="gini = 0.0\nsamples = 1\nvalue = [0, 1, 0]"] ;
589 -> 590 ;
591 [label="X[0] <= -0.504\ngini = 0.5\nsamples = 2\nvalue = [1, 1, 0]"] ;
589 -> 591 ;
592 [label="gini = 0.0\nsamples = 1\nvalue = [1, 0, 0]"] ;
591 -> 592 ;
593 [label="gini = 0.0\nsamples = 1\nvalue = [0, 1, 0]"] ;
591 -> 593 ;
594 [label="gini = 0.0\nsamples = 3\nvalue = [4, 0, 0]"] ;
588 -> 594 ;
595 [label="gini = 0.0\nsamples = 3\nvalue = [0, 4, 0]"] ;
587 -> 595 ;
596 [label="X[3] <= -0.41\ngini = 0.169\nsamples = 29\nvalue = [39, 4, 0]"] ;
586 -> 596 ;
597 [label="X[2] <= 0.749\ngini = 0.305\nsamples = 11\nvalue = [13, 3, 0]"] ;
596 -> 597 ;
598 [label="X[1] <= -0.484\ngini = 0.49\nsamples = 4\nvalue = [4, 3, 0]"] ;
597 -> 598 ;
599 [label="X[6] <= -0.243\ngini = 0.48\nsamples = 3\nvalue = [2, 3, 0]"] ;
598 -> 599 ;
600 [label="gini = 0.0\nsamples = 1\nvalue = [2, 0, 0]"] ;
599 -> 600 ;
601 [label="gini = 0.0\nsamples = 2\nvalue = [0, 3, 0]"] ;
599 -> 601 ;
602 [label="gini = 0.0\nsamples = 1\nvalue = [2, 0, 0]"] ;
598 -> 602 ;
603 [label="gini = 0.0\nsamples = 7\nvalue = [9, 0, 0]"] ;
597 -> 603 ;
604 [label="X[2] <= -0.496\ngini = 0.071\nsamples = 18\nvalue = [26, 1, 0]"] ;
596 -> 604 ;
605 [label="X[6] <= -0.241\ngini = 0.245\nsamples = 5\nvalue = [6, 1, 0]"] ;
604 -> 605 ;
606 [label="gini = 0.0\nsamples = 3\nvalue = [5, 0, 0]"] ;
605 -> 606 ;
607 [label="X[7] <= -0.133\ngini = 0.5\nsamples = 2\nvalue = [1, 1, 0]"] ;
605 -> 607 ;
608 [label="gini = 0.0\nsamples = 1\nvalue = [1, 0, 0]"] ;
607 -> 608 ;
609 [label="gini = 0.0\nsamples = 1\nvalue = [0, 1, 0]"] ;
607 -> 609 ;
610 [label="gini = 0.0\nsamples = 13\nvalue = [20, 0, 0]"] ;
604 -> 610 ;
611 [label="X[6] <= -0.243\ngini = 0.408\nsamples = 3\nvalue = [2, 5, 0]"] ;
581 -> 611 ;
612 [label="gini = 0.0\nsamples = 2\nvalue = [0, 5, 0]"] ;
611 -> 612 ;
613 [label="gini = 0.0\nsamples = 1\nvalue = [2, 0, 0]"] ;
611 -> 613 ;
614 [label="X[6] <= -0.245\ngini = 0.425\nsamples = 424\nvalue = [211, 479, 0]"] ;
486 -> 614 ;
615 [label="X[0] <= -0.466\ngini = 0.498\nsamples = 19\nvalue = [17, 15, 0]"] ;
614 -> 615 ;
616 [label="X[0] <= -0.476\ngini = 0.278\nsamples = 5\nvalue = [2, 10, 0]"] ;
615 -> 616 ;
617 [label="gini = 0.0\nsamples = 1\nvalue = [2, 0, 0]"] ;
616 -> 617 ;
618 [label="gini = 0.0\nsamples = 4\nvalue = [0, 10, 0]"] ;
616 -> 618 ;
619 [label="X[7] <= -0.133\ngini = 0.375\nsamples = 14\nvalue = [15, 5, 0]"] ;
615 -> 619 ;
620 [label="X[4] <= -0.3\ngini = 0.231\nsamples = 10\nvalue = [13, 2, 0]"] ;
619 -> 620 ;
621 [label="X[2] <= -0.506\ngini = 0.5\nsamples = 4\nvalue = [2, 2, 0]"] ;
620 -> 621 ;
622 [label="gini = 0.0\nsamples = 1\nvalue = [0, 1, 0]"] ;
621 -> 622 ;
623 [label="X[4] <= -0.301\ngini = 0.444\nsamples = 3\nvalue = [2, 1, 0]"] ;
621 -> 623 ;
624 [label="gini = 0.0\nsamples = 2\nvalue = [2, 0, 0]"] ;
623 -> 624 ;
625 [label="gini = 0.0\nsamples = 1\nvalue = [0, 1, 0]"] ;
623 -> 625 ;
626 [label="gini = 0.0\nsamples = 6\nvalue = [11, 0, 0]"] ;
620 -> 626 ;
627 [label="X[6] <= -0.245\ngini = 0.48\nsamples = 4\nvalue = [2, 3, 0]"] ;
619 -> 627 ;
628 [label="X[0] <= -0.301\ngini = 0.444\nsamples = 3\nvalue = [2, 1, 0]"] ;
627 -> 628 ;
629 [label="gini = 0.0\nsamples = 2\nvalue = [2, 0, 0]"] ;
628 -> 629 ;
630 [label="gini = 0.0\nsamples = 1\nvalue = [0, 1, 0]"] ;
628 -> 630 ;
631 [label="gini = 0.0\nsamples = 1\nvalue = [0, 2, 0]"] ;
627 -> 631 ;
632 [label="X[5] <= -0.364\ngini = 0.416\nsamples = 405\nvalue = [194, 464, 0]"] ;
614 -> 632 ;
633 [label="X[1] <= 2.013\ngini = 0.491\nsamples = 30\nvalue = [26, 20, 0]"] ;
632 -> 633 ;
634 [label="X[6] <= -0.242\ngini = 0.472\nsamples = 27\nvalue = [26, 16, 0]"] ;
633 -> 634 ;
635 [label="X[5] <= -0.365\ngini = 0.444\nsamples = 25\nvalue = [26, 13, 0]"] ;
634 -> 635 ;
636 [label="X[3] <= -0.413\ngini = 0.444\nsamples = 8\nvalue = [3, 6, 0]"] ;
635 -> 636 ;
637 [label="gini = 0.0\nsamples = 1\nvalue = [1, 0, 0]"] ;
636 -> 637 ;
638 [label="X[4] <= -0.3\ngini = 0.375\nsamples = 7\nvalue = [2, 6, 0]"] ;
636 -> 638 ;
639 [label="gini = 0.0\nsamples = 4\nvalue = [0, 4, 0]"] ;
638 -> 639 ;
640 [label="X[3] <= -0.412\ngini = 0.5\nsamples = 3\nvalue = [2, 2, 0]"] ;
638 -> 640 ;
641 [label="gini = 0.0\nsamples = 1\nvalue = [0, 2, 0]"] ;
640 -> 641 ;
642 [label="gini = 0.0\nsamples = 2\nvalue = [2, 0, 0]"] ;
640 -> 642 ;
643 [label="X[7] <= -0.134\ngini = 0.358\nsamples = 17\nvalue = [23, 7, 0]"] ;
635 -> 643 ;
644 [label="X[7] <= -0.134\ngini = 0.465\nsamples = 11\nvalue = [12, 7, 0]"] ;
643 -> 644 ;
645 [label="X[1] <= -0.5\ngini = 0.415\nsamples = 9\nvalue = [12, 5, 0]"] ;
644 -> 645 ;
646 [label="gini = 0.0\nsamples = 2\nvalue = [0, 2, 0]"] ;
645 -> 646 ;
647 [label="X[0] <= -0.392\ngini = 0.32\nsamples = 7\nvalue = [12, 3, 0]"] ;
645 -> 647 ;
648 [label="X[2] <= -0.505\ngini = 0.469\nsamples = 4\nvalue = [5, 3, 0]"] ;
647 -> 648 ;
649 [label="gini = 0.0\nsamples = 2\nvalue = [5, 0, 0]"] ;
648 -> 649 ;
650 [label="gini = 0.0\nsamples = 2\nvalue = [0, 3, 0]"] ;
648 -> 650 ;
651 [label="gini = 0.0\nsamples = 3\nvalue = [7, 0, 0]"] ;
647 -> 651 ;
652 [label="gini = 0.0\nsamples = 2\nvalue = [0, 2, 0]"] ;
644 -> 652 ;
653 [label="gini = 0.0\nsamples = 6\nvalue = [11, 0, 0]"] ;
643 -> 653 ;
654 [label="gini = 0.0\nsamples = 2\nvalue = [0, 3, 0]"] ;
634 -> 654 ;
655 [label="gini = 0.0\nsamples = 3\nvalue = [0, 4, 0]"] ;
633 -> 655 ;
656 [label="X[0] <= -0.322\ngini = 0.398\nsamples = 375\nvalue = [168, 444, 0]"] ;
632 -> 656 ;
657 [label="X[3] <= -0.413\ngini = 0.415\nsamples = 319\nvalue = [152, 366, 0]"] ;
656 -> 657 ;
658 [label="X[1] <= -0.502\ngini = 0.236\nsamples = 26\nvalue = [6, 38, 0]"] ;
657 -> 658 ;
659 [label="gini = 0.0\nsamples = 2\nvalue = [2, 0, 0]"] ;
658 -> 659 ;
660 [label="X[7] <= -0.134\ngini = 0.172\nsamples = 24\nvalue = [4, 38, 0]"] ;
658 -> 660 ;
661 [label="gini = 0.0\nsamples = 1\nvalue = [3, 0, 0]"] ;
660 -> 661 ;
662 [label="X[3] <= -0.414\ngini = 0.05\nsamples = 23\nvalue = [1, 38, 0]"] ;
660 -> 662 ;
663 [label="X[5] <= 1.198\ngini = 0.278\nsamples = 4\nvalue = [1, 5, 0]"] ;
662 -> 663 ;
664 [label="gini = 0.0\nsamples = 3\nvalue = [0, 5, 0]"] ;
663 -> 664 ;
665 [label="gini = 0.0\nsamples = 1\nvalue = [1, 0, 0]"] ;
663 -> 665 ;
666 [label="gini = 0.0\nsamples = 19\nvalue = [0, 33, 0]"] ;
662 -> 666 ;
667 [label="X[3] <= -0.413\ngini = 0.426\nsamples = 293\nvalue = [146, 328, 0]"] ;
657 -> 667 ;
668 [label="gini = 0.0\nsamples = 2\nvalue = [4, 0, 0]"] ;
667 -> 668 ;
669 [label="X[6] <= -0.243\ngini = 0.422\nsamples = 291\nvalue = [142, 328, 0]"] ;
667 -> 669 ;
670 [label="X[2] <= -0.507\ngini = 0.347\nsamples = 150\nvalue = [56, 195, 0]"] ;
669 -> 670 ;
671 [label="gini = 0.0\nsamples = 1\nvalue = [3, 0, 0]"] ;
670 -> 671 ;
672 [label="X[1] <= -0.506\ngini = 0.336\nsamples = 149\nvalue = [53, 195, 0]"] ;
670 -> 672 ;
673 [label="X[1] <= -0.507\ngini = 0.397\nsamples = 6\nvalue = [8, 3, 0]"] ;
672 -> 673 ;
674 [label="gini = 0.0\nsamples = 2\nvalue = [0, 2, 0]"] ;
673 -> 674 ;
675 [label="X[6] <= -0.244\ngini = 0.198\nsamples = 4\nvalue = [8, 1, 0]"] ;
673 -> 675 ;
676 [label="gini = 0.0\nsamples = 1\nvalue = [0, 1, 0]"] ;
675 -> 676 ;
677 [label="gini = 0.0\nsamples = 3\nvalue = [8, 0, 0]"] ;
675 -> 677 ;
678 [label="X[2] <= -0.504\ngini = 0.308\nsamples = 143\nvalue = [45, 192, 0]"] ;
672 -> 678 ;
679 [label="X[5] <= 2.757\ngini = 0.373\nsamples = 88\nvalue = [35, 106, 0]"] ;
678 -> 679 ;
680 [label="X[3] <= -0.412\ngini = 0.35\nsamples = 86\nvalue = [31, 106, 0]"] ;
679 -> 680 ;
681 [label="X[4] <= -0.292\ngini = 0.498\nsamples = 21\nvalue = [18, 16, 0]"] ;
680 -> 681 ;
682 [label="X[5] <= -0.364\ngini = 0.487\nsamples = 19\nvalue = [18, 13, 0]"] ;
681 -> 682 ;
683 [label="X[4] <= -0.3\ngini = 0.375\nsamples = 5\nvalue = [2, 6, 0]"] ;
682 -> 683 ;
684 [label="gini = 0.0\nsamples = 2\nvalue = [2, 0, 0]"] ;
683 -> 684 ;
685 [label="gini = 0.0\nsamples = 3\nvalue = [0, 6, 0]"] ;
683 -> 685 ;
686 [label="X[0] <= -0.404\ngini = 0.423\nsamples = 14\nvalue = [16, 7, 0]"] ;
682 -> 686 ;
687 [label="X[1] <= -0.501\ngini = 0.291\nsamples = 10\nvalue = [14, 3, 0]"] ;
686 -> 687 ;
688 [label="X[1] <= -0.505\ngini = 0.444\nsamples = 3\nvalue = [1, 2, 0]"] ;
687 -> 688 ;
689 [label="gini = 0.0\nsamples = 1\nvalue = [0, 1, 0]"] ;
688 -> 689 ;
690 [label="X[7] <= -0.134\ngini = 0.5\nsamples = 2\nvalue = [1, 1, 0]"] ;
688 -> 690 ;
691 [label="gini = 0.0\nsamples = 1\nvalue = [0, 1, 0]"] ;
690 -> 691 ;
692 [label="gini = 0.0\nsamples = 1\nvalue = [1, 0, 0]"] ;
690 -> 692 ;
693 [label="X[3] <= -0.413\ngini = 0.133\nsamples = 7\nvalue = [13, 1, 0]"] ;
687 -> 693 ;
694 [label="gini = 0.0\nsamples = 1\nvalue = [0, 1, 0]"] ;
693 -> 694 ;
695 [label="gini = 0.0\nsamples = 6\nvalue = [13, 0, 0]"] ;
693 -> 695 ;
696 [label="X[3] <= -0.413\ngini = 0.444\nsamples = 4\nvalue = [2, 4, 0]"] ;
686 -> 696 ;
697 [label="gini = 0.0\nsamples = 2\nvalue = [2, 0, 0]"] ;
696 -> 697 ;
698 [label="gini = 0.0\nsamples = 2\nvalue = [0, 4, 0]"] ;
696 -> 698 ;
699 [label="gini = 0.0\nsamples = 2\nvalue = [0, 3, 0]"] ;
681 -> 699 ;
700 [label="X[7] <= -0.134\ngini = 0.221\nsamples = 65\nvalue = [13, 90, 0]"] ;
680 -> 700 ;
701 [label="gini = 0.0\nsamples = 18\nvalue = [0, 29, 0]"] ;
700 -> 701 ;
702 [label="X[6] <= -0.245\ngini = 0.29\nsamples = 47\nvalue = [13, 61, 0]"] ;
700 -> 702 ;
703 [label="X[1] <= -0.49\ngini = 0.496\nsamples = 8\nvalue = [5, 6, 0]"] ;
702 -> 703 ;
704 [label="gini = 0.0\nsamples = 4\nvalue = [0, 5, 0]"] ;
703 -> 704 ;
705 [label="X[0] <= -0.468\ngini = 0.278\nsamples = 4\nvalue = [5, 1, 0]"] ;
703 -> 705 ;
706 [label="gini = 0.0\nsamples = 1\nvalue = [0, 1, 0]"] ;
705 -> 706 ;
707 [label="gini = 0.0\nsamples = 3\nvalue = [5, 0, 0]"] ;
705 -> 707 ;
708 [label="X[7] <= -0.133\ngini = 0.222\nsamples = 39\nvalue = [8, 55, 0]"] ;
702 -> 708 ;
709 [label="X[1] <= -0.5\ngini = 0.486\nsamples = 9\nvalue = [5, 7, 0]"] ;
708 -> 709 ;
710 [label="gini = 0.0\nsamples = 2\nvalue = [3, 0, 0]"] ;
709 -> 710 ;
711 [label="X[0] <= -0.447\ngini = 0.346\nsamples = 7\nvalue = [2, 7, 0]"] ;
709 -> 711 ;
712 [label="gini = 0.0\nsamples = 2\nvalue = [2, 0, 0]"] ;
711 -> 712 ;
713 [label="gini = 0.0\nsamples = 5\nvalue = [0, 7, 0]"] ;
711 -> 713 ;
714 [label="X[5] <= -0.364\ngini = 0.111\nsamples = 30\nvalue = [3, 48, 0]"] ;
708 -> 714 ;
715 [label="X[2] <= -0.504\ngini = 0.444\nsamples = 4\nvalue = [2, 4, 0]"] ;
714 -> 715 ;
716 [label="gini = 0.0\nsamples = 3\nvalue = [0, 4, 0]"] ;
715 -> 716 ;
717 [label="gini = 0.0\nsamples = 1\nvalue = [2, 0, 0]"] ;
715 -> 717 ;
718 [label="X[5] <= -0.361\ngini = 0.043\nsamples = 26\nvalue = [1, 44, 0]"] ;
714 -> 718 ;
719 [label="gini = 0.0\nsamples = 20\nvalue = [0, 35, 0]"] ;
718 -> 719 ;
720 [label="X[0] <= -0.478\ngini = 0.18\nsamples = 6\nvalue = [1, 9, 0]"] ;
718 -> 720 ;
721 [label="gini = 0.0\nsamples = 1\nvalue = [1, 0, 0]"] ;
720 -> 721 ;
722 [label="gini = 0.0\nsamples = 5\nvalue = [0, 9, 0]"] ;
720 -> 722 ;
723 [label="gini = 0.0\nsamples = 2\nvalue = [4, 0, 0]"] ;
679 -> 723 ;
724 [label="X[5] <= -0.364\ngini = 0.187\nsamples = 55\nvalue = [10, 86, 0]"] ;
678 -> 724 ;
725 [label="gini = 0.0\nsamples = 1\nvalue = [1, 0, 0]"] ;
724 -> 725 ;
726 [label="X[1] <= -0.494\ngini = 0.172\nsamples = 54\nvalue = [9, 86, 0]"] ;
724 -> 726 ;
727 [label="X[6] <= -0.243\ngini = 0.355\nsamples = 17\nvalue = [6, 20, 0]"] ;
726 -> 727 ;
728 [label="X[7] <= -0.133\ngini = 0.111\nsamples = 10\nvalue = [1, 16, 0]"] ;
727 -> 728 ;
729 [label="X[4] <= 1.523\ngini = 0.5\nsamples = 2\nvalue = [1, 1, 0]"] ;
728 -> 729 ;
730 [label="gini = 0.0\nsamples = 1\nvalue = [1, 0, 0]"] ;
729 -> 730 ;
731 [label="gini = 0.0\nsamples = 1\nvalue = [0, 1, 0]"] ;
729 -> 731 ;
732 [label="gini = 0.0\nsamples = 8\nvalue = [0, 15, 0]"] ;
728 -> 732 ;
733 [label="X[5] <= -0.362\ngini = 0.494\nsamples = 7\nvalue = [5, 4, 0]"] ;
727 -> 733 ;
734 [label="gini = 0.0\nsamples = 2\nvalue = [3, 0, 0]"] ;
733 -> 734 ;
735 [label="X[1] <= -0.501\ngini = 0.444\nsamples = 5\nvalue = [2, 4, 0]"] ;
733 -> 735 ;
736 [label="gini = 0.0\nsamples = 2\nvalue = [0, 2, 0]"] ;
735 -> 736 ;
737 [label="X[4] <= 1.526\ngini = 0.5\nsamples = 3\nvalue = [2, 2, 0]"] ;
735 -> 737 ;
738 [label="gini = 0.0\nsamples = 2\nvalue = [0, 2, 0]"] ;
737 -> 738 ;
739 [label="gini = 0.0\nsamples = 1\nvalue = [2, 0, 0]"] ;
737 -> 739 ;
740 [label="X[3] <= -0.406\ngini = 0.083\nsamples = 37\nvalue = [3, 66, 0]"] ;
726 -> 740 ;
741 [label="gini = 0.0\nsamples = 25\nvalue = [0, 46, 0]"] ;
740 -> 741 ;
742 [label="X[5] <= -0.361\ngini = 0.227\nsamples = 12\nvalue = [3, 20, 0]"] ;
740 -> 742 ;
743 [label="gini = 0.0\nsamples = 6\nvalue = [0, 14, 0]"] ;
742 -> 743 ;
744 [label="X[6] <= -0.244\ngini = 0.444\nsamples = 6\nvalue = [3, 6, 0]"] ;
742 -> 744 ;
745 [label="gini = 0.0\nsamples = 3\nvalue = [0, 5, 0]"] ;
744 -> 745 ;
746 [label="X[0] <= -0.466\ngini = 0.375\nsamples = 3\nvalue = [3, 1, 0]"] ;
744 -> 746 ;
747 [label="gini = 0.0\nsamples = 1\nvalue = [0, 1, 0]"] ;
746 -> 747 ;
748 [label="gini = 0.0\nsamples = 2\nvalue = [3, 0, 0]"] ;
746 -> 748 ;
749 [label="X[5] <= 2.757\ngini = 0.477\nsamples = 141\nvalue = [86, 133, 0]"] ;
669 -> 749 ;
750 [label="X[4] <= -0.296\ngini = 0.465\nsamples = 126\nvalue = [73, 126, 0]"] ;
749 -> 750 ;
751 [label="X[1] <= 2.013\ngini = 0.498\nsamples = 77\nvalue = [60, 68, 0]"] ;
750 -> 751 ;
752 [label="X[4] <= -0.298\ngini = 0.49\nsamples = 70\nvalue = [50, 66, 0]"] ;
751 -> 752 ;
753 [label="X[5] <= -0.36\ngini = 0.438\nsamples = 39\nvalue = [22, 46, 0]"] ;
752 -> 753 ;
754 [label="X[4] <= -0.3\ngini = 0.474\nsamples = 34\nvalue = [22, 35, 0]"] ;
753 -> 754 ;
755 [label="X[0] <= -0.439\ngini = 0.444\nsamples = 9\nvalue = [10, 5, 0]"] ;
754 -> 755 ;
756 [label="X[6] <= -0.242\ngini = 0.32\nsamples = 4\nvalue = [1, 4, 0]"] ;
755 -> 756 ;
757 [label="X[7] <= -0.132\ngini = 0.5\nsamples = 2\nvalue = [1, 1, 0]"] ;
756 -> 757 ;
758 [label="gini = 0.0\nsamples = 1\nvalue = [0, 1, 0]"] ;
757 -> 758 ;
759 [label="gini = 0.0\nsamples = 1\nvalue = [1, 0, 0]"] ;
757 -> 759 ;
760 [label="gini = 0.0\nsamples = 2\nvalue = [0, 3, 0]"] ;
756 -> 760 ;
761 [label="X[2] <= 1.984\ngini = 0.18\nsamples = 5\nvalue = [9, 1, 0]"] ;
755 -> 761 ;
762 [label="gini = 0.0\nsamples = 3\nvalue = [7, 0, 0]"] ;
761 -> 762 ;
763 [label="X[7] <= -0.132\ngini = 0.444\nsamples = 2\nvalue = [2, 1, 0]"] ;
761 -> 763 ;
764 [label="gini = 0.0\nsamples = 1\nvalue = [0, 1, 0]"] ;
763 -> 764 ;
765 [label="gini = 0.0\nsamples = 1\nvalue = [2, 0, 0]"] ;
763 -> 765 ;
766 [label="X[0] <= -0.471\ngini = 0.408\nsamples = 25\nvalue = [12, 30, 0]"] ;
754 -> 766 ;
767 [label="X[1] <= -0.49\ngini = 0.32\nsamples = 3\nvalue = [4, 1, 0]"] ;
766 -> 767 ;
768 [label="gini = 0.0\nsamples = 2\nvalue = [4, 0, 0]"] ;
767 -> 768 ;
769 [label="gini = 0.0\nsamples = 1\nvalue = [0, 1, 0]"] ;
767 -> 769 ;
770 [label="X[5] <= -0.362\ngini = 0.339\nsamples = 22\nvalue = [8, 29, 0]"] ;
766 -> 770 ;
771 [label="X[6] <= -0.243\ngini = 0.191\nsamples = 16\nvalue = [3, 25, 0]"] ;
770 -> 771 ;
772 [label="gini = 0.0\nsamples = 1\nvalue = [2, 0, 0]"] ;
771 -> 772 ;
773 [label="X[4] <= -0.3\ngini = 0.074\nsamples = 15\nvalue = [1, 25, 0]"] ;
771 -> 773 ;
774 [label="X[6] <= -0.242\ngini = 0.219\nsamples = 4\nvalue = [1, 7, 0]"] ;
773 -> 774 ;
775 [label="gini = 0.0\nsamples = 2\nvalue = [0, 4, 0]"] ;
774 -> 775 ;
776 [label="X[0] <= -0.432\ngini = 0.375\nsamples = 2\nvalue = [1, 3, 0]"] ;
774 -> 776 ;
777 [label="gini = 0.0\nsamples = 1\nvalue = [1, 0, 0]"] ;
776 -> 777 ;
778 [label="gini = 0.0\nsamples = 1\nvalue = [0, 3, 0]"] ;
776 -> 778 ;
779 [label="gini = 0.0\nsamples = 11\nvalue = [0, 18, 0]"] ;
773 -> 779 ;
780 [label="X[3] <= 2.427\ngini = 0.494\nsamples = 6\nvalue = [5, 4, 0]"] ;
770 -> 780 ;
781 [label="gini = 0.0\nsamples = 3\nvalue = [5, 0, 0]"] ;
780 -> 781 ;
782 [label="gini = 0.0\nsamples = 3\nvalue = [0, 4, 0]"] ;
780 -> 782 ;
783 [label="gini = 0.0\nsamples = 5\nvalue = [0, 11, 0]"] ;
753 -> 783 ;
784 [label="X[7] <= -0.134\ngini = 0.486\nsamples = 31\nvalue = [28, 20, 0]"] ;
752 -> 784 ;
785 [label="X[5] <= -0.362\ngini = 0.408\nsamples = 8\nvalue = [4, 10, 0]"] ;
784 -> 785 ;
786 [label="gini = 0.0\nsamples = 4\nvalue = [0, 9, 0]"] ;
785 -> 786 ;
787 [label="X[0] <= -0.351\ngini = 0.32\nsamples = 4\nvalue = [4, 1, 0]"] ;
785 -> 787 ;
788 [label="gini = 0.0\nsamples = 3\nvalue = [4, 0, 0]"] ;
787 -> 788 ;
789 [label="gini = 0.0\nsamples = 1\nvalue = [0, 1, 0]"] ;
787 -> 789 ;
790 [label="X[6] <= -0.24\ngini = 0.415\nsamples = 23\nvalue = [24, 10, 0]"] ;
784 -> 790 ;
791 [label="X[4] <= -0.298\ngini = 0.095\nsamples = 12\nvalue = [19, 1, 0]"] ;
790 -> 791 ;
792 [label="gini = 0.0\nsamples = 1\nvalue = [0, 1, 0]"] ;
791 -> 792 ;
793 [label="gini = 0.0\nsamples = 11\nvalue = [19, 0, 0]"] ;
791 -> 793 ;
794 [label="X[1] <= -0.501\ngini = 0.459\nsamples = 11\nvalue = [5, 9, 0]"] ;
790 -> 794 ;
795 [label="X[6] <= 4.1\ngini = 0.408\nsamples = 5\nvalue = [5, 2, 0]"] ;
794 -> 795 ;
796 [label="gini = 0.0\nsamples = 4\nvalue = [5, 0, 0]"] ;
795 -> 796 ;
797 [label="gini = 0.0\nsamples = 1\nvalue = [0, 2, 0]"] ;
795 -> 797 ;
798 [label="gini = 0.0\nsamples = 6\nvalue = [0, 7, 0]"] ;
794 -> 798 ;
799 [label="X[0] <= -0.412\ngini = 0.278\nsamples = 7\nvalue = [10, 2, 0]"] ;
751 -> 799 ;
800 [label="X[4] <= -0.298\ngini = 0.48\nsamples = 4\nvalue = [3, 2, 0]"] ;
799 -> 800 ;
801 [label="gini = 0.0\nsamples = 2\nvalue = [0, 2, 0]"] ;
800 -> 801 ;
802 [label="gini = 0.0\nsamples = 2\nvalue = [3, 0, 0]"] ;
800 -> 802 ;
803 [label="gini = 0.0\nsamples = 3\nvalue = [7, 0, 0]"] ;
799 -> 803 ;
804 [label="X[3] <= 2.428\ngini = 0.299\nsamples = 49\nvalue = [13, 58, 0]"] ;
750 -> 804 ;
805 [label="X[2] <= -0.506\ngini = 0.352\nsamples = 37\nvalue = [13, 44, 0]"] ;
804 -> 805 ;
806 [label="gini = 0.0\nsamples = 2\nvalue = [2, 0, 0]"] ;
805 -> 806 ;
807 [label="X[1] <= -0.479\ngini = 0.32\nsamples = 35\nvalue = [11, 44, 0]"] ;
805 -> 807 ;
808 [label="X[5] <= -0.359\ngini = 0.461\nsamples = 16\nvalue = [9, 16, 0]"] ;
807 -> 808 ;
809 [label="X[3] <= -0.412\ngini = 0.48\nsamples = 11\nvalue = [9, 6, 0]"] ;
808 -> 809 ;
810 [label="gini = 0.0\nsamples = 1\nvalue = [0, 3, 0]"] ;
809 -> 810 ;
811 [label="X[6] <= -0.241\ngini = 0.375\nsamples = 10\nvalue = [9, 3, 0]"] ;
809 -> 811 ;
812 [label="X[1] <= -0.5\ngini = 0.375\nsamples = 4\nvalue = [1, 3, 0]"] ;
811 -> 812 ;
813 [label="gini = 0.0\nsamples = 2\nvalue = [0, 2, 0]"] ;
812 -> 813 ;
814 [label="X[1] <= -0.489\ngini = 0.5\nsamples = 2\nvalue = [1, 1, 0]"] ;
812 -> 814 ;
815 [label="gini = 0.0\nsamples = 1\nvalue = [1, 0, 0]"] ;
814 -> 815 ;
816 [label="gini = 0.0\nsamples = 1\nvalue = [0, 1, 0]"] ;
814 -> 816 ;
817 [label="gini = 0.0\nsamples = 6\nvalue = [8, 0, 0]"] ;
811 -> 817 ;
818 [label="gini = 0.0\nsamples = 5\nvalue = [0, 10, 0]"] ;
808 -> 818 ;
819 [label="X[6] <= -0.242\ngini = 0.124\nsamples = 19\nvalue = [2, 28, 0]"] ;
807 -> 819 ;
820 [label="gini = 0.0\nsamples = 1\nvalue = [1, 0, 0]"] ;
819 -> 820 ;
821 [label="X[6] <= -0.241\ngini = 0.067\nsamples = 18\nvalue = [1, 28, 0]"] ;
819 -> 821 ;
822 [label="X[0] <= -0.424\ngini = 0.153\nsamples = 9\nvalue = [1, 11, 0]"] ;
821 -> 822 ;
823 [label="X[4] <= 3.348\ngini = 0.375\nsamples = 3\nvalue = [1, 3, 0]"] ;
822 -> 823 ;
824 [label="gini = 0.0\nsamples = 1\nvalue = [1, 0, 0]"] ;
823 -> 824 ;
825 [label="gini = 0.0\nsamples = 2\nvalue = [0, 3, 0]"] ;
823 -> 825 ;
826 [label="gini = 0.0\nsamples = 6\nvalue = [0, 8, 0]"] ;
822 -> 826 ;
827 [label="gini = 0.0\nsamples = 9\nvalue = [0, 17, 0]"] ;
821 -> 827 ;
828 [label="gini = 0.0\nsamples = 12\nvalue = [0, 14, 0]"] ;
804 -> 828 ;
829 [label="X[6] <= -0.232\ngini = 0.455\nsamples = 15\nvalue = [13, 7, 0]"] ;
749 -> 829 ;
830 [label="gini = 0.0\nsamples = 5\nvalue = [8, 0, 0]"] ;
829 -> 830 ;
831 [label="X[7] <= -0.133\ngini = 0.486\nsamples = 10\nvalue = [5, 7, 0]"] ;
829 -> 831 ;
832 [label="gini = 0.0\nsamples = 2\nvalue = [3, 0, 0]"] ;
831 -> 832 ;
833 [label="X[4] <= -0.296\ngini = 0.346\nsamples = 8\nvalue = [2, 7, 0]"] ;
831 -> 833 ;
834 [label="gini = 0.0\nsamples = 2\nvalue = [2, 0, 0]"] ;
833 -> 834 ;
835 [label="gini = 0.0\nsamples = 6\nvalue = [0, 7, 0]"] ;
833 -> 835 ;
836 [label="X[6] <= -0.24\ngini = 0.282\nsamples = 56\nvalue = [16, 78, 0]"] ;
656 -> 836 ;
837 [label="X[2] <= -0.498\ngini = 0.213\nsamples = 40\nvalue = [8, 58, 0]"] ;
836 -> 837 ;
838 [label="X[0] <= -0.254\ngini = 0.122\nsamples = 27\nvalue = [3, 43, 0]"] ;
837 -> 838 ;
839 [label="gini = 0.0\nsamples = 19\nvalue = [0, 34, 0]"] ;
838 -> 839 ;
840 [label="X[6] <= -0.244\ngini = 0.375\nsamples = 8\nvalue = [3, 9, 0]"] ;
838 -> 840 ;
841 [label="gini = 0.0\nsamples = 4\nvalue = [0, 7, 0]"] ;
840 -> 841 ;
842 [label="X[3] <= -0.405\ngini = 0.48\nsamples = 4\nvalue = [3, 2, 0]"] ;
840 -> 842 ;
843 [label="gini = 0.0\nsamples = 2\nvalue = [3, 0, 0]"] ;
842 -> 843 ;
844 [label="gini = 0.0\nsamples = 2\nvalue = [0, 2, 0]"] ;
842 -> 844 ;
845 [label="X[4] <= -0.299\ngini = 0.375\nsamples = 13\nvalue = [5, 15, 0]"] ;
837 -> 845 ;
846 [label="gini = 0.0\nsamples = 3\nvalue = [4, 0, 0]"] ;
845 -> 846 ;
847 [label="X[4] <= -0.295\ngini = 0.117\nsamples = 10\nvalue = [1, 15, 0]"] ;
845 -> 847 ;
848 [label="gini = 0.0\nsamples = 6\nvalue = [0, 10, 0]"] ;
847 -> 848 ;
849 [label="X[6] <= -0.244\ngini = 0.278\nsamples = 4\nvalue = [1, 5, 0]"] ;
847 -> 849 ;
850 [label="gini = 0.0\nsamples = 1\nvalue = [1, 0, 0]"] ;
849 -> 850 ;
851 [label="gini = 0.0\nsamples = 3\nvalue = [0, 5, 0]"] ;
849 -> 851 ;
852 [label="X[5] <= -0.362\ngini = 0.408\nsamples = 16\nvalue = [8, 20, 0]"] ;
836 -> 852 ;
853 [label="gini = 0.0\nsamples = 2\nvalue = [4, 0, 0]"] ;
852 -> 853 ;
854 [label="X[6] <= 4.101\ngini = 0.278\nsamples = 14\nvalue = [4, 20, 0]"] ;
852 -> 854 ;
855 [label="X[5] <= 2.758\ngini = 0.18\nsamples = 12\nvalue = [2, 18, 0]"] ;
854 -> 855 ;
856 [label="gini = 0.0\nsamples = 10\nvalue = [0, 18, 0]"] ;
855 -> 856 ;
857 [label="gini = 0.0\nsamples = 2\nvalue = [2, 0, 0]"] ;
855 -> 857 ;
858 [label="X[4] <= 1.531\ngini = 0.5\nsamples = 2\nvalue = [2, 2, 0]"] ;
854 -> 858 ;
859 [label="gini = 0.0\nsamples = 1\nvalue = [2, 0, 0]"] ;
858 -> 859 ;
860 [label="gini = 0.0\nsamples = 1\nvalue = [0, 2, 0]"] ;
858 -> 860 ;
861 [label="X[1] <= 2.009\ngini = 0.486\nsamples = 60\nvalue = [55, 39, 0]"] ;
463 -> 861 ;
862 [label="X[3] <= -0.41\ngini = 0.491\nsamples = 34\nvalue = [22, 29, 0]"] ;
861 -> 862 ;
863 [label="X[4] <= -0.3\ngini = 0.32\nsamples = 17\nvalue = [4, 16, 0]"] ;
862 -> 863 ;
864 [label="X[4] <= -0.301\ngini = 0.444\nsamples = 3\nvalue = [2, 1, 0]"] ;
863 -> 864 ;
865 [label="gini = 0.0\nsamples = 1\nvalue = [0, 1, 0]"] ;
864 -> 865 ;
866 [label="gini = 0.0\nsamples = 2\nvalue = [2, 0, 0]"] ;
864 -> 866 ;
867 [label="X[6] <= -0.245\ngini = 0.208\nsamples = 14\nvalue = [2, 15, 0]"] ;
863 -> 867 ;
868 [label="X[6] <= -0.245\ngini = 0.444\nsamples = 3\nvalue = [2, 1, 0]"] ;
867 -> 868 ;
869 [label="gini = 0.0\nsamples = 1\nvalue = [0, 1, 0]"] ;
868 -> 869 ;
870 [label="gini = 0.0\nsamples = 2\nvalue = [2, 0, 0]"] ;
868 -> 870 ;
871 [label="gini = 0.0\nsamples = 11\nvalue = [0, 14, 0]"] ;
867 -> 871 ;
872 [label="X[6] <= -0.244\ngini = 0.487\nsamples = 17\nvalue = [18, 13, 0]"] ;
862 -> 872 ;
873 [label="gini = 0.0\nsamples = 3\nvalue = [7, 0, 0]"] ;
872 -> 873 ;
874 [label="X[5] <= -0.361\ngini = 0.497\nsamples = 14\nvalue = [11, 13, 0]"] ;
872 -> 874 ;
875 [label="gini = 0.0\nsamples = 5\nvalue = [0, 10, 0]"] ;
874 -> 875 ;
876 [label="X[5] <= 2.758\ngini = 0.337\nsamples = 9\nvalue = [11, 3, 0]"] ;
874 -> 876 ;
877 [label="X[7] <= -0.133\ngini = 0.165\nsamples = 6\nvalue = [10, 1, 0]"] ;
876 -> 877 ;
878 [label="X[5] <= 1.199\ngini = 0.375\nsamples = 3\nvalue = [3, 1, 0]"] ;
877 -> 878 ;
879 [label="X[4] <= -0.299\ngini = 0.5\nsamples = 2\nvalue = [1, 1, 0]"] ;
878 -> 879 ;
880 [label="gini = 0.0\nsamples = 1\nvalue = [0, 1, 0]"] ;
879 -> 880 ;
881 [label="gini = 0.0\nsamples = 1\nvalue = [1, 0, 0]"] ;
879 -> 881 ;
882 [label="gini = 0.0\nsamples = 1\nvalue = [2, 0, 0]"] ;
878 -> 882 ;
883 [label="gini = 0.0\nsamples = 3\nvalue = [7, 0, 0]"] ;
877 -> 883 ;
884 [label="X[3] <= 1.009\ngini = 0.444\nsamples = 3\nvalue = [1, 2, 0]"] ;
876 -> 884 ;
885 [label="gini = 0.0\nsamples = 1\nvalue = [0, 1, 0]"] ;
884 -> 885 ;
886 [label="X[4] <= 1.525\ngini = 0.5\nsamples = 2\nvalue = [1, 1, 0]"] ;
884 -> 886 ;
887 [label="gini = 0.0\nsamples = 1\nvalue = [1, 0, 0]"] ;
886 -> 887 ;
888 [label="gini = 0.0\nsamples = 1\nvalue = [0, 1, 0]"] ;
886 -> 888 ;
889 [label="X[1] <= 2.013\ngini = 0.357\nsamples = 26\nvalue = [33, 10, 0]"] ;
861 -> 889 ;
890 [label="X[2] <= -0.507\ngini = 0.208\nsamples = 20\nvalue = [30, 4, 0]"] ;
889 -> 890 ;
891 [label="X[7] <= -0.134\ngini = 0.48\nsamples = 3\nvalue = [3, 2, 0]"] ;
890 -> 891 ;
892 [label="gini = 0.0\nsamples = 1\nvalue = [3, 0, 0]"] ;
891 -> 892 ;
893 [label="gini = 0.0\nsamples = 2\nvalue = [0, 2, 0]"] ;
891 -> 893 ;
894 [label="X[1] <= 2.012\ngini = 0.128\nsamples = 17\nvalue = [27, 2, 0]"] ;
890 -> 894 ;
895 [label="gini = 0.0\nsamples = 11\nvalue = [19, 0, 0]"] ;
894 -> 895 ;
896 [label="X[7] <= -0.134\ngini = 0.32\nsamples = 6\nvalue = [8, 2, 0]"] ;
894 -> 896 ;
897 [label="gini = 0.0\nsamples = 4\nvalue = [7, 0, 0]"] ;
896 -> 897 ;
898 [label="X[1] <= 2.012\ngini = 0.444\nsamples = 2\nvalue = [1, 2, 0]"] ;
896 -> 898 ;
899 [label="gini = 0.0\nsamples = 1\nvalue = [0, 2, 0]"] ;
898 -> 899 ;
900 [label="gini = 0.0\nsamples = 1\nvalue = [1, 0, 0]"] ;
898 -> 900 ;
901 [label="X[4] <= -0.3\ngini = 0.444\nsamples = 6\nvalue = [3, 6, 0]"] ;
889 -> 901 ;
902 [label="gini = 0.0\nsamples = 1\nvalue = [0, 4, 0]"] ;
901 -> 902 ;
903 [label="X[4] <= -0.299\ngini = 0.48\nsamples = 5\nvalue = [3, 2, 0]"] ;
901 -> 903 ;
904 [label="gini = 0.0\nsamples = 2\nvalue = [2, 0, 0]"] ;
903 -> 904 ;
905 [label="X[0] <= 2.181\ngini = 0.444\nsamples = 3\nvalue = [1, 2, 0]"] ;
903 -> 905 ;
906 [label="gini = 0.0\nsamples = 1\nvalue = [1, 0, 0]"] ;
905 -> 906 ;
907 [label="gini = 0.0\nsamples = 2\nvalue = [0, 2, 0]"] ;
905 -> 907 ;
908 [label="X[0] <= -0.323\ngini = 0.549\nsamples = 202\nvalue = [143, 169, 19]"] ;
462 -> 908 ;
909 [label="X[6] <= -0.243\ngini = 0.576\nsamples = 123\nvalue = [102, 87, 19]"] ;
908 -> 909 ;
910 [label="X[2] <= -0.504\ngini = 0.445\nsamples = 11\nvalue = [1, 5, 14]"] ;
909 -> 910 ;
911 [label="X[4] <= -0.296\ngini = 0.5\nsamples = 5\nvalue = [1, 4, 1]"] ;
910 -> 911 ;
912 [label="X[6] <= -0.244\ngini = 0.32\nsamples = 4\nvalue = [0, 4, 1]"] ;
911 -> 912 ;
913 [label="gini = 0.0\nsamples = 1\nvalue = [0, 2, 0]"] ;
912 -> 913 ;
914 [label="X[7] <= -0.128\ngini = 0.444\nsamples = 3\nvalue = [0, 2, 1]"] ;
912 -> 914 ;
915 [label="gini = 0.0\nsamples = 1\nvalue = [0, 0, 1]"] ;
914 -> 915 ;
916 [label="gini = 0.0\nsamples = 2\nvalue = [0, 2, 0]"] ;
914 -> 916 ;
917 [label="gini = 0.0\nsamples = 1\nvalue = [1, 0, 0]"] ;
911 -> 917 ;
918 [label="X[2] <= 0.763\ngini = 0.133\nsamples = 6\nvalue = [0, 1, 13]"] ;
910 -> 918 ;
919 [label="gini = 0.0\nsamples = 5\nvalue = [0, 0, 13]"] ;
918 -> 919 ;
920 [label="gini = 0.0\nsamples = 1\nvalue = [0, 1, 0]"] ;
918 -> 920 ;
921 [label="X[3] <= -0.412\ngini = 0.52\nsamples = 112\nvalue = [101, 82, 5]"] ;
909 -> 921 ;
922 [label="X[7] <= -0.125\ngini = 0.091\nsamples = 11\nvalue = [20, 1, 0]"] ;
921 -> 922 ;
923 [label="gini = 0.0\nsamples = 9\nvalue = [17, 0, 0]"] ;
922 -> 923 ;
924 [label="X[7] <= -0.123\ngini = 0.375\nsamples = 2\nvalue = [3, 1, 0]"] ;
922 -> 924 ;
925 [label="gini = 0.0\nsamples = 1\nvalue = [0, 1, 0]"] ;
924 -> 925 ;
926 [label="gini = 0.0\nsamples = 1\nvalue = [3, 0, 0]"] ;
924 -> 926 ;
927 [label="X[5] <= -0.359\ngini = 0.529\nsamples = 101\nvalue = [81, 81, 5]"] ;
921 -> 927 ;
928 [label="X[2] <= -0.505\ngini = 0.479\nsamples = 53\nvalue = [57, 34, 1]"] ;
927 -> 928 ;
929 [label="X[0] <= -0.347\ngini = 0.465\nsamples = 14\nvalue = [7, 12, 0]"] ;
928 -> 929 ;
930 [label="X[4] <= 3.347\ngini = 0.32\nsamples = 12\nvalue = [3, 12, 0]"] ;
929 -> 930 ;
931 [label="gini = 0.0\nsamples = 9\nvalue = [0, 12, 0]"] ;
930 -> 931 ;
932 [label="gini = 0.0\nsamples = 3\nvalue = [3, 0, 0]"] ;
930 -> 932 ;
933 [label="gini = 0.0\nsamples = 2\nvalue = [4, 0, 0]"] ;
929 -> 933 ;
934 [label="X[2] <= -0.496\ngini = 0.44\nsamples = 39\nvalue = [50, 22, 1]"] ;
928 -> 934 ;
935 [label="X[6] <= -0.24\ngini = 0.229\nsamples = 19\nvalue = [34, 4, 1]"] ;
934 -> 935 ;
936 [label="X[1] <= -0.497\ngini = 0.542\nsamples = 8\nvalue = [7, 4, 1]"] ;
935 -> 936 ;
937 [label="gini = 0.0\nsamples = 4\nvalue = [7, 0, 0]"] ;
936 -> 937 ;
938 [label="X[5] <= -0.36\ngini = 0.32\nsamples = 4\nvalue = [0, 4, 1]"] ;
936 -> 938 ;
939 [label="gini = 0.0\nsamples = 3\nvalue = [0, 4, 0]"] ;
938 -> 939 ;
940 [label="gini = 0.0\nsamples = 1\nvalue = [0, 0, 1]"] ;
938 -> 940 ;
941 [label="gini = 0.0\nsamples = 11\nvalue = [27, 0, 0]"] ;
935 -> 941 ;
942 [label="X[5] <= -0.363\ngini = 0.498\nsamples = 20\nvalue = [16, 18, 0]"] ;
934 -> 942 ;
943 [label="X[6] <= -0.24\ngini = 0.245\nsamples = 4\nvalue = [6, 1, 0]"] ;
942 -> 943 ;
944 [label="X[6] <= -0.242\ngini = 0.5\nsamples = 2\nvalue = [1, 1, 0]"] ;
943 -> 944 ;
945 [label="gini = 0.0\nsamples = 1\nvalue = [1, 0, 0]"] ;
944 -> 945 ;
946 [label="gini = 0.0\nsamples = 1\nvalue = [0, 1, 0]"] ;
944 -> 946 ;
947 [label="gini = 0.0\nsamples = 2\nvalue = [5, 0, 0]"] ;
943 -> 947 ;
948 [label="X[5] <= -0.362\ngini = 0.466\nsamples = 16\nvalue = [10, 17, 0]"] ;
942 -> 948 ;
949 [label="gini = 0.0\nsamples = 5\nvalue = [0, 9, 0]"] ;
948 -> 949 ;
950 [label="X[3] <= 2.429\ngini = 0.494\nsamples = 11\nvalue = [10, 8, 0]"] ;
948 -> 950 ;
951 [label="X[4] <= 3.346\ngini = 0.32\nsamples = 7\nvalue = [8, 2, 0]"] ;
950 -> 951 ;
952 [label="gini = 0.0\nsamples = 4\nvalue = [6, 0, 0]"] ;
951 -> 952 ;
953 [label="X[6] <= -0.242\ngini = 0.5\nsamples = 3\nvalue = [2, 2, 0]"] ;
951 -> 953 ;
954 [label="gini = 0.0\nsamples = 1\nvalue = [2, 0, 0]"] ;
953 -> 954 ;
955 [label="gini = 0.0\nsamples = 2\nvalue = [0, 2, 0]"] ;
953 -> 955 ;
956 [label="X[4] <= 3.349\ngini = 0.375\nsamples = 4\nvalue = [2, 6, 0]"] ;
950 -> 956 ;
957 [label="gini = 0.0\nsamples = 3\nvalue = [0, 6, 0]"] ;
956 -> 957 ;
958 [label="gini = 0.0\nsamples = 1\nvalue = [2, 0, 0]"] ;
956 -> 958 ;
959 [label="X[3] <= 2.43\ngini = 0.502\nsamples = 48\nvalue = [24, 47, 4]"] ;
927 -> 959 ;
960 [label="X[7] <= -0.129\ngini = 0.536\nsamples = 43\nvalue = [24, 37, 4]"] ;
959 -> 960 ;
961 [label="gini = 0.0\nsamples = 2\nvalue = [4, 0, 0]"] ;
960 -> 961 ;
962 [label="X[7] <= -0.128\ngini = 0.52\nsamples = 41\nvalue = [20, 37, 4]"] ;
960 -> 962 ;
963 [label="gini = 0.0\nsamples = 9\nvalue = [0, 15, 0]"] ;
962 -> 963 ;
964 [label="X[7] <= -0.127\ngini = 0.575\nsamples = 32\nvalue = [20, 22, 4]"] ;
962 -> 964 ;
965 [label="gini = 0.0\nsamples = 3\nvalue = [4, 0, 0]"] ;
964 -> 965 ;
966 [label="X[3] <= 2.429\ngini = 0.571\nsamples = 29\nvalue = [16, 22, 4]"] ;
964 -> 966 ;
967 [label="X[6] <= -0.24\ngini = 0.542\nsamples = 26\nvalue = [13, 22, 3]"] ;
966 -> 967 ;
968 [label="X[1] <= 0.774\ngini = 0.444\nsamples = 5\nvalue = [6, 0, 3]"] ;
967 -> 968 ;
969 [label="X[3] <= -0.41\ngini = 0.245\nsamples = 4\nvalue = [6, 0, 1]"] ;
968 -> 969 ;
970 [label="gini = 0.0\nsamples = 1\nvalue = [0, 0, 1]"] ;
969 -> 970 ;
971 [label="gini = 0.0\nsamples = 3\nvalue = [6, 0, 0]"] ;
969 -> 971 ;
972 [label="gini = 0.0\nsamples = 1\nvalue = [0, 0, 2]"] ;
968 -> 972 ;
973 [label="X[5] <= 2.76\ngini = 0.366\nsamples = 21\nvalue = [7, 22, 0]"] ;
967 -> 973 ;
974 [label="X[6] <= 4.096\ngini = 0.311\nsamples = 18\nvalue = [5, 21, 0]"] ;
973 -> 974 ;
975 [label="X[3] <= -0.359\ngini = 0.188\nsamples = 13\nvalue = [2, 17, 0]"] ;
974 -> 975 ;
976 [label="gini = 0.0\nsamples = 8\nvalue = [0, 13, 0]"] ;
975 -> 976 ;
977 [label="X[0] <= -0.471\ngini = 0.444\nsamples = 5\nvalue = [2, 4, 0]"] ;
975 -> 977 ;
978 [label="gini = 0.0\nsamples = 1\nvalue = [1, 0, 0]"] ;
977 -> 978 ;
979 [label="X[3] <= 2.427\ngini = 0.32\nsamples = 4\nvalue = [1, 4, 0]"] ;
977 -> 979 ;
980 [label="gini = 0.0\nsamples = 2\nvalue = [0, 2, 0]"] ;
979 -> 980 ;
981 [label="X[6] <= -0.237\ngini = 0.444\nsamples = 2\nvalue = [1, 2, 0]"] ;
979 -> 981 ;
982 [label="gini = 0.0\nsamples = 1\nvalue = [1, 0, 0]"] ;
981 -> 982 ;
983 [label="gini = 0.0\nsamples = 1\nvalue = [0, 2, 0]"] ;
981 -> 983 ;
984 [label="X[7] <= -0.121\ngini = 0.49\nsamples = 5\nvalue = [3, 4, 0]"] ;
974 -> 984 ;
985 [label="X[1] <= -0.409\ngini = 0.375\nsamples = 3\nvalue = [3, 1, 0]"] ;
984 -> 985 ;
986 [label="gini = 0.0\nsamples = 2\nvalue = [3, 0, 0]"] ;
985 -> 986 ;
987 [label="gini = 0.0\nsamples = 1\nvalue = [0, 1, 0]"] ;
985 -> 987 ;
988 [label="gini = 0.0\nsamples = 2\nvalue = [0, 3, 0]"] ;
984 -> 988 ;
989 [label="X[2] <= -0.498\ngini = 0.444\nsamples = 3\nvalue = [2, 1, 0]"] ;
973 -> 989 ;
990 [label="gini = 0.0\nsamples = 1\nvalue = [0, 1, 0]"] ;
989 -> 990 ;
991 [label="gini = 0.0\nsamples = 2\nvalue = [2, 0, 0]"] ;
989 -> 991 ;
992 [label="X[1] <= -0.486\ngini = 0.375\nsamples = 3\nvalue = [3, 0, 1]"] ;
966 -> 992 ;
993 [label="X[2] <= 0.768\ngini = 0.5\nsamples = 2\nvalue = [1, 0, 1]"] ;
992 -> 993 ;
994 [label="gini = 0.0\nsamples = 1\nvalue = [0, 0, 1]"] ;
993 -> 994 ;
995 [label="gini = 0.0\nsamples = 1\nvalue = [1, 0, 0]"] ;
993 -> 995 ;
996 [label="gini = 0.0\nsamples = 1\nvalue = [2, 0, 0]"] ;
992 -> 996 ;
997 [label="gini = 0.0\nsamples = 5\nvalue = [0, 10, 0]"] ;
959 -> 997 ;
998 [label="X[4] <= -0.299\ngini = 0.444\nsamples = 79\nvalue = [41, 82, 0]"] ;
908 -> 998 ;
999 [label="gini = 0.0\nsamples = 2\nvalue = [3, 0, 0]"] ;
998 -> 999 ;
1000 [label="X[7] <= -0.124\ngini = 0.433\nsamples = 77\nvalue = [38, 82, 0]"] ;
998 -> 1000 ;
1001 [label="X[6] <= -0.241\ngini = 0.293\nsamples = 35\nvalue = [10, 46, 0]"] ;
1000 -> 1001 ;
1002 [label="X[6] <= -0.241\ngini = 0.498\nsamples = 8\nvalue = [7, 8, 0]"] ;
1001 -> 1002 ;
1003 [label="gini = 0.0\nsamples = 4\nvalue = [0, 5, 0]"] ;
1002 -> 1003 ;
1004 [label="X[7] <= -0.128\ngini = 0.42\nsamples = 4\nvalue = [7, 3, 0]"] ;
1002 -> 1004 ;
1005 [label="gini = 0.0\nsamples = 2\nvalue = [5, 0, 0]"] ;
1004 -> 1005 ;
1006 [label="X[5] <= -0.362\ngini = 0.48\nsamples = 2\nvalue = [2, 3, 0]"] ;
1004 -> 1006 ;
1007 [label="gini = 0.0\nsamples = 1\nvalue = [2, 0, 0]"] ;
1006 -> 1007 ;
1008 [label="gini = 0.0\nsamples = 1\nvalue = [0, 3, 0]"] ;
1006 -> 1008 ;
1009 [label="X[6] <= -0.239\ngini = 0.136\nsamples = 27\nvalue = [3, 38, 0]"] ;
1001 -> 1009 ;
1010 [label="X[1] <= -0.447\ngini = 0.278\nsamples = 12\nvalue = [3, 15, 0]"] ;
1009 -> 1010 ;
1011 [label="gini = 0.0\nsamples = 9\nvalue = [0, 15, 0]"] ;
1010 -> 1011 ;
1012 [label="gini = 0.0\nsamples = 3\nvalue = [3, 0, 0]"] ;
1010 -> 1012 ;
1013 [label="gini = 0.0\nsamples = 15\nvalue = [0, 23, 0]"] ;
1009 -> 1013 ;
1014 [label="X[1] <= -0.471\ngini = 0.492\nsamples = 42\nvalue = [28, 36, 0]"] ;
1000 -> 1014 ;
1015 [label="gini = 0.0\nsamples = 7\nvalue = [0, 12, 0]"] ;
1014 -> 1015 ;
1016 [label="X[1] <= -0.466\ngini = 0.497\nsamples = 35\nvalue = [28, 24, 0]"] ;
1014 -> 1016 ;
1017 [label="gini = 0.0\nsamples = 3\nvalue = [5, 0, 0]"] ;
1016 -> 1017 ;
1018 [label="X[4] <= 3.347\ngini = 0.5\nsamples = 32\nvalue = [23, 24, 0]"] ;
1016 -> 1018 ;
1019 [label="X[0] <= -0.178\ngini = 0.475\nsamples = 24\nvalue = [19, 12, 0]"] ;
1018 -> 1019 ;
1020 [label="X[4] <= 1.577\ngini = 0.346\nsamples = 12\nvalue = [14, 4, 0]"] ;
1019 -> 1020 ;
1021 [label="X[4] <= -0.283\ngini = 0.444\nsamples = 9\nvalue = [8, 4, 0]"] ;
1020 -> 1021 ;
1022 [label="X[0] <= -0.262\ngini = 0.32\nsamples = 7\nvalue = [8, 2, 0]"] ;
1021 -> 1022 ;
1023 [label="gini = 0.0\nsamples = 2\nvalue = [0, 2, 0]"] ;
1022 -> 1023 ;
1024 [label="gini = 0.0\nsamples = 5\nvalue = [8, 0, 0]"] ;
1022 -> 1024 ;
1025 [label="gini = 0.0\nsamples = 2\nvalue = [0, 2, 0]"] ;
1021 -> 1025 ;
1026 [label="gini = 0.0\nsamples = 3\nvalue = [6, 0, 0]"] ;
1020 -> 1026 ;
1027 [label="X[6] <= -0.229\ngini = 0.473\nsamples = 12\nvalue = [5, 8, 0]"] ;
1019 -> 1027 ;
1028 [label="gini = 0.0\nsamples = 2\nvalue = [3, 0, 0]"] ;
1027 -> 1028 ;
1029 [label="X[7] <= -0.082\ngini = 0.32\nsamples = 10\nvalue = [2, 8, 0]"] ;
1027 -> 1029 ;
1030 [label="X[5] <= -0.349\ngini = 0.48\nsamples = 5\nvalue = [2, 3, 0]"] ;
1029 -> 1030 ;
1031 [label="gini = 0.0\nsamples = 2\nvalue = [0, 2, 0]"] ;
1030 -> 1031 ;
1032 [label="X[3] <= -0.389\ngini = 0.444\nsamples = 3\nvalue = [2, 1, 0]"] ;
1030 -> 1032 ;
1033 [label="gini = 0.0\nsamples = 1\nvalue = [0, 1, 0]"] ;
1032 -> 1033 ;
1034 [label="gini = 0.0\nsamples = 2\nvalue = [2, 0, 0]"] ;
1032 -> 1034 ;
1035 [label="gini = 0.0\nsamples = 5\nvalue = [0, 5, 0]"] ;
1029 -> 1035 ;
1036 [label="X[2] <= -0.462\ngini = 0.375\nsamples = 8\nvalue = [4, 12, 0]"] ;
1018 -> 1036 ;
1037 [label="gini = 0.0\nsamples = 5\nvalue = [0, 10, 0]"] ;
1036 -> 1037 ;
1038 [label="X[0] <= -0.227\ngini = 0.444\nsamples = 3\nvalue = [4, 2, 0]"] ;
1036 -> 1038 ;
1039 [label="gini = 0.0\nsamples = 2\nvalue = [0, 2, 0]"] ;
1038 -> 1039 ;
1040 [label="gini = 0.0\nsamples = 1\nvalue = [4, 0, 0]"] ;
1038 -> 1040 ;
}